SVM-light Version V6.01
0 # kernel type
3 # kernel parameter -d 
1 # kernel parameter -g 
1 # kernel parameter -s 
1 # kernel parameter -r 
empty# kernel parameter -u 
558 # highest feature index 
7000 # number of training documents 
1831 # number of support vectors plus 1 
0 # threshold b, each following line is a SV (starting with alpha*y)
-1.0000000589489965729939058292075 67:0.37796447 105:0.37796447 217:0.37796447 251:0.37796447 329:0.37796447 459:0.37796447 545:0.37796447 #
-1.0000000589489965729939058292075 59:0.37796447 90:0.37796447 171:0.37796447 300:0.37796447 379:0.37796447 412:0.37796447 538:0.37796447 #
-1.0000000589489965729939058292075 65:0.37796447 105:0.37796447 219:0.37796447 250:0.37796447 331:0.37796447 458:0.37796447 545:0.37796447 #
-1.0000000589489965729939058292075 59:0.37796447 90:0.37796447 219:0.37796447 250:0.37796447 331:0.37796447 458:0.37796447 538:0.37796447 #
0.40516664957071207853189775960345 59:0.37796447 82:0.37796447 224:0.37796447 303:0.37796447 384:0.37796447 463:0.37796447 538:0.37796447 #
1.0000000589489965729939058292075 59:0.37796447 90:0.37796447 195:0.37796447 243:0.37796447 323:0.37796447 435:0.37796447 538:0.37796447 #
-1.0000000589489965729939058292075 67:0.37796447 106:0.37796447 219:0.37796447 252:0.37796447 331:0.37796447 460:0.37796447 546:0.37796447 #
1.0000000589489965729939058292075 70:0.37796447 107:0.37796447 213:0.37796447 304:0.37796447 381:0.37796447 456:0.37796447 551:0.37796447 #
0.30981427074654599440606261850917 1:0.37796447 125:0.37796447 213:0.37796447 243:0.37796447 321:0.37796447 455:0.37796447 481:0.37796447 #
1.0000000589489965729939058292075 59:0.37796447 125:0.37796447 228:0.37796447 261:0.37796447 344:0.37796447 465:0.37796447 537:0.37796447 #
-1.0000000589489965729939058292075 59:0.37796447 94:0.37796447 193:0.37796447 243:0.37796447 321:0.37796447 435:0.37796447 538:0.37796447 #
-1.0000000589489965729939058292075 59:0.37796447 94:0.37796447 195:0.37796447 243:0.37796447 323:0.37796447 435:0.37796447 538:0.37796447 #
-1.0000000589489965729939058292075 59:0.37796447 106:0.37796447 213:0.37796447 243:0.37796447 321:0.37796447 455:0.37796447 538:0.37796447 #
-1.0000000589489965729939058292075 59:0.37796447 90:0.37796447 228:0.37796447 261:0.37796447 344:0.37796447 465:0.37796447 538:0.37796447 #
1.0000000589489965729939058292075 65:0.37796447 105:0.37796447 219:0.37796447 250:0.37796447 331:0.37796447 458:0.37796447 545:0.37796447 #
1.0000000589489965729939058292075 60:0.37796447 91:0.37796447 196:0.37796447 242:0.37796447 324:0.37796447 434:0.37796447 539:0.37796447 #
1.0000000589489965729939058292075 60:0.37796447 95:0.37796447 220:0.37796447 250:0.37796447 332:0.37796447 458:0.37796447 539:0.37796447 #
-0.87763952629803554383869368393789 59:0.37796447 90:0.37796447 215:0.37796447 263:0.37796447 343:0.37796447 455:0.37796447 538:0.37796447 #
-1.0000000589489965729939058292075 53:0.37796447 125:0.37796447 217:0.37796447 251:0.37796447 329:0.37796447 459:0.37796447 533:0.37796447 #
-0.25010778965756269576203862925468 58:0.37796447 146:0.37796447 223:0.37796447 294:0.37796447 375:0.37796447 462:0.37796447 538:0.37796447 #
-1.0000000589489965729939058292075 59:0.37796447 90:0.37796447 224:0.37796447 242:0.37796447 324:0.37796447 462:0.37796447 538:0.37796447 #
-1.0000000589489965729939058292075 1:0.37796447 141:0.37796447 213:0.37796447 303:0.37796447 381:0.37796447 455:0.37796447 481:0.37796447 #
1.0000000589489965729939058292075 59:0.37796447 94:0.37796447 217:0.37796447 249:0.37796447 329:0.37796447 457:0.37796447 538:0.37796447 #
1.0000000589489965729939058292075 59:0.37796447 94:0.37796447 194:0.37796447 243:0.37796447 322:0.37796447 435:0.37796447 538:0.37796447 #
1.0000000589489965729939058292075 59:0.37796447 90:0.37796447 194:0.37796447 243:0.37796447 322:0.37796447 435:0.37796447 538:0.37796447 #
1.0000000589489965729939058292075 59:0.44721359 94:0.44721359 217:0.44721359 329:0.44721359 538:0.44721359 #
-1.0000000589489965729939058292075 59:0.37796447 94:0.37796447 220:0.37796447 251:0.37796447 332:0.37796447 459:0.37796447 538:0.37796447 #
-1.0000000589489965729939058292075 59:0.37796447 94:0.37796447 196:0.37796447 243:0.37796447 324:0.37796447 435:0.37796447 538:0.37796447 #
-1.0000000589489965729939058292075 59:0.37796447 94:0.37796447 217:0.37796447 251:0.37796447 329:0.37796447 459:0.37796447 538:0.37796447 #
1.0000000589489965729939058292075 59:0.37796447 93:0.37796447 219:0.37796447 250:0.37796447 331:0.37796447 458:0.37796447 537:0.37796447 #
1.0000000589489965729939058292075 59:0.37796447 89:0.37796447 219:0.37796447 250:0.37796447 331:0.37796447 458:0.37796447 537:0.37796447 #
1.0000000589489965729939058292075 59:0.37796447 91:0.37796447 219:0.37796447 250:0.37796447 331:0.37796447 458:0.37796447 539:0.37796447 #
-1.0000000589489965729939058292075 67:0.37796447 107:0.37796447 219:0.37796447 250:0.37796447 331:0.37796447 458:0.37796447 547:0.37796447 #
-1.0000000589489965729939058292075 66:0.37796447 107:0.37796447 219:0.37796447 250:0.37796447 331:0.37796447 458:0.37796447 547:0.37796447 #
-1.0000000589489965729939058292075 68:0.37796447 107:0.37796447 219:0.37796447 250:0.37796447 331:0.37796447 458:0.37796447 547:0.37796447 #
1.0000000589489965729939058292075 59:0.37796447 94:0.37796447 217:0.37796447 251:0.37796447 329:0.37796447 459:0.37796447 538:0.37796447 #
1.0000000589489965729939058292075 58:0.37796447 106:0.37796447 214:0.37796447 303:0.37796447 382:0.37796447 455:0.37796447 538:0.37796447 #
1.0000000589489965729939058292075 67:0.37796447 105:0.37796447 220:0.37796447 251:0.37796447 332:0.37796447 459:0.37796447 545:0.37796447 #
1.0000000589489965729939058292075 59:0.37796447 94:0.37796447 218:0.37796447 251:0.37796447 330:0.37796447 459:0.37796447 538:0.37796447 #
-1.0000000589489965729939058292075 59:0.37796447 90:0.37796447 220:0.37796447 251:0.37796447 332:0.37796447 459:0.37796447 538:0.37796447 #
-1.0000000589489965729939058292075 59:0.37796447 94:0.37796447 220:0.37796447 251:0.37796447 332:0.37796447 459:0.37796447 538:0.37796447 #
-0.58917144487893835513858675767551 69:0.37796447 94:0.37796447 219:0.37796447 250:0.37796447 331:0.37796447 458:0.37796447 550:0.37796447 #
-0.28024395338585339487735836883076 45:0.37796447 84:0.37796447 185:0.37796447 288:0.37796447 365:0.37796447 428:0.37796447 528:0.37796447 #
1.0000000589489965729939058292075 68:0.37796447 107:0.37796447 219:0.37796447 250:0.37796447 331:0.37796447 458:0.37796447 547:0.37796447 #
1.0000000589489965729939058292075 67:0.37796447 107:0.37796447 219:0.37796447 250:0.37796447 331:0.37796447 458:0.37796447 547:0.37796447 #
1.0000000589489965729939058292075 68:0.37796447 107:0.37796447 219:0.37796447 252:0.37796447 331:0.37796447 460:0.37796447 547:0.37796447 #
1.0000000589489965729939058292075 68:0.37796447 107:0.37796447 219:0.37796447 249:0.37796447 331:0.37796447 457:0.37796447 547:0.37796447 #
-1.0000000589489965729939058292075 67:0.37796447 107:0.37796447 219:0.37796447 249:0.37796447 331:0.37796447 457:0.37796447 547:0.37796447 #
-1.0000000589489965729939058292075 66:0.37796447 107:0.37796447 219:0.37796447 250:0.37796447 331:0.37796447 458:0.37796447 547:0.37796447 #
1.0000000589489965729939058292075 59:0.37796447 94:0.37796447 220:0.37796447 251:0.37796447 332:0.37796447 459:0.37796447 538:0.37796447 #
1.0000000589489965729939058292075 59:0.44721359 94:0.44721359 220:0.44721359 332:0.44721359 538:0.44721359 #
1.0000000589489965729939058292075 59:0.37796447 146:0.37796447 187:0.37796447 296:0.37796447 375:0.37796447 428:0.37796447 538:0.37796447 #
-0.67533496744586318794034696111339 16:0.37796447 142:0.37796447 216:0.37796447 267:0.37796447 348:0.37796447 455:0.37796447 494:0.37796447 #
-1.0000000589489965729939058292075 59:0.37796447 142:0.37796447 214:0.37796447 303:0.37796447 382:0.37796447 455:0.37796447 538:0.37796447 #
1.0000000589489965729939058292075 59:0.37796447 144:0.37796447 170:0.37796447 303:0.37796447 382:0.37796447 411:0.37796447 540:0.37796447 #
-1.0000000589489965729939058292075 68:0.37796447 125:0.37796447 220:0.37796447 251:0.37796447 332:0.37796447 459:0.37796447 545:0.37796447 #
-1.0000000589489965729939058292075 2:0.37796447 145:0.37796447 219:0.37796447 251:0.37796447 331:0.37796447 459:0.37796447 481:0.37796447 #
1.0000000589489965729939058292075 59:0.37796447 125:0.37796447 223:0.37796447 263:0.37796447 343:0.37796447 463:0.37796447 537:0.37796447 #
-0.99638924088095071063264640542911 35:0.37796447 93:0.37796447 220:0.37796447 251:0.37796447 332:0.37796447 459:0.37796447 513:0.37796447 #
1.0000000589489965729939058292075 59:0.37796447 94:0.37796447 218:0.37796447 252:0.37796447 330:0.37796447 460:0.37796447 538:0.37796447 #
1.0000000589489965729939058292075 59:0.37796447 94:0.37796447 217:0.37796447 252:0.37796447 329:0.37796447 460:0.37796447 538:0.37796447 #
1.0000000589489965729939058292075 59:0.37796447 142:0.37796447 217:0.37796447 304:0.37796447 381:0.37796447 460:0.37796447 538:0.37796447 #
1.0000000589489965729939058292075 59:0.37796447 94:0.37796447 219:0.37796447 252:0.37796447 331:0.37796447 460:0.37796447 538:0.37796447 #
1.0000000589489965729939058292075 57:0.37796447 107:0.37796447 219:0.37796447 251:0.37796447 331:0.37796447 459:0.37796447 539:0.37796447 #
-1.0000000589489965729939058292075 59:0.37796447 94:0.37796447 219:0.37796447 252:0.37796447 331:0.37796447 460:0.37796447 538:0.37796447 #
-1.0000000589489965729939058292075 59:0.37796447 94:0.37796447 194:0.37796447 241:0.37796447 322:0.37796447 433:0.37796447 538:0.37796447 #
1.0000000589489965729939058292075 14:0.37796447 107:0.37796447 206:0.37796447 259:0.37796447 338:0.37796447 447:0.37796447 495:0.37796447 #
1.0000000589489965729939058292075 35:0.37796447 107:0.37796447 220:0.37796447 251:0.37796447 332:0.37796447 459:0.37796447 515:0.37796447 #
1.0000000589489965729939058292075 67:0.37796447 107:0.37796447 220:0.37796447 251:0.37796447 332:0.37796447 459:0.37796447 547:0.37796447 #
1.0000000589489965729939058292075 67:0.37796447 106:0.37796447 220:0.37796447 251:0.37796447 332:0.37796447 459:0.37796447 546:0.37796447 #
-1.0000000589489965729939058292075 67:0.37796447 107:0.37796447 220:0.37796447 251:0.37796447 332:0.37796447 459:0.37796447 547:0.37796447 #
-1.0000000589489965729939058292075 59:0.37796447 107:0.37796447 172:0.37796447 264:0.37796447 344:0.37796447 412:0.37796447 539:0.37796447 #
-1.0000000589489965729939058292075 59:0.37796447 93:0.37796447 225:0.37796447 263:0.37796447 341:0.37796447 467:0.37796447 537:0.37796447 #
-0.051119001330861654763815238311508 59:0.37796447 92:0.37796447 195:0.37796447 242:0.37796447 323:0.37796447 434:0.37796447 540:0.37796447 #
-1.0000000589489965729939058292075 1:0.37796447 144:0.37796447 213:0.37796447 304:0.37796447 381:0.37796447 456:0.37796447 484:0.37796447 #
1.0000000589489965729939058292075 66:0.37796447 126:0.37796447 200:0.37796447 267:0.37796447 348:0.37796447 439:0.37796447 546:0.37796447 #
-1.0000000589489965729939058292075 4:0.37796447 144:0.37796447 213:0.37796447 304:0.37796447 381:0.37796447 456:0.37796447 484:0.37796447 #
-1.0000000589489965729939058292075 3:0.37796447 144:0.37796447 213:0.37796447 304:0.37796447 381:0.37796447 456:0.37796447 484:0.37796447 #
-1.0000000589489965729939058292075 59:0.37796447 90:0.37796447 216:0.37796447 302:0.37796447 384:0.37796447 454:0.37796447 538:0.37796447 #
1.0000000589489965729939058292075 59:0.37796447 145:0.37796447 219:0.37796447 251:0.37796447 331:0.37796447 459:0.37796447 537:0.37796447 #
-1.0000000589489965729939058292075 59:0.44721359 89:0.44721359 219:0.44721359 331:0.44721359 537:0.44721359 #
-1.0000000589489965729939058292075 34:0.37796447 95:0.37796447 219:0.37796447 251:0.37796447 331:0.37796447 459:0.37796447 515:0.37796447 #
-1.0000000589489965729939058292075 46:0.37796447 107:0.37796447 219:0.37796447 252:0.37796447 331:0.37796447 460:0.37796447 527:0.37796447 #
-1.0000000589489965729939058292075 54:0.37796447 107:0.37796447 219:0.37796447 252:0.37796447 331:0.37796447 460:0.37796447 535:0.37796447 #
1.0000000589489965729939058292075 59:0.37796447 144:0.37796447 213:0.37796447 304:0.37796447 381:0.37796447 456:0.37796447 540:0.37796447 #
1.0000000589489965729939058292075 59:0.37796447 106:0.37796447 213:0.37796447 304:0.37796447 381:0.37796447 456:0.37796447 538:0.37796447 #
1.0000000589489965729939058292075 59:0.37796447 148:0.37796447 213:0.37796447 304:0.37796447 381:0.37796447 456:0.37796447 540:0.37796447 #
1.0000000589489965729939058292075 59:0.37796447 146:0.37796447 213:0.37796447 304:0.37796447 381:0.37796447 456:0.37796447 538:0.37796447 #
1.0000000589489965729939058292075 1:0.37796447 144:0.37796447 213:0.37796447 241:0.37796447 321:0.37796447 453:0.37796447 484:0.37796447 #
-1.0000000589489965729939058292075 59:0.37796447 90:0.37796447 213:0.37796447 304:0.37796447 381:0.37796447 456:0.37796447 538:0.37796447 #
-1.0000000589489965729939058292075 59:0.37796447 143:0.37796447 213:0.37796447 304:0.37796447 381:0.37796447 456:0.37796447 539:0.37796447 #
-1.0000000589489965729939058292075 59:0.37796447 142:0.37796447 213:0.37796447 301:0.37796447 381:0.37796447 453:0.37796447 538:0.37796447 #
1.0000000589489965729939058292075 66:0.37796447 125:0.37796447 219:0.37796447 251:0.37796447 331:0.37796447 459:0.37796447 545:0.37796447 #
1.0000000589489965729939058292075 67:0.37796447 93:0.37796447 219:0.37796447 251:0.37796447 331:0.37796447 459:0.37796447 545:0.37796447 #
1.0000000589489965729939058292075 66:0.37796447 105:0.37796447 219:0.37796447 251:0.37796447 331:0.37796447 459:0.37796447 545:0.37796447 #
-1.0000000589489965729939058292075 67:0.37796447 105:0.37796447 217:0.37796447 251:0.37796447 329:0.37796447 459:0.37796447 545:0.37796447 #
-1.0000000589489965729939058292075 46:0.37796447 105:0.37796447 219:0.37796447 252:0.37796447 331:0.37796447 460:0.37796447 525:0.37796447 #
-1.0000000589489965729939058292075 67:0.37796447 105:0.37796447 220:0.37796447 251:0.37796447 332:0.37796447 459:0.37796447 545:0.37796447 #
-1.0000000589489965729939058292075 66:0.37796447 107:0.37796447 219:0.37796447 251:0.37796447 331:0.37796447 459:0.37796447 547:0.37796447 #
-1.0000000589489965729939058292075 67:0.37796447 106:0.37796447 219:0.37796447 251:0.37796447 331:0.37796447 459:0.37796447 546:0.37796447 #
1.0000000589489965729939058292075 59:0.37796447 146:0.37796447 221:0.37796447 304:0.37796447 381:0.37796447 464:0.37796447 538:0.37796447 #
1.0000000589489965729939058292075 59:0.37796447 142:0.37796447 225:0.37796447 304:0.37796447 381:0.37796447 468:0.37796447 538:0.37796447 #
1.0000000589489965729939058292075 59:0.37796447 90:0.37796447 193:0.37796447 302:0.37796447 381:0.37796447 434:0.37796447 538:0.37796447 #
-1.0000000589489965729939058292075 59:0.37796447 90:0.37796447 221:0.37796447 304:0.37796447 381:0.37796447 464:0.37796447 538:0.37796447 #
-1.0000000589489965729939058292075 59:0.37796447 90:0.37796447 221:0.37796447 302:0.37796447 381:0.37796447 462:0.37796447 538:0.37796447 #
-1.0000000589489965729939058292075 59:0.37796447 90:0.37796447 213:0.37796447 302:0.37796447 381:0.37796447 454:0.37796447 538:0.37796447 #
-1.0000000589489965729939058292075 59:0.37796447 142:0.37796447 213:0.37796447 304:0.37796447 381:0.37796447 456:0.37796447 538:0.37796447 #
1.0000000589489965729939058292075 59:0.37796447 94:0.37796447 219:0.37796447 252:0.37796447 331:0.37796447 460:0.37796447 538:0.37796447 #
-0.23742911316641965302487449207547 1:0.37796447 148:0.37796447 222:0.37796447 299:0.37796447 378:0.37796447 463:0.37796447 484:0.37796447 #
-0.90830320423926003137182760838186 47:0.37796447 146:0.37796447 188:0.37796447 308:0.37796447 388:0.37796447 428:0.37796447 526:0.37796447 #
-1.0000000589489965729939058292075 45:0.37796447 146:0.37796447 187:0.37796447 306:0.37796447 387:0.37796447 426:0.37796447 526:0.37796447 #
-0.20121141486727128766531791370653 45:0.37796447 145:0.37796447 185:0.37796447 307:0.37796447 385:0.37796447 427:0.37796447 525:0.37796447 #
1.0000000589489965729939058292075 57:0.37796447 90:0.37796447 221:0.37796447 303:0.37796447 381:0.37796447 463:0.37796447 538:0.37796447 #
1.0000000589489965729939058292075 59:0.37796447 90:0.37796447 217:0.37796447 302:0.37796447 381:0.37796447 458:0.37796447 538:0.37796447 #
1.0000000589489965729939058292075 59:0.37796447 142:0.37796447 217:0.37796447 302:0.37796447 381:0.37796447 458:0.37796447 538:0.37796447 #
-0.17049817515794393751882296328404 60:0.37796447 113:0.37796447 175:0.37796447 302:0.37796447 383:0.37796447 414:0.37796447 537:0.37796447 #
1.0000000589489965729939058292075 70:0.37796447 155:0.37796447 170:0.37796447 299:0.37796447 378:0.37796447 411:0.37796447 551:0.37796447 #
-1.0000000589489965729939058292075 59:0.37796447 94:0.37796447 225:0.37796447 263:0.37796447 341:0.37796447 467:0.37796447 538:0.37796447 #
-1.0000000589489965729939058292075 59:0.37796447 94:0.37796447 218:0.37796447 251:0.37796447 330:0.37796447 459:0.37796447 538:0.37796447 #
-1.0000000589489965729939058292075 59:0.37796447 94:0.37796447 205:0.37796447 264:0.37796447 341:0.37796447 448:0.37796447 538:0.37796447 #
-1.0000000589489965729939058292075 59:0.37796447 94:0.37796447 205:0.37796447 263:0.37796447 341:0.37796447 447:0.37796447 538:0.37796447 #
1.0000000589489965729939058292075 58:0.37796447 95:0.37796447 218:0.37796447 251:0.37796447 330:0.37796447 459:0.37796447 539:0.37796447 #
1.0000000589489965729939058292075 47:0.37796447 150:0.37796447 219:0.37796447 251:0.37796447 331:0.37796447 459:0.37796447 526:0.37796447 #
1.0000000589489965729939058292075 45:0.37796447 106:0.37796447 219:0.37796447 251:0.37796447 331:0.37796447 459:0.37796447 526:0.37796447 #
-1.0000000589489965729939058292075 13:0.37796447 106:0.37796447 219:0.37796447 251:0.37796447 331:0.37796447 459:0.37796447 494:0.37796447 #
-1.0000000589489965729939058292075 55:0.37796447 106:0.37796447 219:0.37796447 251:0.37796447 331:0.37796447 459:0.37796447 534:0.37796447 #
-1.0000000589489965729939058292075 53:0.37796447 106:0.37796447 219:0.37796447 251:0.37796447 331:0.37796447 459:0.37796447 534:0.37796447 #
-1.0000000589489965729939058292075 15:0.37796447 106:0.37796447 219:0.37796447 251:0.37796447 331:0.37796447 459:0.37796447 494:0.37796447 #
1.0000000589489965729939058292075 59:0.37796447 94:0.37796447 220:0.37796447 252:0.37796447 332:0.37796447 460:0.37796447 538:0.37796447 #
1.0000000589489965729939058292075 57:0.37796447 94:0.37796447 205:0.37796447 263:0.37796447 341:0.37796447 447:0.37796447 538:0.37796447 #
0.19406730791143395054021425494284 59:0.37796447 125:0.37796447 205:0.37796447 263:0.37796447 341:0.37796447 447:0.37796447 537:0.37796447 #
-1.0000000589489965729939058292075 57:0.37796447 94:0.37796447 207:0.37796447 263:0.37796447 343:0.37796447 447:0.37796447 538:0.37796447 #
-1.0000000589489965729939058292075 59:0.37796447 94:0.37796447 206:0.37796447 263:0.37796447 342:0.37796447 447:0.37796447 538:0.37796447 #
1.0000000589489965729939058292075 13:0.37796447 106:0.37796447 219:0.37796447 251:0.37796447 331:0.37796447 459:0.37796447 494:0.37796447 #
1.0000000589489965729939058292075 14:0.37796447 106:0.37796447 219:0.37796447 251:0.37796447 331:0.37796447 459:0.37796447 494:0.37796447 #
1.0000000589489965729939058292075 2:0.37796447 106:0.37796447 219:0.37796447 251:0.37796447 331:0.37796447 459:0.37796447 482:0.37796447 #
1.0000000589489965729939058292075 67:0.37796447 106:0.37796447 219:0.37796447 251:0.37796447 331:0.37796447 459:0.37796447 546:0.37796447 #
1.0000000589489965729939058292075 46:0.37796447 106:0.37796447 219:0.37796447 251:0.37796447 331:0.37796447 459:0.37796447 526:0.37796447 #
-1.0000000589489965729939058292075 14:0.37796447 106:0.37796447 219:0.37796447 251:0.37796447 331:0.37796447 459:0.37796447 494:0.37796447 #
-1.0000000589489965729939058292075 47:0.37796447 106:0.37796447 219:0.37796447 251:0.37796447 331:0.37796447 459:0.37796447 526:0.37796447 #
1.0000000589489965729939058292075 59:0.37796447 94:0.37796447 228:0.37796447 263:0.37796447 344:0.37796447 467:0.37796447 538:0.37796447 #
1.0000000589489965729939058292075 59:0.37796447 126:0.37796447 170:0.37796447 263:0.37796447 342:0.37796447 411:0.37796447 538:0.37796447 #
0.92320875768171684061513815322542 59:0.37796447 146:0.37796447 188:0.37796447 308:0.37796447 388:0.37796447 428:0.37796447 538:0.37796447 #
1.0000000589489965729939058292075 59:0.37796447 94:0.37796447 228:0.37796447 264:0.37796447 344:0.37796447 468:0.37796447 538:0.37796447 #
-1.0000000589489965729939058292075 59:0.37796447 114:0.37796447 170:0.37796447 303:0.37796447 382:0.37796447 411:0.37796447 538:0.37796447 #
-1.0000000589489965729939058292075 59:0.37796447 90:0.37796447 228:0.37796447 262:0.37796447 344:0.37796447 466:0.37796447 538:0.37796447 #
-1.0000000589489965729939058292075 59:0.44721359 82:0.44721359 170:0.44721359 342:0.44721359 538:0.44721359 #
1.0000000589489965729939058292075 59:0.37796447 125:0.37796447 224:0.37796447 263:0.37796447 344:0.37796447 463:0.37796447 537:0.37796447 #
-1.0000000589489965729939058292075 3:0.37796447 146:0.37796447 219:0.37796447 251:0.37796447 331:0.37796447 459:0.37796447 482:0.37796447 #
-1.0000000589489965729939058292075 67:0.37796447 106:0.37796447 219:0.37796447 251:0.37796447 331:0.37796447 459:0.37796447 546:0.37796447 #
-1.0000000589489965729939058292075 11:0.37796447 146:0.37796447 219:0.37796447 251:0.37796447 331:0.37796447 459:0.37796447 490:0.37796447 #
-1.0000000589489965729939058292075 14:0.37796447 81:0.37796447 219:0.37796447 251:0.37796447 331:0.37796447 459:0.37796447 493:0.37796447 #
1.0000000589489965729939058292075 59:0.37796447 82:0.37796447 170:0.37796447 303:0.37796447 382:0.37796447 411:0.37796447 538:0.37796447 #
1.0000000589489965729939058292075 59:0.37796447 90:0.37796447 170:0.37796447 299:0.37796447 378:0.37796447 411:0.37796447 538:0.37796447 #
-0.96227708377506004921997373457998 53:0.37796447 125:0.37796447 219:0.37796447 250:0.37796447 331:0.37796447 458:0.37796447 533:0.37796447 #
-1.0000000589489965729939058292075 59:0.44721359 125:0.44721359 215:0.44721359 383:0.44721359 537:0.44721359 #
-1.0000000589489965729939058292075 57:0.37796447 90:0.37796447 170:0.37796447 299:0.37796447 378:0.37796447 411:0.37796447 538:0.37796447 #
1.0000000589489965729939058292075 1:0.37796447 101:0.37796447 219:0.37796447 251:0.37796447 331:0.37796447 459:0.37796447 481:0.37796447 #
1.0000000589489965729939058292075 14:0.37796447 146:0.37796447 219:0.37796447 251:0.37796447 331:0.37796447 459:0.37796447 494:0.37796447 #
1.0000000589489965729939058292075 67:0.37796447 105:0.37796447 219:0.37796447 251:0.37796447 331:0.37796447 459:0.37796447 545:0.37796447 #
-0.23834999663523004365117685665609 35:0.37796447 95:0.37796447 219:0.37796447 249:0.37796447 331:0.37796447 457:0.37796447 515:0.37796447 #
-1.0000000589489965729939058292075 14:0.37796447 128:0.37796447 219:0.37796447 251:0.37796447 331:0.37796447 459:0.37796447 496:0.37796447 #
-1.0000000589489965729939058292075 14:0.37796447 116:0.37796447 219:0.37796447 251:0.37796447 331:0.37796447 459:0.37796447 496:0.37796447 #
-1.0000000589489965729939058292075 67:0.37796447 127:0.37796447 219:0.37796447 251:0.37796447 331:0.37796447 459:0.37796447 547:0.37796447 #
-1.0000000589489965729939058292075 14:0.37796447 108:0.37796447 219:0.37796447 251:0.37796447 331:0.37796447 459:0.37796447 496:0.37796447 #
1.0000000589489965729939058292075 59:0.37796447 90:0.37796447 170:0.37796447 299:0.37796447 378:0.37796447 411:0.37796447 538:0.37796447 #
1.0000000589489965729939058292075 59:0.44721359 90:0.44721359 170:0.44721359 378:0.44721359 538:0.44721359 #
1.0000000589489965729939058292075 59:0.37796447 89:0.37796447 215:0.37796447 303:0.37796447 383:0.37796447 455:0.37796447 537:0.37796447 #
-1.0000000589489965729939058292075 59:0.37796447 90:0.37796447 170:0.37796447 298:0.37796447 378:0.37796447 410:0.37796447 538:0.37796447 #
-1.0000000589489965729939058292075 59:0.37796447 90:0.37796447 170:0.37796447 300:0.37796447 378:0.37796447 412:0.37796447 538:0.37796447 #
-1.0000000589489965729939058292075 59:0.37796447 90:0.37796447 170:0.37796447 297:0.37796447 378:0.37796447 409:0.37796447 538:0.37796447 #
0.73899701575616671966884041466983 59:0.37796447 118:0.37796447 170:0.37796447 299:0.37796447 378:0.37796447 411:0.37796447 538:0.37796447 #
0.5947035910645713796540690054826 59:0.37796447 90:0.37796447 219:0.37796447 243:0.37796447 323:0.37796447 459:0.37796447 538:0.37796447 #
1.0000000589489965729939058292075 59:0.37796447 107:0.37796447 228:0.37796447 263:0.37796447 344:0.37796447 467:0.37796447 539:0.37796447 #
-1.0000000589489965729939058292075 71:0.37796447 94:0.37796447 219:0.37796447 251:0.37796447 331:0.37796447 459:0.37796447 550:0.37796447 #
-1.0000000589489965729939058292075 14:0.37796447 105:0.37796447 219:0.37796447 251:0.37796447 331:0.37796447 459:0.37796447 493:0.37796447 #
-1.0000000589489965729939058292075 14:0.37796447 113:0.37796447 219:0.37796447 251:0.37796447 331:0.37796447 459:0.37796447 493:0.37796447 #
1.0000000589489965729939058292075 59:0.37796447 90:0.37796447 170:0.37796447 297:0.37796447 378:0.37796447 409:0.37796447 538:0.37796447 #
1.0000000589489965729939058292075 59:0.37796447 90:0.37796447 225:0.37796447 298:0.37796447 377:0.37796447 466:0.37796447 538:0.37796447 #
1.0000000589489965729939058292075 59:0.37796447 82:0.37796447 170:0.37796447 297:0.37796447 378:0.37796447 409:0.37796447 538:0.37796447 #
1.0000000589489965729939058292075 59:0.37796447 90:0.37796447 170:0.37796447 299:0.37796447 378:0.37796447 411:0.37796447 538:0.37796447 #
-1.0000000589489965729939058292075 59:0.44721359 90:0.44721359 220:0.44721359 332:0.44721359 538:0.44721359 #
-1.0000000589489965729939058292075 59:0.37796447 142:0.37796447 214:0.37796447 303:0.37796447 382:0.37796447 455:0.37796447 538:0.37796447 #
-1.0000000589489965729939058292075 59:0.37796447 90:0.37796447 169:0.37796447 299:0.37796447 377:0.37796447 411:0.37796447 538:0.37796447 #
1.0000000589489965729939058292075 69:0.37796447 106:0.37796447 219:0.37796447 251:0.37796447 331:0.37796447 459:0.37796447 550:0.37796447 #
1.0000000589489965729939058292075 70:0.37796447 106:0.37796447 219:0.37796447 251:0.37796447 331:0.37796447 459:0.37796447 550:0.37796447 #
1.0000000589489965729939058292075 72:0.37796447 106:0.37796447 219:0.37796447 251:0.37796447 331:0.37796447 459:0.37796447 550:0.37796447 #
1.0000000589489965729939058292075 60:0.37796447 113:0.37796447 219:0.37796447 251:0.37796447 331:0.37796447 459:0.37796447 537:0.37796447 #
-1.0000000589489965729939058292075 63:0.37796447 82:0.37796447 219:0.37796447 251:0.37796447 331:0.37796447 459:0.37796447 542:0.37796447 #
-1.0000000589489965729939058292075 69:0.37796447 95:0.37796447 219:0.37796447 251:0.37796447 331:0.37796447 459:0.37796447 551:0.37796447 #
-1.0000000589489965729939058292075 15:0.37796447 82:0.37796447 219:0.37796447 251:0.37796447 331:0.37796447 459:0.37796447 494:0.37796447 #
1.0000000589489965729939058292075 59:0.37796447 126:0.37796447 186:0.37796447 301:0.37796447 382:0.37796447 425:0.37796447 538:0.37796447 #
1.0000000589489965729939058292075 59:0.37796447 126:0.37796447 169:0.37796447 302:0.37796447 381:0.37796447 410:0.37796447 538:0.37796447 #
1.0000000589489965729939058292075 59:0.37796447 90:0.37796447 195:0.37796447 262:0.37796447 343:0.37796447 434:0.37796447 538:0.37796447 #
1.0000000589489965729939058292075 59:0.37796447 90:0.37796447 207:0.37796447 242:0.37796447 323:0.37796447 446:0.37796447 538:0.37796447 #
-1.0000000589489965729939058292075 59:0.37796447 90:0.37796447 193:0.37796447 242:0.37796447 321:0.37796447 434:0.37796447 538:0.37796447 #
-1.0000000589489965729939058292075 59:0.37796447 90:0.37796447 195:0.37796447 242:0.37796447 323:0.37796447 434:0.37796447 538:0.37796447 #
-1.0000000589489965729939058292075 59:0.37796447 126:0.37796447 213:0.37796447 302:0.37796447 381:0.37796447 454:0.37796447 538:0.37796447 #
1.0000000589489965729939058292075 63:0.37796447 82:0.37796447 219:0.37796447 251:0.37796447 331:0.37796447 459:0.37796447 542:0.37796447 #
1.0000000589489965729939058292075 14:0.37796447 84:0.37796447 219:0.37796447 251:0.37796447 331:0.37796447 459:0.37796447 496:0.37796447 #
1.0000000589489965729939058292075 14:0.37796447 115:0.37796447 219:0.37796447 251:0.37796447 331:0.37796447 459:0.37796447 495:0.37796447 #
-1.0000000589489965729939058292075 59:0.37796447 82:0.37796447 217:0.37796447 251:0.37796447 329:0.37796447 459:0.37796447 538:0.37796447 #
1.0000000589489965729939058292075 47:0.37796447 152:0.37796447 219:0.37796447 251:0.37796447 331:0.37796447 459:0.37796447 528:0.37796447 #
-1.0000000589489965729939058292075 45:0.37796447 108:0.37796447 219:0.37796447 251:0.37796447 331:0.37796447 459:0.37796447 528:0.37796447 #
-1.0000000589489965729939058292075 14:0.37796447 83:0.37796447 219:0.37796447 251:0.37796447 331:0.37796447 459:0.37796447 495:0.37796447 #
-1.0000000589489965729939058292075 68:0.37796447 126:0.37796447 219:0.37796447 251:0.37796447 331:0.37796447 459:0.37796447 546:0.37796447 #
-1.0000000589489965729939058292075 31:0.37796447 126:0.37796447 219:0.37796447 251:0.37796447 331:0.37796447 459:0.37796447 510:0.37796447 #
1.0000000589489965729939058292075 59:0.37796447 142:0.37796447 213:0.37796447 242:0.37796447 321:0.37796447 454:0.37796447 538:0.37796447 #
1.0000000589489965729939058292075 59:0.37796447 90:0.37796447 195:0.37796447 242:0.37796447 323:0.37796447 434:0.37796447 538:0.37796447 #
1.0000000589489965729939058292075 59:0.37796447 146:0.37796447 213:0.37796447 242:0.37796447 321:0.37796447 454:0.37796447 538:0.37796447 #
1.0000000589489965729939058292075 59:0.37796447 126:0.37796447 213:0.37796447 306:0.37796447 385:0.37796447 454:0.37796447 538:0.37796447 #
-1.0000000589489965729939058292075 59:0.37796447 142:0.37796447 213:0.37796447 302:0.37796447 381:0.37796447 454:0.37796447 538:0.37796447 #
-1.0000000589489965729939058292075 59:0.37796447 146:0.37796447 213:0.37796447 262:0.37796447 341:0.37796447 454:0.37796447 538:0.37796447 #
-1.0000000589489965729939058292075 59:0.37796447 106:0.37796447 213:0.37796447 241:0.37796447 321:0.37796447 453:0.37796447 538:0.37796447 #
-1.0000000589489965729939058292075 59:0.37796447 94:0.37796447 205:0.37796447 262:0.37796447 341:0.37796447 446:0.37796447 538:0.37796447 #
-1.0000000589489965729939058292075 59:0.37796447 106:0.37796447 213:0.37796447 261:0.37796447 341:0.37796447 453:0.37796447 538:0.37796447 #
1.0000000589489965729939058292075 68:0.37796447 108:0.37796447 219:0.37796447 251:0.37796447 331:0.37796447 459:0.37796447 548:0.37796447 #
-1.0000000589489965729939058292075 59:0.37796447 126:0.37796447 215:0.37796447 303:0.37796447 383:0.37796447 455:0.37796447 538:0.37796447 #
-1.0000000589489965729939058292075 67:0.37796447 108:0.37796447 219:0.37796447 251:0.37796447 331:0.37796447 459:0.37796447 548:0.37796447 #
-1.0000000589489965729939058292075 68:0.37796447 107:0.37796447 218:0.37796447 251:0.37796447 330:0.37796447 459:0.37796447 547:0.37796447 #
1.0000000589489965729939058292075 59:0.37796447 142:0.37796447 213:0.37796447 262:0.37796447 341:0.37796447 454:0.37796447 538:0.37796447 #
1.0000000589489965729939058292075 59:0.37796447 106:0.37796447 213:0.37796447 264:0.37796447 341:0.37796447 456:0.37796447 538:0.37796447 #
1.0000000589489965729939058292075 59:0.37796447 106:0.37796447 213:0.37796447 261:0.37796447 341:0.37796447 453:0.37796447 538:0.37796447 #
-1.0000000589489965729939058292075 59:0.37796447 106:0.37796447 213:0.37796447 263:0.37796447 341:0.37796447 455:0.37796447 538:0.37796447 #
-1.0000000589489965729939058292075 59:0.37796447 146:0.37796447 213:0.37796447 264:0.37796447 341:0.37796447 456:0.37796447 538:0.37796447 #
-1.0000000589489965729939058292075 59:0.37796447 146:0.37796447 213:0.37796447 261:0.37796447 341:0.37796447 453:0.37796447 538:0.37796447 #
-1.0000000589489965729939058292075 59:0.37796447 94:0.37796447 213:0.37796447 264:0.37796447 341:0.37796447 456:0.37796447 538:0.37796447 #
1.0000000589489965729939058292075 67:0.37796447 107:0.37796447 218:0.37796447 251:0.37796447 330:0.37796447 459:0.37796447 547:0.37796447 #
1.0000000589489965729939058292075 67:0.37796447 107:0.37796447 220:0.37796447 251:0.37796447 332:0.37796447 459:0.37796447 547:0.37796447 #
1.0000000589489965729939058292075 67:0.37796447 108:0.37796447 219:0.37796447 251:0.37796447 331:0.37796447 459:0.37796447 548:0.37796447 #
-1.0000000589489965729939058292075 67:0.37796447 107:0.37796447 220:0.37796447 251:0.37796447 332:0.37796447 459:0.37796447 547:0.37796447 #
-1.0000000589489965729939058292075 67:0.37796447 107:0.37796447 217:0.37796447 251:0.37796447 329:0.37796447 459:0.37796447 547:0.37796447 #
-1.0000000589489965729939058292075 67:0.37796447 107:0.37796447 218:0.37796447 251:0.37796447 330:0.37796447 459:0.37796447 547:0.37796447 #
-0.076854321425030111547549438455462 59:0.37796447 126:0.37796447 225:0.37796447 263:0.37796447 341:0.37796447 467:0.37796447 538:0.37796447 #
1.0000000589489965729939058292075 59:0.37796447 90:0.37796447 213:0.37796447 263:0.37796447 341:0.37796447 455:0.37796447 538:0.37796447 #
-1.0000000589489965729939058292075 59:0.37796447 93:0.37796447 213:0.37796447 263:0.37796447 341:0.37796447 455:0.37796447 537:0.37796447 #
-1.0000000589489965729939058292075 59:0.37796447 108:0.37796447 213:0.37796447 263:0.37796447 341:0.37796447 455:0.37796447 540:0.37796447 #
-0.20533190742663925965061366696318 59:0.37796447 93:0.37796447 216:0.37796447 263:0.37796447 344:0.37796447 455:0.37796447 537:0.37796447 #
-1.0000000589489965729939058292075 59:0.37796447 126:0.37796447 213:0.37796447 263:0.37796447 341:0.37796447 455:0.37796447 538:0.37796447 #
1.0000000589489965729939058292075 67:0.37796447 107:0.37796447 217:0.37796447 251:0.37796447 329:0.37796447 459:0.37796447 547:0.37796447 #
1.0000000589489965729939058292075 67:0.37796447 107:0.37796447 218:0.37796447 251:0.37796447 330:0.37796447 459:0.37796447 547:0.37796447 #
-1.0000000589489965729939058292075 67:0.37796447 107:0.37796447 218:0.37796447 251:0.37796447 330:0.37796447 459:0.37796447 547:0.37796447 #
-1.0000000589489965729939058292075 67:0.37796447 108:0.37796447 219:0.37796447 251:0.37796447 331:0.37796447 459:0.37796447 548:0.37796447 #
1.0000000589489965729939058292075 59:0.37796447 148:0.37796447 213:0.37796447 263:0.37796447 341:0.37796447 455:0.37796447 540:0.37796447 #
0.2072526944007423432836390020384 59:0.37796447 125:0.37796447 206:0.37796447 302:0.37796447 382:0.37796447 446:0.37796447 537:0.37796447 #
-1.0000000589489965729939058292075 59:0.37796447 128:0.37796447 213:0.37796447 263:0.37796447 341:0.37796447 455:0.37796447 540:0.37796447 #
-1.0000000589489965729939058292075 59:0.37796447 92:0.37796447 213:0.37796447 263:0.37796447 341:0.37796447 455:0.37796447 540:0.37796447 #
-1.0000000589489965729939058292075 59:0.37796447 125:0.37796447 225:0.37796447 263:0.37796447 341:0.37796447 467:0.37796447 537:0.37796447 #
-1.0000000589489965729939058292075 59:0.37796447 147:0.37796447 213:0.37796447 263:0.37796447 341:0.37796447 455:0.37796447 539:0.37796447 #
1.0000000589489965729939058292075 67:0.37796447 108:0.37796447 219:0.37796447 251:0.37796447 331:0.37796447 459:0.37796447 548:0.37796447 #
1.0000000589489965729939058292075 68:0.37796447 108:0.37796447 219:0.37796447 251:0.37796447 331:0.37796447 459:0.37796447 548:0.37796447 #
-1.0000000589489965729939058292075 34:0.37796447 91:0.37796447 219:0.37796447 251:0.37796447 331:0.37796447 459:0.37796447 515:0.37796447 #
-1.0000000589489965729939058292075 53:0.37796447 108:0.37796447 219:0.37796447 251:0.37796447 331:0.37796447 459:0.37796447 536:0.37796447 #
-1.0000000589489965729939058292075 47:0.37796447 146:0.37796447 219:0.37796447 251:0.37796447 331:0.37796447 459:0.37796447 526:0.37796447 #
-1.0000000589489965729939058292075 59:0.37796447 127:0.37796447 228:0.37796447 263:0.37796447 344:0.37796447 467:0.37796447 539:0.37796447 #
1.0000000589489965729939058292075 59:0.37796447 125:0.37796447 206:0.37796447 263:0.37796447 342:0.37796447 447:0.37796447 537:0.37796447 #
1.0000000589489965729939058292075 59:0.37796447 143:0.37796447 228:0.37796447 263:0.37796447 344:0.37796447 467:0.37796447 539:0.37796447 #
1.0000000589489965729939058292075 59:0.37796447 125:0.37796447 205:0.37796447 263:0.37796447 341:0.37796447 447:0.37796447 537:0.37796447 #
-1.0000000589489965729939058292075 59:0.37796447 125:0.37796447 206:0.37796447 263:0.37796447 342:0.37796447 447:0.37796447 537:0.37796447 #
-1.0000000589489965729939058292075 59:0.37796447 125:0.37796447 226:0.37796447 263:0.37796447 342:0.37796447 467:0.37796447 537:0.37796447 #
-1.0000000589489965729939058292075 59:0.37796447 125:0.37796447 170:0.37796447 262:0.37796447 342:0.37796447 410:0.37796447 537:0.37796447 #
-1.0000000589489965729939058292075 59:0.37796447 125:0.37796447 169:0.37796447 263:0.37796447 341:0.37796447 411:0.37796447 537:0.37796447 #
1.0000000589489965729939058292075 10:0.37796447 106:0.37796447 219:0.37796447 251:0.37796447 331:0.37796447 459:0.37796447 490:0.37796447 #
1.0000000589489965729939058292075 69:0.37796447 125:0.37796447 219:0.37796447 251:0.37796447 331:0.37796447 459:0.37796447 549:0.37796447 #
-1.0000000589489965729939058292075 59:0.37796447 126:0.37796447 215:0.37796447 303:0.37796447 383:0.37796447 455:0.37796447 538:0.37796447 #
-1.0000000589489965729939058292075 59:0.37796447 93:0.37796447 219:0.37796447 250:0.37796447 331:0.37796447 458:0.37796447 537:0.37796447 #
1.0000000589489965729939058292075 59:0.37796447 125:0.37796447 170:0.37796447 264:0.37796447 342:0.37796447 412:0.37796447 537:0.37796447 #
1.0000000589489965729939058292075 59:0.37796447 141:0.37796447 214:0.37796447 262:0.37796447 342:0.37796447 454:0.37796447 537:0.37796447 #
1.0000000589489965729939058292075 59:0.37796447 93:0.37796447 218:0.37796447 250:0.37796447 330:0.37796447 458:0.37796447 537:0.37796447 #
1.0000000589489965729939058292075 68:0.37796447 144:0.37796447 215:0.37796447 279:0.37796447 359:0.37796447 455:0.37796447 548:0.37796447 #
-1.0000000589489965729939058292075 59:0.37796447 125:0.37796447 219:0.37796447 250:0.37796447 331:0.37796447 458:0.37796447 537:0.37796447 #
-1.0000000589489965729939058292075 59:0.37796447 82:0.37796447 220:0.37796447 251:0.37796447 332:0.37796447 459:0.37796447 538:0.37796447 #
-1.0000000589489965729939058292075 59:0.37796447 126:0.37796447 213:0.37796447 301:0.37796447 381:0.37796447 453:0.37796447 538:0.37796447 #
1.0000000589489965729939058292075 67:0.37796447 106:0.37796447 217:0.37796447 251:0.37796447 329:0.37796447 459:0.37796447 546:0.37796447 #
1.0000000589489965729939058292075 67:0.37796447 107:0.37796447 217:0.37796447 251:0.37796447 329:0.37796447 459:0.37796447 547:0.37796447 #
1.0000000589489965729939058292075 46:0.37796447 107:0.37796447 217:0.37796447 251:0.37796447 329:0.37796447 459:0.37796447 527:0.37796447 #
1.0000000589489965729939058292075 34:0.37796447 127:0.37796447 220:0.37796447 299:0.37796447 380:0.37796447 459:0.37796447 515:0.37796447 #
-0.25767019013524700143946688513097 57:0.37796447 150:0.37796447 219:0.37796447 250:0.37796447 331:0.37796447 458:0.37796447 538:0.37796447 #
-1.0000000589489965729939058292075 13:0.37796447 107:0.37796447 217:0.37796447 251:0.37796447 329:0.37796447 459:0.37796447 495:0.37796447 #
1.0000000589489965729939058292075 59:0.37796447 125:0.37796447 214:0.37796447 302:0.37796447 382:0.37796447 454:0.37796447 537:0.37796447 #
1.0000000589489965729939058292075 59:0.37796447 125:0.37796447 222:0.37796447 302:0.37796447 382:0.37796447 462:0.37796447 537:0.37796447 #
1.0000000589489965729939058292075 59:0.37796447 125:0.37796447 213:0.37796447 301:0.37796447 381:0.37796447 453:0.37796447 537:0.37796447 #
-1.0000000589489965729939058292075 59:0.37796447 125:0.37796447 214:0.37796447 302:0.37796447 382:0.37796447 454:0.37796447 537:0.37796447 #
-1.0000000589489965729939058292075 59:0.37796447 127:0.37796447 170:0.37796447 304:0.37796447 382:0.37796447 412:0.37796447 539:0.37796447 #
-1.0000000589489965729939058292075 59:0.37796447 113:0.37796447 174:0.37796447 303:0.37796447 382:0.37796447 415:0.37796447 537:0.37796447 #
1.0000000589489965729939058292075 57:0.37796447 94:0.37796447 219:0.37796447 252:0.37796447 331:0.37796447 460:0.37796447 538:0.37796447 #
1.0000000589489965729939058292075 13:0.37796447 107:0.37796447 219:0.37796447 252:0.37796447 331:0.37796447 460:0.37796447 495:0.37796447 #
1.0000000589489965729939058292075 14:0.37796447 108:0.37796447 216:0.37796447 267:0.37796447 348:0.37796447 455:0.37796447 496:0.37796447 #
1.0000000589489965729939058292075 67:0.37796447 106:0.37796447 217:0.37796447 251:0.37796447 329:0.37796447 459:0.37796447 546:0.37796447 #
1.0000000589489965729939058292075 3:0.37796447 94:0.37796447 219:0.37796447 252:0.37796447 331:0.37796447 460:0.37796447 482:0.37796447 #
-1.0000000589489965729939058292075 67:0.37796447 106:0.37796447 219:0.37796447 252:0.37796447 331:0.37796447 460:0.37796447 546:0.37796447 #
-1.0000000589489965729939058292075 66:0.37796447 107:0.37796447 219:0.37796447 252:0.37796447 331:0.37796447 460:0.37796447 547:0.37796447 #
1.0000000589489965729939058292075 59:0.37796447 91:0.37796447 215:0.37796447 304:0.37796447 383:0.37796447 456:0.37796447 539:0.37796447 #
1.0000000589489965729939058292075 59:0.37796447 125:0.37796447 214:0.37796447 304:0.37796447 382:0.37796447 456:0.37796447 537:0.37796447 #
1.0000000589489965729939058292075 59:0.37796447 115:0.37796447 174:0.37796447 303:0.37796447 382:0.37796447 415:0.37796447 539:0.37796447 #
-1.0000000589489965729939058292075 59:0.37796447 115:0.37796447 174:0.37796447 304:0.37796447 382:0.37796447 416:0.37796447 539:0.37796447 #
-1.0000000589489965729939058292075 59:0.37796447 115:0.37796447 176:0.37796447 304:0.37796447 384:0.37796447 416:0.37796447 539:0.37796447 #
-1.0000000589489965729939058292075 59:0.37796447 127:0.37796447 219:0.37796447 252:0.37796447 331:0.37796447 460:0.37796447 539:0.37796447 #
1.0000000589489965729939058292075 65:0.37796447 107:0.37796447 219:0.37796447 252:0.37796447 331:0.37796447 460:0.37796447 547:0.37796447 #
1.0000000589489965729939058292075 58:0.37796447 96:0.37796447 219:0.37796447 252:0.37796447 331:0.37796447 460:0.37796447 540:0.37796447 #
-1.0000000589489965729939058292075 48:0.37796447 125:0.37796447 219:0.37796447 252:0.37796447 331:0.37796447 460:0.37796447 525:0.37796447 #
-1.0000000589489965729939058292075 56:0.37796447 125:0.37796447 219:0.37796447 252:0.37796447 331:0.37796447 460:0.37796447 533:0.37796447 #
-1.0000000589489965729939058292075 46:0.37796447 125:0.37796447 219:0.37796447 252:0.37796447 331:0.37796447 460:0.37796447 525:0.37796447 #
-1.0000000589489965729939058292075 54:0.37796447 125:0.37796447 219:0.37796447 252:0.37796447 331:0.37796447 460:0.37796447 533:0.37796447 #
-1.0000000589489965729939058292075 70:0.37796447 96:0.37796447 219:0.37796447 252:0.37796447 331:0.37796447 460:0.37796447 552:0.37796447 #
1.0000000589489965729939058292075 59:0.37796447 126:0.37796447 169:0.37796447 302:0.37796447 381:0.37796447 410:0.37796447 538:0.37796447 #
1.0000000589489965729939058292075 59:0.37796447 115:0.37796447 226:0.37796447 263:0.37796447 342:0.37796447 467:0.37796447 539:0.37796447 #
1.0000000589489965729939058292075 59:0.37796447 115:0.37796447 172:0.37796447 304:0.37796447 384:0.37796447 412:0.37796447 539:0.37796447 #
-0.57484439485723937135475125614903 47:0.37796447 146:0.37796447 188:0.37796447 307:0.37796447 388:0.37796447 427:0.37796447 526:0.37796447 #
0.13006381238100633845888864925655 59:0.37796447 125:0.37796447 224:0.37796447 263:0.37796447 344:0.37796447 463:0.37796447 537:0.37796447 #
-0.92606963059335545285222224265453 59:0.37796447 92:0.37796447 195:0.37796447 242:0.37796447 323:0.37796447 434:0.37796447 540:0.37796447 #
-1.0000000589489965729939058292075 59:0.37796447 94:0.37796447 226:0.37796447 263:0.37796447 342:0.37796447 467:0.37796447 538:0.37796447 #
1.0000000589489965729939058292075 63:0.37796447 118:0.37796447 219:0.37796447 252:0.37796447 331:0.37796447 460:0.37796447 542:0.37796447 #
1.0000000589489965729939058292075 69:0.37796447 84:0.37796447 219:0.37796447 252:0.37796447 331:0.37796447 460:0.37796447 552:0.37796447 #
1.0000000589489965729939058292075 54:0.37796447 92:0.37796447 162:0.37796447 252:0.37796447 330:0.37796447 404:0.37796447 536:0.37796447 #
-1.0000000589489965729939058292075 3:0.37796447 146:0.37796447 219:0.37796447 252:0.37796447 331:0.37796447 460:0.37796447 482:0.37796447 #
-1.0000000589489965729939058292075 10:0.37796447 145:0.37796447 219:0.37796447 252:0.37796447 331:0.37796447 460:0.37796447 489:0.37796447 #
-1.0000000589489965729939058292075 10:0.37796447 148:0.37796447 219:0.37796447 252:0.37796447 331:0.37796447 460:0.37796447 492:0.37796447 #
1.0000000589489965729939058292075 59:0.37796447 95:0.37796447 220:0.37796447 250:0.37796447 332:0.37796447 458:0.37796447 539:0.37796447 #
1.0000000589489965729939058292075 59:0.37796447 83:0.37796447 228:0.37796447 263:0.37796447 344:0.37796447 467:0.37796447 539:0.37796447 #
1.0000000589489965729939058292075 59:0.37796447 95:0.37796447 220:0.37796447 249:0.37796447 332:0.37796447 457:0.37796447 539:0.37796447 #
1.0000000589489965729939058292075 59:0.37796447 107:0.37796447 170:0.37796447 263:0.37796447 342:0.37796447 411:0.37796447 539:0.37796447 #
-1.0000000589489965729939058292075 59:0.37796447 107:0.37796447 216:0.37796447 263:0.37796447 344:0.37796447 455:0.37796447 539:0.37796447 #
-1.0000000589489965729939058292075 59:0.37796447 107:0.37796447 172:0.37796447 263:0.37796447 344:0.37796447 411:0.37796447 539:0.37796447 #
-4.2541382742899980229367429274134e-17 59:0.37796447 95:0.37796447 170:0.37796447 263:0.37796447 342:0.37796447 411:0.37796447 539:0.37796447 #
-1.0000000589489965729939058292075 59:0.37796447 91:0.37796447 196:0.37796447 243:0.37796447 324:0.37796447 435:0.37796447 539:0.37796447 #
1.0000000589489965729939058292075 57:0.37796447 96:0.37796447 219:0.37796447 252:0.37796447 331:0.37796447 460:0.37796447 540:0.37796447 #
-0.93381121264013622340627307494287 35:0.37796447 96:0.37796447 220:0.37796447 251:0.37796447 332:0.37796447 459:0.37796447 516:0.37796447 #
-1.0000000589489965729939058292075 68:0.37796447 108:0.37796447 220:0.37796447 251:0.37796447 332:0.37796447 459:0.37796447 548:0.37796447 #
-1.0000000589489965729939058292075 68:0.37796447 105:0.37796447 220:0.37796447 251:0.37796447 332:0.37796447 459:0.37796447 545:0.37796447 #
-1.0000000589489965729939058292075 59:0.37796447 95:0.37796447 182:0.37796447 299:0.37796447 378:0.37796447 423:0.37796447 539:0.37796447 #
1.0000000589489965729939058292075 59:0.37796447 107:0.37796447 170:0.37796447 263:0.37796447 342:0.37796447 411:0.37796447 539:0.37796447 #
1.0000000589489965729939058292075 59:0.37796447 146:0.37796447 174:0.37796447 263:0.37796447 342:0.37796447 415:0.37796447 538:0.37796447 #
1.0000000589489965729939058292075 15:0.37796447 107:0.37796447 213:0.37796447 263:0.37796447 341:0.37796447 455:0.37796447 495:0.37796447 #
1.0000000589489965729939058292075 59:0.37796447 90:0.37796447 170:0.37796447 263:0.37796447 342:0.37796447 411:0.37796447 538:0.37796447 #
-1.0000000589489965729939058292075 59:0.37796447 94:0.37796447 170:0.37796447 263:0.37796447 342:0.37796447 411:0.37796447 538:0.37796447 #
-1.0000000589489965729939058292075 59:0.37796447 82:0.37796447 170:0.37796447 263:0.37796447 342:0.37796447 411:0.37796447 538:0.37796447 #
-1.0000000589489965729939058292075 59:0.37796447 106:0.37796447 170:0.37796447 263:0.37796447 342:0.37796447 411:0.37796447 538:0.37796447 #
1.0000000589489965729939058292075 35:0.37796447 108:0.37796447 219:0.37796447 251:0.37796447 331:0.37796447 459:0.37796447 516:0.37796447 #
1.0000000589489965729939058292075 56:0.37796447 81:0.37796447 219:0.37796447 251:0.37796447 331:0.37796447 459:0.37796447 533:0.37796447 #
-1.0000000589489965729939058292075 59:0.37796447 84:0.37796447 219:0.37796447 250:0.37796447 331:0.37796447 458:0.37796447 540:0.37796447 #
-1.0000000589489965729939058292075 59:0.37796447 152:0.37796447 219:0.37796447 250:0.37796447 331:0.37796447 458:0.37796447 540:0.37796447 #
1.0000000589489965729939058292075 59:0.37796447 94:0.37796447 172:0.37796447 263:0.37796447 344:0.37796447 411:0.37796447 538:0.37796447 #
1.0000000589489965729939058292075 59:0.37796447 125:0.37796447 170:0.37796447 263:0.37796447 342:0.37796447 411:0.37796447 537:0.37796447 #
-1.0000000589489965729939058292075 59:0.37796447 81:0.37796447 170:0.37796447 263:0.37796447 342:0.37796447 411:0.37796447 537:0.37796447 #
-1.0000000589489965729939058292075 57:0.37796447 94:0.37796447 170:0.37796447 263:0.37796447 342:0.37796447 411:0.37796447 538:0.37796447 #
-1.0000000589489965729939058292075 57:0.44721359 125:0.44721359 213:0.44721359 381:0.44721359 537:0.44721359 #
1.0000000589489965729939058292075 59:0.37796447 92:0.37796447 219:0.37796447 250:0.37796447 331:0.37796447 458:0.37796447 540:0.37796447 #
1.0000000589489965729939058292075 60:0.37796447 95:0.37796447 220:0.37796447 250:0.37796447 332:0.37796447 458:0.37796447 539:0.37796447 #
1.0000000589489965729939058292075 59:0.37796447 125:0.37796447 170:0.37796447 243:0.37796447 322:0.37796447 411:0.37796447 537:0.37796447 #
0.78712144924060689632483445166145 65:0.37796447 107:0.37796447 213:0.37796447 304:0.37796447 381:0.37796447 456:0.37796447 547:0.37796447 #
1.0000000589489965729939058292075 16:0.37796447 107:0.37796447 204:0.37796447 268:0.37796447 348:0.37796447 444:0.37796447 495:0.37796447 #
-1.0000000589489965729939058292075 59:0.37796447 115:0.37796447 176:0.37796447 303:0.37796447 384:0.37796447 415:0.37796447 539:0.37796447 #
1.0000000589489965729939058292075 59:0.37796447 125:0.37796447 170:0.37796447 263:0.37796447 342:0.37796447 411:0.37796447 537:0.37796447 #
1.0000000589489965729939058292075 59:0.37796447 141:0.37796447 214:0.37796447 262:0.37796447 342:0.37796447 454:0.37796447 537:0.37796447 #
1.0000000589489965729939058292075 59:0.37796447 125:0.37796447 170:0.37796447 243:0.37796447 322:0.37796447 411:0.37796447 537:0.37796447 #
-1.0000000589489965729939058292075 59:0.37796447 125:0.37796447 219:0.37796447 250:0.37796447 331:0.37796447 458:0.37796447 537:0.37796447 #
-1.0000000589489965729939058292075 58:0.37796447 146:0.37796447 227:0.37796447 294:0.37796447 375:0.37796447 466:0.37796447 538:0.37796447 #
1.0000000589489965729939058292075 66:0.37796447 106:0.37796447 219:0.37796447 251:0.37796447 331:0.37796447 459:0.37796447 546:0.37796447 #
1.0000000589489965729939058292075 45:0.37796447 145:0.37796447 219:0.37796447 251:0.37796447 331:0.37796447 459:0.37796447 525:0.37796447 #
1.0000000589489965729939058292075 58:0.37796447 106:0.37796447 219:0.37796447 251:0.37796447 331:0.37796447 459:0.37796447 538:0.37796447 #
1.0000000589489965729939058292075 59:0.37796447 127:0.37796447 215:0.37796447 303:0.37796447 383:0.37796447 455:0.37796447 539:0.37796447 #
-1.0000000589489965729939058292075 30:0.37796447 127:0.37796447 219:0.37796447 251:0.37796447 331:0.37796447 459:0.37796447 511:0.37796447 #
-1.0000000589489965729939058292075 15:0.37796447 106:0.37796447 219:0.37796447 251:0.37796447 331:0.37796447 459:0.37796447 494:0.37796447 #
-1.0000000589489965729939058292075 14:0.37796447 127:0.37796447 219:0.37796447 251:0.37796447 331:0.37796447 459:0.37796447 495:0.37796447 #
1.0000000589489965729939058292075 14:0.37796447 105:0.37796447 221:0.37796447 263:0.37796447 341:0.37796447 463:0.37796447 493:0.37796447 #
1.0000000589489965729939058292075 57:0.37796447 142:0.37796447 175:0.37796447 262:0.37796447 343:0.37796447 414:0.37796447 538:0.37796447 #
1.0000000589489965729939058292075 14:0.37796447 105:0.37796447 206:0.37796447 287:0.37796447 366:0.37796447 447:0.37796447 493:0.37796447 #
1.0000000589489965729939058292075 14:0.37796447 125:0.37796447 213:0.37796447 263:0.37796447 341:0.37796447 455:0.37796447 493:0.37796447 #
1.0000000589489965729939058292075 59:0.37796447 82:0.37796447 213:0.37796447 262:0.37796447 341:0.37796447 454:0.37796447 538:0.37796447 #
-1.0000000589489965729939058292075 59:0.37796447 90:0.37796447 213:0.37796447 264:0.37796447 341:0.37796447 456:0.37796447 538:0.37796447 #
-1.0000000589489965729939058292075 59:0.37796447 126:0.37796447 205:0.37796447 263:0.37796447 341:0.37796447 447:0.37796447 538:0.37796447 #
-1.0000000589489965729939058292075 59:0.37796447 90:0.37796447 213:0.37796447 262:0.37796447 341:0.37796447 454:0.37796447 538:0.37796447 #
1.0000000589489965729939058292075 47:0.37796447 152:0.37796447 219:0.37796447 251:0.37796447 331:0.37796447 459:0.37796447 528:0.37796447 #
1.0000000589489965729939058292075 68:0.37796447 102:0.37796447 219:0.37796447 251:0.37796447 331:0.37796447 459:0.37796447 546:0.37796447 #
1.0000000589489965729939058292075 59:0.37796447 126:0.37796447 171:0.37796447 302:0.37796447 383:0.37796447 410:0.37796447 538:0.37796447 #
1.0000000589489965729939058292075 59:0.37796447 90:0.37796447 213:0.37796447 261:0.37796447 341:0.37796447 453:0.37796447 538:0.37796447 #
1.0000000589489965729939058292075 59:0.37796447 90:0.37796447 185:0.37796447 302:0.37796447 381:0.37796447 426:0.37796447 538:0.37796447 #
-1.0000000589489965729939058292075 59:0.37796447 90:0.37796447 223:0.37796447 302:0.37796447 383:0.37796447 462:0.37796447 538:0.37796447 #
-1.06863794207970666527707237492e-18 59:0.37796447 142:0.37796447 226:0.37796447 263:0.37796447 342:0.37796447 467:0.37796447 538:0.37796447 #
-1.0000000589489965729939058292075 59:0.37796447 90:0.37796447 195:0.37796447 242:0.37796447 323:0.37796447 434:0.37796447 538:0.37796447 #
-1.0000000589489965729939058292075 59:0.37796447 142:0.37796447 215:0.37796447 301:0.37796447 383:0.37796447 453:0.37796447 538:0.37796447 #
1.0000000589489965729939058292075 35:0.37796447 93:0.37796447 219:0.37796447 251:0.37796447 331:0.37796447 459:0.37796447 513:0.37796447 #
1.0000000589489965729939058292075 9:0.37796447 146:0.37796447 219:0.37796447 251:0.37796447 331:0.37796447 459:0.37796447 490:0.37796447 #
1.0000000589489965729939058292075 35:0.37796447 91:0.37796447 219:0.37796447 251:0.37796447 331:0.37796447 459:0.37796447 515:0.37796447 #
1.0000000589489965729939058292075 59:0.37796447 90:0.37796447 223:0.37796447 304:0.37796447 383:0.37796447 464:0.37796447 538:0.37796447 #
-0.90253582676377042126603100768989 35:0.37796447 95:0.37796447 217:0.37796447 251:0.37796447 329:0.37796447 459:0.37796447 515:0.37796447 #
1.0000000589489965729939058292075 59:0.37796447 93:0.37796447 218:0.37796447 250:0.37796447 330:0.37796447 458:0.37796447 537:0.37796447 #
1.0000000589489965729939058292075 59:0.37796447 94:0.37796447 218:0.37796447 250:0.37796447 330:0.37796447 458:0.37796447 538:0.37796447 #
1.0000000589489965729939058292075 58:0.37796447 96:0.37796447 220:0.37796447 252:0.37796447 332:0.37796447 460:0.37796447 540:0.37796447 #
1.0000000589489965729939058292075 59:0.37796447 148:0.37796447 173:0.37796447 263:0.37796447 341:0.37796447 415:0.37796447 540:0.37796447 #
-0.061632091048912422681649303513041 14:0.37796447 148:0.37796447 216:0.37796447 303:0.37796447 384:0.37796447 455:0.37796447 496:0.37796447 #
-1.0000000589489965729939058292075 59:0.37796447 150:0.37796447 219:0.37796447 250:0.37796447 331:0.37796447 458:0.37796447 538:0.37796447 #
1.0000000589489965729939058292075 46:0.37796447 150:0.37796447 219:0.37796447 251:0.37796447 331:0.37796447 459:0.37796447 526:0.37796447 #
-1.0000000589489965729939058292075 60:0.37796447 90:0.37796447 170:0.37796447 299:0.37796447 378:0.37796447 411:0.37796447 538:0.37796447 #
-1.0000000589489965729939058292075 59:0.37796447 82:0.37796447 172:0.37796447 263:0.37796447 344:0.37796447 411:0.37796447 538:0.37796447 #
-1.0000000589489965729939058292075 68:0.37796447 107:0.37796447 218:0.37796447 251:0.37796447 330:0.37796447 459:0.37796447 547:0.37796447 #
-1.0000000589489965729939058292075 59:0.37796447 126:0.37796447 228:0.37796447 262:0.37796447 344:0.37796447 466:0.37796447 538:0.37796447 #
0.52005802838789394471064042591024 63:0.37796447 134:0.37796447 195:0.37796447 246:0.37796447 327:0.37796447 434:0.37796447 542:0.37796447 #
1.0000000589489965729939058292075 59:0.44721359 95:0.44721359 217:0.44721359 329:0.44721359 539:0.44721359 #
1.0000000589489965729939058292075 59:0.37796447 94:0.37796447 181:0.37796447 252:0.37796447 329:0.37796447 424:0.37796447 538:0.37796447 #
-1.0000000589489965729939058292075 59:0.37796447 94:0.37796447 213:0.37796447 261:0.37796447 341:0.37796447 453:0.37796447 538:0.37796447 #
-1.0000000589489965729939058292075 59:0.37796447 94:0.37796447 228:0.37796447 262:0.37796447 344:0.37796447 466:0.37796447 538:0.37796447 #
-1.0000000589489965729939058292075 59:0.37796447 94:0.37796447 219:0.37796447 249:0.37796447 331:0.37796447 457:0.37796447 538:0.37796447 #
1.0000000589489965729939058292075 14:0.37796447 107:0.37796447 216:0.37796447 299:0.37796447 380:0.37796447 455:0.37796447 495:0.37796447 #
1.0000000589489965729939058292075 68:0.37796447 127:0.37796447 227:0.37796447 311:0.37796447 391:0.37796447 467:0.37796447 547:0.37796447 #
1.0000000589489965729939058292075 14:0.37796447 114:0.37796447 184:0.37796447 303:0.37796447 384:0.37796447 423:0.37796447 494:0.37796447 #
1.0000000589489965729939058292075 59:0.37796447 115:0.37796447 219:0.37796447 251:0.37796447 331:0.37796447 459:0.37796447 539:0.37796447 #
0.4263531049512990778183052498207 67:0.37796447 107:0.37796447 167:0.37796447 251:0.37796447 331:0.37796447 407:0.37796447 547:0.37796447 #
-1.0000000589489965729939058292075 14:0.37796447 107:0.37796447 217:0.37796447 251:0.37796447 329:0.37796447 459:0.37796447 495:0.37796447 #
-1.0000000589489965729939058292075 59:0.37796447 93:0.37796447 181:0.37796447 299:0.37796447 377:0.37796447 423:0.37796447 537:0.37796447 #
-1.0000000589489965729939058292075 14:0.37796447 148:0.37796447 219:0.37796447 251:0.37796447 331:0.37796447 459:0.37796447 496:0.37796447 #
1.0000000589489965729939058292075 59:0.44721359 94:0.44721359 218:0.44721359 330:0.44721359 538:0.44721359 #
-1.0000000589489965729939058292075 59:0.37796447 144:0.37796447 216:0.37796447 303:0.37796447 384:0.37796447 455:0.37796447 540:0.37796447 #
-1.0000000589489965729939058292075 59:0.37796447 92:0.37796447 216:0.37796447 303:0.37796447 384:0.37796447 455:0.37796447 540:0.37796447 #
-1.0000000589489965729939058292075 59:0.37796447 116:0.37796447 175:0.37796447 303:0.37796447 383:0.37796447 415:0.37796447 540:0.37796447 #
-1.0000000589489965729939058292075 59:0.37796447 114:0.37796447 175:0.37796447 303:0.37796447 383:0.37796447 415:0.37796447 538:0.37796447 #
0.5675624799804359632560135651147 23:0.37796447 148:0.37796447 219:0.37796447 251:0.37796447 331:0.37796447 459:0.37796447 504:0.37796447 #
1.0000000589489965729939058292075 46:0.37796447 150:0.37796447 219:0.37796447 251:0.37796447 331:0.37796447 459:0.37796447 526:0.37796447 #
0.56714414447612104819285150369979 21:0.37796447 148:0.37796447 219:0.37796447 251:0.37796447 331:0.37796447 459:0.37796447 504:0.37796447 #
-1.0000000589489965729939058292075 59:0.37796447 90:0.37796447 214:0.37796447 304:0.37796447 382:0.37796447 456:0.37796447 538:0.37796447 #
1.0000000589489965729939058292075 59:0.37796447 90:0.37796447 215:0.37796447 303:0.37796447 383:0.37796447 455:0.37796447 538:0.37796447 #
1.0000000589489965729939058292075 59:0.37796447 90:0.37796447 216:0.37796447 303:0.37796447 384:0.37796447 455:0.37796447 538:0.37796447 #
-1.0000000589489965729939058292075 59:0.37796447 90:0.37796447 221:0.37796447 243:0.37796447 321:0.37796447 463:0.37796447 538:0.37796447 #
-1.0000000589489965729939058292075 59:0.37796447 90:0.37796447 219:0.37796447 252:0.37796447 331:0.37796447 460:0.37796447 538:0.37796447 #
-1.0000000589489965729939058292075 57:0.37796447 94:0.37796447 206:0.37796447 263:0.37796447 342:0.37796447 447:0.37796447 538:0.37796447 #
1.0000000589489965729939058292075 14:0.37796447 108:0.37796447 208:0.37796447 295:0.37796447 376:0.37796447 447:0.37796447 496:0.37796447 #
1.0000000589489965729939058292075 14:0.37796447 108:0.37796447 224:0.37796447 263:0.37796447 344:0.37796447 463:0.37796447 496:0.37796447 #
1.0000000589489965729939058292075 45:0.37796447 81:0.37796447 205:0.37796447 263:0.37796447 341:0.37796447 447:0.37796447 525:0.37796447 #
1.0000000589489965729939058292075 3:0.44721359 108:0.44721359 195:0.44721359 383:0.44721359 484:0.44721359 #
1.0000000589489965729939058292075 59:0.37796447 125:0.37796447 213:0.37796447 301:0.37796447 381:0.37796447 453:0.37796447 537:0.37796447 #
-1.0000000589489965729939058292075 63:0.37796447 107:0.37796447 215:0.37796447 263:0.37796447 343:0.37796447 455:0.37796447 543:0.37796447 #
-1.0000000589489965729939058292075 59:0.37796447 141:0.37796447 213:0.37796447 303:0.37796447 381:0.37796447 455:0.37796447 537:0.37796447 #
1.0000000589489965729939058292075 59:0.37796447 94:0.37796447 220:0.37796447 252:0.37796447 332:0.37796447 460:0.37796447 538:0.37796447 #
1.0000000589489965729939058292075 59:0.37796447 146:0.37796447 228:0.37796447 241:0.37796447 324:0.37796447 465:0.37796447 538:0.37796447 #
1.0000000589489965729939058292075 59:0.37796447 90:0.37796447 218:0.37796447 293:0.37796447 374:0.37796447 457:0.37796447 538:0.37796447 #
1.0000000589489965729939058292075 59:0.37796447 146:0.37796447 225:0.37796447 262:0.37796447 341:0.37796447 466:0.37796447 538:0.37796447 #
1.0000000589489965729939058292075 59:0.37796447 90:0.37796447 228:0.37796447 261:0.37796447 344:0.37796447 465:0.37796447 538:0.37796447 #
-1.0000000589489965729939058292075 59:0.37796447 146:0.37796447 227:0.37796447 295:0.37796447 375:0.37796447 467:0.37796447 538:0.37796447 #
-1.0000000589489965729939058292075 59:0.37796447 94:0.37796447 208:0.37796447 261:0.37796447 344:0.37796447 445:0.37796447 538:0.37796447 #
-1.0000000589489965729939058292075 59:0.37796447 146:0.37796447 226:0.37796447 295:0.37796447 374:0.37796447 467:0.37796447 538:0.37796447 #
-1.0000000589489965729939058292075 59:0.37796447 94:0.37796447 208:0.37796447 262:0.37796447 344:0.37796447 446:0.37796447 538:0.37796447 #
1.0000000589489965729939058292075 16:0.37796447 107:0.37796447 213:0.37796447 263:0.37796447 341:0.37796447 455:0.37796447 495:0.37796447 #
1.0000000589489965729939058292075 59:0.37796447 84:0.37796447 174:0.37796447 298:0.37796447 378:0.37796447 414:0.37796447 540:0.37796447 #
-0.44275421299968908961375291255536 45:0.37796447 148:0.37796447 185:0.37796447 305:0.37796447 385:0.37796447 425:0.37796447 528:0.37796447 #
-1.0000000589489965729939058292075 59:0.37796447 108:0.37796447 213:0.37796447 243:0.37796447 321:0.37796447 455:0.37796447 540:0.37796447 #
-1.0000000589489965729939058292075 59:0.37796447 95:0.37796447 213:0.37796447 263:0.37796447 341:0.37796447 455:0.37796447 539:0.37796447 #
1.0000000589489965729939058292075 59:0.37796447 142:0.37796447 225:0.37796447 303:0.37796447 381:0.37796447 467:0.37796447 538:0.37796447 #
1.0000000589489965729939058292075 59:0.37796447 146:0.37796447 221:0.37796447 302:0.37796447 381:0.37796447 462:0.37796447 538:0.37796447 #
1.0000000589489965729939058292075 59:0.37796447 142:0.37796447 215:0.37796447 262:0.37796447 343:0.37796447 454:0.37796447 538:0.37796447 #
1.0000000589489965729939058292075 59:0.37796447 94:0.37796447 195:0.37796447 262:0.37796447 343:0.37796447 434:0.37796447 538:0.37796447 #
-1.0000000589489965729939058292075 59:0.37796447 142:0.37796447 215:0.37796447 302:0.37796447 383:0.37796447 454:0.37796447 538:0.37796447 #
-0.24513239457859017922380928666826 15:0.37796447 125:0.37796447 223:0.37796447 298:0.37796447 379:0.37796447 462:0.37796447 493:0.37796447 #
-1.0000000589489965729939058292075 59:0.37796447 142:0.37796447 216:0.37796447 302:0.37796447 384:0.37796447 454:0.37796447 538:0.37796447 #
-1.0000000589489965729939058292075 59:0.37796447 90:0.37796447 224:0.37796447 302:0.37796447 384:0.37796447 462:0.37796447 538:0.37796447 #
-1.0000000589489965729939058292075 59:0.37796447 152:0.37796447 220:0.37796447 251:0.37796447 332:0.37796447 459:0.37796447 540:0.37796447 #
1.0000000589489965729939058292075 59:0.37796447 107:0.37796447 213:0.37796447 263:0.37796447 341:0.37796447 455:0.37796447 539:0.37796447 #
1.0000000589489965729939058292075 59:0.37796447 146:0.37796447 186:0.37796447 241:0.37796447 322:0.37796447 425:0.37796447 538:0.37796447 #
-1.0000000589489965729939058292075 14:0.37796447 105:0.37796447 219:0.37796447 252:0.37796447 331:0.37796447 460:0.37796447 493:0.37796447 #
1.0000000589489965729939058292075 59:0.44721359 90:0.44721359 216:0.44721359 384:0.44721359 538:0.44721359 #
1.0000000589489965729939058292075 59:0.37796447 90:0.37796447 216:0.37796447 304:0.37796447 384:0.37796447 456:0.37796447 538:0.37796447 #
1.0000000589489965729939058292075 59:0.37796447 126:0.37796447 188:0.37796447 302:0.37796447 384:0.37796447 426:0.37796447 538:0.37796447 #
-1.0000000589489965729939058292075 59:0.37796447 90:0.37796447 216:0.37796447 304:0.37796447 384:0.37796447 456:0.37796447 538:0.37796447 #
-1.0000000589489965729939058292075 59:0.37796447 107:0.37796447 216:0.37796447 303:0.37796447 384:0.37796447 455:0.37796447 539:0.37796447 #
-1.0000000589489965729939058292075 59:0.37796447 90:0.37796447 224:0.37796447 304:0.37796447 384:0.37796447 464:0.37796447 538:0.37796447 #
1.0000000589489965729939058292075 58:0.37796447 96:0.37796447 219:0.37796447 252:0.37796447 331:0.37796447 460:0.37796447 540:0.37796447 #
1.0000000589489965729939058292075 59:0.37796447 95:0.37796447 219:0.37796447 252:0.37796447 331:0.37796447 460:0.37796447 539:0.37796447 #
-1.0000000589489965729939058292075 60:0.37796447 90:0.37796447 170:0.37796447 298:0.37796447 378:0.37796447 410:0.37796447 538:0.37796447 #
0.3036093802460118618036233328894 59:0.44721359 140:0.44721359 213:0.44721359 341:0.44721359 540:0.44721359 #
1.0000000589489965729939058292075 59:0.37796447 90:0.37796447 216:0.37796447 303:0.37796447 384:0.37796447 455:0.37796447 538:0.37796447 #
1.0000000589489965729939058292075 59:0.37796447 90:0.37796447 215:0.37796447 303:0.37796447 383:0.37796447 455:0.37796447 538:0.37796447 #
-1.0000000589489965729939058292075 59:0.37796447 142:0.37796447 213:0.37796447 303:0.37796447 381:0.37796447 455:0.37796447 538:0.37796447 #
-1.0000000589489965729939058292075 59:0.37796447 107:0.37796447 216:0.37796447 243:0.37796447 324:0.37796447 455:0.37796447 539:0.37796447 #
-1.0000000589489965729939058292075 59:0.37796447 142:0.37796447 215:0.37796447 303:0.37796447 383:0.37796447 455:0.37796447 538:0.37796447 #
1.0000000589489965729939058292075 30:0.37796447 91:0.37796447 172:0.37796447 295:0.37796447 376:0.37796447 411:0.37796447 511:0.37796447 #
1.0000000589489965729939058292075 3:0.37796447 82:0.37796447 215:0.37796447 306:0.37796447 387:0.37796447 454:0.37796447 482:0.37796447 #
1.0000000589489965729939058292075 54:0.37796447 91:0.37796447 191:0.37796447 243:0.37796447 323:0.37796447 431:0.37796447 535:0.37796447 #
1.0000000589489965729939058292075 4:0.37796447 105:0.37796447 196:0.37796447 301:0.37796447 384:0.37796447 433:0.37796447 481:0.37796447 #
1.0000000589489965729939058292075 59:0.37796447 93:0.37796447 219:0.37796447 251:0.37796447 331:0.37796447 459:0.37796447 537:0.37796447 #
-1.0000000589489965729939058292075 59:0.37796447 147:0.37796447 221:0.37796447 295:0.37796447 373:0.37796447 463:0.37796447 539:0.37796447 #
-1.0000000589489965729939058292075 59:0.37796447 90:0.37796447 215:0.37796447 304:0.37796447 383:0.37796447 456:0.37796447 538:0.37796447 #
1.0000000589489965729939058292075 59:0.37796447 142:0.37796447 216:0.37796447 242:0.37796447 324:0.37796447 454:0.37796447 538:0.37796447 #
-0.14536632230331511528298449320573 60:0.37796447 150:0.37796447 219:0.37796447 250:0.37796447 331:0.37796447 458:0.37796447 538:0.37796447 #
1.0000000589489965729939058292075 59:0.37796447 142:0.37796447 216:0.37796447 243:0.37796447 324:0.37796447 455:0.37796447 538:0.37796447 #
-1.0000000589489965729939058292075 59:0.37796447 81:0.37796447 220:0.37796447 251:0.37796447 332:0.37796447 459:0.37796447 537:0.37796447 #
-1.0000000589489965729939058292075 59:0.37796447 126:0.37796447 172:0.37796447 303:0.37796447 384:0.37796447 411:0.37796447 538:0.37796447 #
-1.0000000589489965729939058292075 59:0.37796447 106:0.37796447 213:0.37796447 243:0.37796447 321:0.37796447 455:0.37796447 538:0.37796447 #
1.0000000589489965729939058292075 60:0.37796447 135:0.37796447 219:0.37796447 251:0.37796447 331:0.37796447 459:0.37796447 539:0.37796447 #
1.0000000589489965729939058292075 59:0.44721359 94:0.44721359 218:0.44721359 330:0.44721359 538:0.44721359 #
1.0000000589489965729939058292075 59:0.37796447 94:0.37796447 218:0.37796447 250:0.37796447 330:0.37796447 458:0.37796447 538:0.37796447 #
1.0000000589489965729939058292075 59:0.37796447 146:0.37796447 176:0.37796447 263:0.37796447 344:0.37796447 415:0.37796447 538:0.37796447 #
-1.0000000589489965729939058292075 59:0.37796447 94:0.37796447 207:0.37796447 263:0.37796447 343:0.37796447 447:0.37796447 538:0.37796447 #
-1.0000000589489965729939058292075 59:0.37796447 94:0.37796447 196:0.37796447 244:0.37796447 324:0.37796447 436:0.37796447 538:0.37796447 #
-1.0000000589489965729939058292075 59:0.37796447 94:0.37796447 184:0.37796447 300:0.37796447 380:0.37796447 424:0.37796447 538:0.37796447 #
-1.0000000589489965729939058292075 59:0.37796447 94:0.37796447 171:0.37796447 263:0.37796447 343:0.37796447 411:0.37796447 538:0.37796447 #
1.0000000589489965729939058292075 58:0.37796447 96:0.37796447 219:0.37796447 252:0.37796447 331:0.37796447 460:0.37796447 540:0.37796447 #
1.0000000589489965729939058292075 59:0.37796447 145:0.37796447 219:0.37796447 251:0.37796447 331:0.37796447 459:0.37796447 537:0.37796447 #
1.0000000589489965729939058292075 60:0.37796447 135:0.37796447 219:0.37796447 251:0.37796447 331:0.37796447 459:0.37796447 539:0.37796447 #
-1.0000000589489965729939058292075 16:0.37796447 105:0.37796447 219:0.37796447 252:0.37796447 331:0.37796447 460:0.37796447 493:0.37796447 #
1.0000000589489965729939058292075 59:0.37796447 94:0.37796447 220:0.37796447 250:0.37796447 332:0.37796447 458:0.37796447 538:0.37796447 #
1.0000000589489965729939058292075 59:0.37796447 94:0.37796447 217:0.37796447 250:0.37796447 329:0.37796447 458:0.37796447 538:0.37796447 #
-1.0000000589489965729939058292075 16:0.37796447 146:0.37796447 213:0.37796447 303:0.37796447 381:0.37796447 455:0.37796447 494:0.37796447 #
-0.33641380299209555637673929595621 59:0.37796447 106:0.37796447 170:0.37796447 261:0.37796447 342:0.37796447 409:0.37796447 538:0.37796447 #
-1.0000000589489965729939058292075 59:0.37796447 148:0.37796447 220:0.37796447 251:0.37796447 332:0.37796447 459:0.37796447 540:0.37796447 #
1.0000000589489965729939058292075 59:0.37796447 146:0.37796447 221:0.37796447 263:0.37796447 341:0.37796447 463:0.37796447 538:0.37796447 #
1.0000000589489965729939058292075 54:0.37796447 105:0.37796447 213:0.37796447 263:0.37796447 341:0.37796447 455:0.37796447 533:0.37796447 #
1.0000000589489965729939058292075 14:0.37796447 113:0.37796447 224:0.37796447 319:0.37796447 400:0.37796447 463:0.37796447 493:0.37796447 #
1.0000000589489965729939058292075 76:0.37796447 131:0.37796447 224:0.37796447 298:0.37796447 380:0.37796447 462:0.37796447 555:0.37796447 #
1.0000000589489965729939058292075 59:0.37796447 125:0.37796447 226:0.37796447 242:0.37796447 322:0.37796447 466:0.37796447 537:0.37796447 #
-1.0000000589489965729939058292075 59:0.37796447 96:0.37796447 216:0.37796447 263:0.37796447 344:0.37796447 455:0.37796447 540:0.37796447 #
-1.0000000589489965729939058292075 59:0.37796447 106:0.37796447 220:0.37796447 251:0.37796447 332:0.37796447 459:0.37796447 538:0.37796447 #
-1.0000000589489965729939058292075 59:0.37796447 148:0.37796447 216:0.37796447 263:0.37796447 344:0.37796447 455:0.37796447 540:0.37796447 #
-1.0000000589489965729939058292075 59:0.37796447 105:0.37796447 216:0.37796447 263:0.37796447 344:0.37796447 455:0.37796447 537:0.37796447 #
1.0000000589489965729939058292075 59:0.37796447 94:0.37796447 217:0.37796447 250:0.37796447 329:0.37796447 458:0.37796447 538:0.37796447 #
-0.86794444247481694620915959603735 30:0.37796447 125:0.37796447 220:0.37796447 251:0.37796447 332:0.37796447 459:0.37796447 509:0.37796447 #
-1.0000000589489965729939058292075 67:0.37796447 107:0.37796447 218:0.37796447 251:0.37796447 330:0.37796447 459:0.37796447 547:0.37796447 #
-1.0000000589489965729939058292075 59:0.37796447 146:0.37796447 224:0.37796447 294:0.37796447 376:0.37796447 462:0.37796447 538:0.37796447 #
0.93987407891093810441418554546544 59:0.37796447 125:0.37796447 228:0.37796447 263:0.37796447 344:0.37796447 467:0.37796447 537:0.37796447 #
1.0000000589489965729939058292075 59:0.37796447 90:0.37796447 216:0.37796447 263:0.37796447 344:0.37796447 455:0.37796447 538:0.37796447 #
1.0000000589489965729939058292075 59:0.37796447 142:0.37796447 215:0.37796447 262:0.37796447 343:0.37796447 454:0.37796447 538:0.37796447 #
1.0000000589489965729939058292075 59:0.37796447 90:0.37796447 208:0.37796447 263:0.37796447 344:0.37796447 447:0.37796447 538:0.37796447 #
1.0000000589489965729939058292075 59:0.37796447 144:0.37796447 228:0.37796447 263:0.37796447 344:0.37796447 467:0.37796447 540:0.37796447 #
-1.0000000589489965729939058292075 59:0.37796447 126:0.37796447 228:0.37796447 263:0.37796447 344:0.37796447 467:0.37796447 538:0.37796447 #
-1.0000000589489965729939058292075 59:0.37796447 108:0.37796447 228:0.37796447 263:0.37796447 344:0.37796447 467:0.37796447 540:0.37796447 #
-1.0000000589489965729939058292075 59:0.37796447 142:0.37796447 219:0.37796447 249:0.37796447 331:0.37796447 457:0.37796447 538:0.37796447 #
-1.0000000589489965729939058292075 59:0.37796447 94:0.37796447 219:0.37796447 249:0.37796447 331:0.37796447 457:0.37796447 538:0.37796447 #
0.40458675432768304025543670832121 59:0.37796447 82:0.37796447 228:0.37796447 304:0.37796447 384:0.37796447 468:0.37796447 538:0.37796447 #
-1.0000000589489965729939058292075 59:0.37796447 82:0.37796447 219:0.37796447 250:0.37796447 331:0.37796447 458:0.37796447 538:0.37796447 #
1.0000000589489965729939058292075 59:0.37796447 146:0.37796447 228:0.37796447 263:0.37796447 344:0.37796447 467:0.37796447 538:0.37796447 #
-1.0000000589489965729939058292075 59:0.37796447 107:0.37796447 216:0.37796447 243:0.37796447 324:0.37796447 455:0.37796447 539:0.37796447 #
-1.0000000589489965729939058292075 59:0.37796447 115:0.37796447 173:0.37796447 302:0.37796447 381:0.37796447 414:0.37796447 539:0.37796447 #
1.0000000589489965729939058292075 59:0.37796447 94:0.37796447 219:0.37796447 249:0.37796447 331:0.37796447 457:0.37796447 538:0.37796447 #
-0.48489392365569883303066944790771 45:0.37796447 145:0.37796447 187:0.37796447 306:0.37796447 387:0.37796447 426:0.37796447 525:0.37796447 #
-1.0000000589489965729939058292075 58:0.37796447 90:0.37796447 219:0.37796447 290:0.37796447 371:0.37796447 458:0.37796447 538:0.37796447 #
-1.0000000589489965729939058292075 58:0.37796447 90:0.37796447 217:0.37796447 290:0.37796447 369:0.37796447 458:0.37796447 538:0.37796447 #
-1.0000000589489965729939058292075 58:0.37796447 90:0.37796447 170:0.37796447 298:0.37796447 378:0.37796447 410:0.37796447 538:0.37796447 #
-1.0000000589489965729939058292075 59:0.37796447 94:0.37796447 182:0.37796447 298:0.37796447 378:0.37796447 422:0.37796447 538:0.37796447 #
1.0000000589489965729939058292075 59:0.37796447 107:0.37796447 216:0.37796447 303:0.37796447 384:0.37796447 455:0.37796447 539:0.37796447 #
1.0000000589489965729939058292075 59:0.37796447 115:0.37796447 214:0.37796447 303:0.37796447 382:0.37796447 455:0.37796447 539:0.37796447 #
1.0000000589489965729939058292075 59:0.37796447 127:0.37796447 236:0.37796447 304:0.37796447 384:0.37796447 476:0.37796447 539:0.37796447 #
-1.0000000589489965729939058292075 59:0.37796447 107:0.37796447 214:0.37796447 303:0.37796447 382:0.37796447 455:0.37796447 539:0.37796447 #
-1.0000000589489965729939058292075 59:0.37796447 91:0.37796447 220:0.37796447 291:0.37796447 372:0.37796447 459:0.37796447 539:0.37796447 #
-0.77609279106860118435662343472359 59:0.37796447 143:0.37796447 216:0.37796447 303:0.37796447 384:0.37796447 455:0.37796447 539:0.37796447 #
1.0000000589489965729939058292075 58:0.37796447 94:0.37796447 220:0.37796447 250:0.37796447 332:0.37796447 458:0.37796447 538:0.37796447 #
1.0000000589489965729939058292075 59:0.37796447 90:0.37796447 207:0.37796447 302:0.37796447 383:0.37796447 446:0.37796447 538:0.37796447 #
1.0000000589489965729939058292075 59:0.37796447 94:0.37796447 220:0.37796447 250:0.37796447 332:0.37796447 458:0.37796447 538:0.37796447 #
1.0000000589489965729939058292075 59:0.37796447 107:0.37796447 214:0.37796447 303:0.37796447 382:0.37796447 455:0.37796447 539:0.37796447 #
1.0000000589489965729939058292075 59:0.37796447 107:0.37796447 216:0.37796447 303:0.37796447 384:0.37796447 455:0.37796447 539:0.37796447 #
-1.0000000589489965729939058292075 59:0.37796447 115:0.37796447 174:0.37796447 302:0.37796447 382:0.37796447 414:0.37796447 539:0.37796447 #
-1.0000000589489965729939058292075 59:0.37796447 107:0.37796447 227:0.37796447 263:0.37796447 343:0.37796447 467:0.37796447 539:0.37796447 #
-1.0000000589489965729939058292075 59:0.37796447 95:0.37796447 183:0.37796447 299:0.37796447 379:0.37796447 423:0.37796447 539:0.37796447 #
1.0000000589489965729939058292075 59:0.37796447 142:0.37796447 216:0.37796447 244:0.37796447 324:0.37796447 456:0.37796447 538:0.37796447 #
0.3649042352125230759263274649129 59:0.37796447 142:0.37796447 213:0.37796447 244:0.37796447 321:0.37796447 456:0.37796447 538:0.37796447 #
1.0000000589489965729939058292075 59:0.37796447 82:0.37796447 213:0.37796447 264:0.37796447 341:0.37796447 456:0.37796447 538:0.37796447 #
1.0000000589489965729939058292075 59:0.37796447 82:0.37796447 227:0.37796447 243:0.37796447 323:0.37796447 467:0.37796447 538:0.37796447 #
-1.0000000589489965729939058292075 59:0.37796447 90:0.37796447 223:0.37796447 243:0.37796447 323:0.37796447 463:0.37796447 538:0.37796447 #
1.0000000589489965729939058292075 59:0.37796447 115:0.37796447 170:0.37796447 263:0.37796447 342:0.37796447 411:0.37796447 539:0.37796447 #
1.0000000589489965729939058292075 59:0.37796447 147:0.37796447 219:0.37796447 251:0.37796447 331:0.37796447 459:0.37796447 539:0.37796447 #
1.0000000589489965729939058292075 59:0.37796447 143:0.37796447 228:0.37796447 263:0.37796447 344:0.37796447 467:0.37796447 539:0.37796447 #
1.0000000589489965729939058292075 59:0.37796447 151:0.37796447 194:0.37796447 251:0.37796447 330:0.37796447 435:0.37796447 539:0.37796447 #
-1.0000000589489965729939058292075 59:0.37796447 83:0.37796447 170:0.37796447 263:0.37796447 342:0.37796447 411:0.37796447 539:0.37796447 #
1.0000000589489965729939058292075 59:0.37796447 134:0.37796447 223:0.37796447 264:0.37796447 343:0.37796447 464:0.37796447 538:0.37796447 #
1.0000000589489965729939058292075 57:0.37796447 146:0.37796447 213:0.37796447 264:0.37796447 341:0.37796447 456:0.37796447 538:0.37796447 #
-1.0000000589489965729939058292075 59:0.44721359 126:0.44721359 219:0.44721359 331:0.44721359 538:0.44721359 #
1.0000000589489965729939058292075 59:0.37796447 81:0.37796447 175:0.37796447 298:0.37796447 379:0.37796447 414:0.37796447 537:0.37796447 #
1.0000000589489965729939058292075 59:0.37796447 83:0.37796447 175:0.37796447 298:0.37796447 379:0.37796447 414:0.37796447 539:0.37796447 #
-1.0000000589489965729939058292075 59:0.37796447 143:0.37796447 213:0.37796447 303:0.37796447 381:0.37796447 455:0.37796447 539:0.37796447 #
-1.0000000589489965729939058292075 59:0.37796447 141:0.37796447 216:0.37796447 303:0.37796447 384:0.37796447 455:0.37796447 537:0.37796447 #
1.0000000589489965729939058292075 58:0.37796447 90:0.37796447 219:0.37796447 243:0.37796447 323:0.37796447 459:0.37796447 538:0.37796447 #
1.0000000589489965729939058292075 59:0.37796447 126:0.37796447 171:0.37796447 302:0.37796447 383:0.37796447 410:0.37796447 538:0.37796447 #
1.0000000589489965729939058292075 60:0.37796447 94:0.37796447 219:0.37796447 251:0.37796447 331:0.37796447 459:0.37796447 538:0.37796447 #
-0.21619808065729076429484223353938 57:0.37796447 90:0.37796447 171:0.37796447 298:0.37796447 379:0.37796447 410:0.37796447 538:0.37796447 #
0.6302387350825529033215843810467 59:0.37796447 142:0.37796447 170:0.37796447 303:0.37796447 382:0.37796447 411:0.37796447 538:0.37796447 #
-1.0000000589489965729939058292075 57:0.37796447 90:0.37796447 170:0.37796447 298:0.37796447 378:0.37796447 410:0.37796447 538:0.37796447 #
0.49678437065813452200302435812773 59:0.37796447 144:0.37796447 213:0.37796447 263:0.37796447 341:0.37796447 455:0.37796447 540:0.37796447 #
-1.0000000589489965729939058292075 57:0.37796447 90:0.37796447 170:0.37796447 299:0.37796447 378:0.37796447 411:0.37796447 538:0.37796447 #
1.0000000589489965729939058292075 59:0.37796447 90:0.37796447 171:0.37796447 298:0.37796447 379:0.37796447 410:0.37796447 538:0.37796447 #
1.0000000589489965729939058292075 59:0.37796447 90:0.37796447 171:0.37796447 274:0.37796447 355:0.37796447 410:0.37796447 538:0.37796447 #
1.0000000589489965729939058292075 59:0.37796447 94:0.37796447 217:0.37796447 250:0.37796447 329:0.37796447 458:0.37796447 538:0.37796447 #
1.0000000589489965729939058292075 59:0.37796447 89:0.37796447 218:0.37796447 242:0.37796447 322:0.37796447 458:0.37796447 537:0.37796447 #
1.0000000589489965729939058292075 59:0.37796447 126:0.37796447 171:0.37796447 304:0.37796447 383:0.37796447 412:0.37796447 538:0.37796447 #
1.0000000589489965729939058292075 59:0.37796447 107:0.37796447 215:0.37796447 302:0.37796447 383:0.37796447 454:0.37796447 539:0.37796447 #
-1.0000000589489965729939058292075 59:0.37796447 125:0.37796447 215:0.37796447 302:0.37796447 383:0.37796447 454:0.37796447 537:0.37796447 #
-1.0000000589489965729939058292075 59:0.37796447 90:0.37796447 228:0.37796447 278:0.37796447 360:0.37796447 466:0.37796447 538:0.37796447 #
1.0000000589489965729939058292075 26:0.37796447 89:0.37796447 187:0.37796447 271:0.37796447 351:0.37796447 427:0.37796447 505:0.37796447 #
1.0000000589489965729939058292075 26:0.37796447 92:0.37796447 187:0.37796447 271:0.37796447 351:0.37796447 427:0.37796447 508:0.37796447 #
1.0000000589489965729939058292075 47:0.37796447 110:0.37796447 231:0.37796447 266:0.37796447 347:0.37796447 470:0.37796447 526:0.37796447 #
1.0000000589489965729939058292075 53:0.37796447 104:0.37796447 213:0.37796447 285:0.37796447 365:0.37796447 453:0.37796447 536:0.37796447 #
1.0000000589489965729939058292075 30:0.37796447 112:0.37796447 223:0.37796447 316:0.37796447 395:0.37796447 464:0.37796447 512:0.37796447 #
-1.0000000589489965729939058292075 59:0.37796447 115:0.37796447 173:0.37796447 302:0.37796447 381:0.37796447 414:0.37796447 539:0.37796447 #
1.0000000589489965729939058292075 57:0.37796447 90:0.37796447 228:0.37796447 279:0.37796447 360:0.37796447 467:0.37796447 538:0.37796447 #
1.0000000589489965729939058292075 59:0.37796447 148:0.37796447 174:0.37796447 263:0.37796447 342:0.37796447 415:0.37796447 540:0.37796447 #
1.0000000589489965729939058292075 57:0.37796447 90:0.37796447 224:0.37796447 275:0.37796447 356:0.37796447 463:0.37796447 538:0.37796447 #
-0.55609475717667844474334515325609 59:0.37796447 90:0.37796447 222:0.37796447 242:0.37796447 322:0.37796447 462:0.37796447 538:0.37796447 #
-1.0000000589489965729939058292075 59:0.37796447 90:0.37796447 213:0.37796447 261:0.37796447 341:0.37796447 453:0.37796447 538:0.37796447 #
0.78224962695504163256998708675383 65:0.37796447 104:0.37796447 228:0.37796447 267:0.37796447 348:0.37796447 467:0.37796447 548:0.37796447 #
1.0000000589489965729939058292075 59:0.37796447 90:0.37796447 170:0.37796447 303:0.37796447 382:0.37796447 411:0.37796447 538:0.37796447 #
-1.0000000589489965729939058292075 59:0.37796447 126:0.37796447 170:0.37796447 303:0.37796447 382:0.37796447 411:0.37796447 538:0.37796447 #
1.0000000589489965729939058292075 59:0.37796447 146:0.37796447 170:0.37796447 303:0.37796447 382:0.37796447 411:0.37796447 538:0.37796447 #
-1.0000000589489965729939058292075 59:0.37796447 114:0.37796447 174:0.37796447 303:0.37796447 382:0.37796447 415:0.37796447 538:0.37796447 #
1.0000000589489965729939058292075 59:0.37796447 90:0.37796447 213:0.37796447 263:0.37796447 341:0.37796447 455:0.37796447 538:0.37796447 #
0.69719368829605843362884343150654 65:0.37796447 127:0.37796447 197:0.37796447 267:0.37796447 345:0.37796447 439:0.37796447 547:0.37796447 #
1.0000000589489965729939058292075 59:0.37796447 126:0.37796447 172:0.37796447 303:0.37796447 384:0.37796447 411:0.37796447 538:0.37796447 #
1.0000000589489965729939058292075 59:0.37796447 142:0.37796447 172:0.37796447 302:0.37796447 384:0.37796447 410:0.37796447 538:0.37796447 #
0.81829725482625614851883710798575 59:0.37796447 142:0.37796447 170:0.37796447 302:0.37796447 382:0.37796447 410:0.37796447 538:0.37796447 #
1.0000000589489965729939058292075 59:0.37796447 142:0.37796447 172:0.37796447 303:0.37796447 384:0.37796447 411:0.37796447 538:0.37796447 #
-1.0000000589489965729939058292075 59:0.37796447 142:0.37796447 215:0.37796447 303:0.37796447 383:0.37796447 455:0.37796447 538:0.37796447 #
1.0000000589489965729939058292075 59:0.37796447 125:0.37796447 226:0.37796447 290:0.37796447 370:0.37796447 466:0.37796447 537:0.37796447 #
1.0000000589489965729939058292075 67:0.37796447 107:0.37796447 217:0.37796447 250:0.37796447 329:0.37796447 458:0.37796447 547:0.37796447 #
1.0000000589489965729939058292075 59:0.37796447 150:0.37796447 225:0.37796447 304:0.37796447 381:0.37796447 468:0.37796447 538:0.37796447 #
1.0000000589489965729939058292075 59:0.37796447 90:0.37796447 216:0.37796447 303:0.37796447 384:0.37796447 455:0.37796447 538:0.37796447 #
1.0000000589489965729939058292075 59:0.37796447 90:0.37796447 228:0.37796447 261:0.37796447 344:0.37796447 465:0.37796447 538:0.37796447 #
1.0000000589489965729939058292075 59:0.37796447 107:0.37796447 215:0.37796447 303:0.37796447 383:0.37796447 455:0.37796447 539:0.37796447 #
1.0000000589489965729939058292075 59:0.37796447 146:0.37796447 174:0.37796447 263:0.37796447 342:0.37796447 415:0.37796447 538:0.37796447 #
-0.42842859634692281867174301623891 59:0.37796447 106:0.37796447 227:0.37796447 263:0.37796447 343:0.37796447 467:0.37796447 538:0.37796447 #
1.0000000589489965729939058292075 1:0.37796447 144:0.37796447 213:0.37796447 241:0.37796447 321:0.37796447 453:0.37796447 484:0.37796447 #
-1.0000000589489965729939058292075 59:0.37796447 144:0.37796447 215:0.37796447 303:0.37796447 383:0.37796447 455:0.37796447 540:0.37796447 #
-1.0000000589489965729939058292075 59:0.37796447 106:0.37796447 215:0.37796447 303:0.37796447 383:0.37796447 455:0.37796447 538:0.37796447 #
1.0000000589489965729939058292075 62:0.37796447 143:0.37796447 172:0.37796447 299:0.37796447 380:0.37796447 411:0.37796447 543:0.37796447 #
1.0000000589489965729939058292075 54:0.37796447 90:0.37796447 225:0.37796447 299:0.37796447 377:0.37796447 467:0.37796447 534:0.37796447 #
1.0000000589489965729939058292075 59:0.37796447 125:0.37796447 222:0.37796447 294:0.37796447 374:0.37796447 462:0.37796447 537:0.37796447 #
1.0000000589489965729939058292075 59:0.37796447 115:0.37796447 214:0.37796447 243:0.37796447 322:0.37796447 455:0.37796447 539:0.37796447 #
1.0000000589489965729939058292075 59:0.37796447 94:0.37796447 182:0.37796447 299:0.37796447 378:0.37796447 423:0.37796447 538:0.37796447 #
-1.0000000589489965729939058292075 59:0.37796447 94:0.37796447 183:0.37796447 299:0.37796447 379:0.37796447 423:0.37796447 538:0.37796447 #
-1.0000000589489965729939058292075 59:0.37796447 125:0.37796447 214:0.37796447 302:0.37796447 382:0.37796447 454:0.37796447 537:0.37796447 #
-1.0000000589489965729939058292075 59:0.37796447 90:0.37796447 172:0.37796447 298:0.37796447 380:0.37796447 410:0.37796447 538:0.37796447 #
1.0000000589489965729939058292075 59:0.37796447 126:0.37796447 171:0.37796447 304:0.37796447 383:0.37796447 412:0.37796447 538:0.37796447 #
1.0000000589489965729939058292075 59:0.37796447 96:0.37796447 219:0.37796447 249:0.37796447 331:0.37796447 457:0.37796447 540:0.37796447 #
-1.0000000589489965729939058292075 59:0.37796447 94:0.37796447 219:0.37796447 249:0.37796447 331:0.37796447 457:0.37796447 538:0.37796447 #
-1.0000000589489965729939058292075 59:0.37796447 95:0.37796447 196:0.37796447 243:0.37796447 324:0.37796447 435:0.37796447 539:0.37796447 #
1.0000000589489965729939058292075 59:0.37796447 90:0.37796447 207:0.37796447 298:0.37796447 379:0.37796447 446:0.37796447 538:0.37796447 #
1.0000000589489965729939058292075 59:0.37796447 94:0.37796447 183:0.37796447 252:0.37796447 331:0.37796447 424:0.37796447 538:0.37796447 #
1.0000000589489965729939058292075 59:0.37796447 94:0.37796447 184:0.37796447 252:0.37796447 332:0.37796447 424:0.37796447 538:0.37796447 #
1.0000000589489965729939058292075 59:0.37796447 90:0.37796447 183:0.37796447 274:0.37796447 355:0.37796447 422:0.37796447 538:0.37796447 #
1.0000000589489965729939058292075 59:0.37796447 107:0.37796447 215:0.37796447 303:0.37796447 383:0.37796447 455:0.37796447 539:0.37796447 #
-1.0000000589489965729939058292075 59:0.37796447 90:0.37796447 225:0.37796447 280:0.37796447 357:0.37796447 468:0.37796447 538:0.37796447 #
-1.0000000589489965729939058292075 59:0.37796447 90:0.37796447 221:0.37796447 242:0.37796447 321:0.37796447 462:0.37796447 538:0.37796447 #
1.0000000589489965729939058292075 59:0.37796447 95:0.37796447 219:0.37796447 249:0.37796447 331:0.37796447 457:0.37796447 539:0.37796447 #
1.0000000589489965729939058292075 59:0.37796447 95:0.37796447 219:0.37796447 252:0.37796447 331:0.37796447 460:0.37796447 539:0.37796447 #
-1.0000000589489965729939058292075 59:0.37796447 83:0.37796447 170:0.37796447 263:0.37796447 342:0.37796447 411:0.37796447 539:0.37796447 #
1.0000000589489965729939058292075 59:0.37796447 90:0.37796447 223:0.37796447 302:0.37796447 383:0.37796447 462:0.37796447 538:0.37796447 #
-0.083148503092546482973190791199158 14:0.37796447 108:0.37796447 222:0.37796447 275:0.37796447 354:0.37796447 463:0.37796447 496:0.37796447 #
1.0000000589489965729939058292075 59:0.37796447 90:0.37796447 223:0.37796447 318:0.37796447 399:0.37796447 462:0.37796447 538:0.37796447 #
-1.0000000589489965729939058292075 59:0.37796447 90:0.37796447 226:0.37796447 278:0.37796447 358:0.37796447 466:0.37796447 538:0.37796447 #
1.0000000589489965729939058292075 59:0.37796447 148:0.37796447 174:0.37796447 263:0.37796447 342:0.37796447 415:0.37796447 540:0.37796447 #
1.0000000589489965729939058292075 36:0.37796447 90:0.37796447 213:0.37796447 263:0.37796447 341:0.37796447 455:0.37796447 514:0.37796447 #
1.0000000589489965729939058292075 57:0.37796447 90:0.37796447 170:0.37796447 276:0.37796447 354:0.37796447 412:0.37796447 538:0.37796447 #
0.98741193792247938798567474805168 59:0.37796447 90:0.37796447 161:0.37796447 242:0.37796447 321:0.37796447 402:0.37796447 538:0.37796447 #
-1.0000000589489965729939058292075 59:0.37796447 114:0.37796447 174:0.37796447 303:0.37796447 382:0.37796447 415:0.37796447 538:0.37796447 #
-1.0000000589489965729939058292075 59:0.37796447 89:0.37796447 216:0.37796447 303:0.37796447 384:0.37796447 455:0.37796447 537:0.37796447 #
-0.50476207524993943476232516331947 58:0.37796447 94:0.37796447 228:0.37796447 262:0.37796447 344:0.37796447 466:0.37796447 538:0.37796447 #
1.0000000589489965729939058292075 59:0.37796447 107:0.37796447 214:0.37796447 303:0.37796447 382:0.37796447 455:0.37796447 539:0.37796447 #
1.0000000589489965729939058292075 59:0.37796447 115:0.37796447 174:0.37796447 303:0.37796447 382:0.37796447 415:0.37796447 539:0.37796447 #
1.0000000589489965729939058292075 59:0.37796447 125:0.37796447 216:0.37796447 303:0.37796447 384:0.37796447 455:0.37796447 537:0.37796447 #
-1.0000000589489965729939058292075 59:0.37796447 144:0.37796447 214:0.37796447 303:0.37796447 382:0.37796447 455:0.37796447 540:0.37796447 #
1.0000000589489965729939058292075 59:0.37796447 125:0.37796447 213:0.37796447 304:0.37796447 381:0.37796447 456:0.37796447 537:0.37796447 #
-1.0000000589489965729939058292075 59:0.37796447 145:0.37796447 223:0.37796447 294:0.37796447 375:0.37796447 462:0.37796447 537:0.37796447 #
-1.0000000589489965729939058292075 59:0.37796447 146:0.37796447 193:0.37796447 251:0.37796447 329:0.37796447 435:0.37796447 538:0.37796447 #
1.0000000589489965729939058292075 59:0.37796447 107:0.37796447 214:0.37796447 303:0.37796447 382:0.37796447 455:0.37796447 539:0.37796447 #
-1.0000000589489965729939058292075 59:0.37796447 107:0.37796447 213:0.37796447 264:0.37796447 341:0.37796447 456:0.37796447 539:0.37796447 #
-1.0000000589489965729939058292075 59:0.37796447 107:0.37796447 172:0.37796447 264:0.37796447 344:0.37796447 412:0.37796447 539:0.37796447 #
-1.0000000589489965729939058292075 54:0.37796447 107:0.37796447 219:0.37796447 250:0.37796447 331:0.37796447 458:0.37796447 535:0.37796447 #
-1.0000000589489965729939058292075 13:0.37796447 107:0.37796447 213:0.37796447 264:0.37796447 341:0.37796447 456:0.37796447 495:0.37796447 #
1.0000000589489965729939058292075 60:0.37796447 90:0.37796447 215:0.37796447 254:0.37796447 335:0.37796447 454:0.37796447 538:0.37796447 #
1.0000000589489965729939058292075 2:0.37796447 106:0.37796447 216:0.37796447 263:0.37796447 344:0.37796447 455:0.37796447 482:0.37796447 #
1.0000000589489965729939058292075 58:0.37796447 93:0.37796447 217:0.37796447 251:0.37796447 329:0.37796447 459:0.37796447 537:0.37796447 #
1.0000000589489965729939058292075 67:0.37796447 150:0.37796447 215:0.37796447 294:0.37796447 375:0.37796447 454:0.37796447 546:0.37796447 #
1.0000000589489965729939058292075 59:0.37796447 105:0.37796447 215:0.37796447 303:0.37796447 383:0.37796447 455:0.37796447 537:0.37796447 #
1.0000000589489965729939058292075 60:0.37796447 91:0.37796447 196:0.37796447 242:0.37796447 324:0.37796447 434:0.37796447 539:0.37796447 #
-1.0000000589489965729939058292075 14:0.37796447 84:0.37796447 223:0.37796447 275:0.37796447 355:0.37796447 463:0.37796447 496:0.37796447 #
-1.0000000589489965729939058292075 59:0.37796447 90:0.37796447 223:0.37796447 276:0.37796447 355:0.37796447 464:0.37796447 538:0.37796447 #
-1.0000000589489965729939058292075 59:0.37796447 90:0.37796447 223:0.37796447 304:0.37796447 383:0.37796447 464:0.37796447 538:0.37796447 #
-1.0000000589489965729939058292075 4:0.37796447 146:0.37796447 223:0.37796447 299:0.37796447 379:0.37796447 463:0.37796447 482:0.37796447 #
-1.0000000589489965729939058292075 59:0.37796447 90:0.37796447 223:0.37796447 244:0.37796447 323:0.37796447 464:0.37796447 538:0.37796447 #
1.0000000589489965729939058292075 58:0.37796447 136:0.37796447 223:0.37796447 264:0.37796447 343:0.37796447 464:0.37796447 540:0.37796447 #
1.0000000589489965729939058292075 64:0.37796447 128:0.37796447 194:0.37796447 303:0.37796447 382:0.37796447 435:0.37796447 544:0.37796447 #
1.0000000589489965729939058292075 61:0.37796447 127:0.37796447 193:0.37796447 303:0.37796447 381:0.37796447 435:0.37796447 543:0.37796447 #
1.0000000589489965729939058292075 61:0.37796447 127:0.37796447 194:0.37796447 303:0.37796447 382:0.37796447 435:0.37796447 543:0.37796447 #
1.0000000589489965729939058292075 4:0.37796447 83:0.37796447 216:0.37796447 306:0.37796447 388:0.37796447 454:0.37796447 483:0.37796447 #
-1.0000000589489965729939058292075 45:0.37796447 148:0.37796447 185:0.37796447 306:0.37796447 385:0.37796447 426:0.37796447 528:0.37796447 #
-1.0000000589489965729939058292075 65:0.37796447 102:0.37796447 228:0.37796447 267:0.37796447 348:0.37796447 467:0.37796447 546:0.37796447 #
-0.52574990699236057167809121892788 13:0.37796447 107:0.37796447 220:0.37796447 251:0.37796447 332:0.37796447 459:0.37796447 495:0.37796447 #
0.017166506126352155947589750439874 18:0.37796447 124:0.37796447 191:0.37796447 284:0.37796447 363:0.37796447 432:0.37796447 500:0.37796447 #
0.40847467206690463159546311544545 72:0.37796447 84:0.37796447 219:0.37796447 251:0.37796447 331:0.37796447 459:0.37796447 552:0.37796447 #
1.0000000589489965729939058292075 57:0.37796447 90:0.37796447 171:0.37796447 298:0.37796447 379:0.37796447 410:0.37796447 538:0.37796447 #
-1.0000000589489965729939058292075 57:0.37796447 94:0.37796447 194:0.37796447 243:0.37796447 322:0.37796447 435:0.37796447 538:0.37796447 #
-1.0000000589489965729939058292075 59:0.37796447 94:0.37796447 194:0.37796447 242:0.37796447 322:0.37796447 434:0.37796447 538:0.37796447 #
0.21832155845333658938933751869627 65:0.37796447 144:0.37796447 213:0.37796447 269:0.37796447 349:0.37796447 453:0.37796447 548:0.37796447 #
-1.0000000589489965729939058292075 58:0.37796447 83:0.37796447 219:0.37796447 251:0.37796447 331:0.37796447 459:0.37796447 539:0.37796447 #
1.0000000589489965729939058292075 14:0.37796447 106:0.37796447 222:0.37796447 263:0.37796447 342:0.37796447 463:0.37796447 494:0.37796447 #
1.0000000589489965729939058292075 14:0.37796447 106:0.37796447 223:0.37796447 263:0.37796447 343:0.37796447 463:0.37796447 494:0.37796447 #
1.0000000589489965729939058292075 68:0.37796447 116:0.37796447 183:0.37796447 299:0.37796447 379:0.37796447 423:0.37796447 548:0.37796447 #
1.0000000589489965729939058292075 10:0.37796447 105:0.37796447 214:0.37796447 267:0.37796447 346:0.37796447 455:0.37796447 489:0.37796447 #
1.0000000589489965729939058292075 14:0.37796447 108:0.37796447 214:0.37796447 267:0.37796447 346:0.37796447 455:0.37796447 496:0.37796447 #
-1.0000000589489965729939058292075 14:0.37796447 142:0.37796447 213:0.37796447 267:0.37796447 345:0.37796447 455:0.37796447 494:0.37796447 #
-1.0000000589489965729939058292075 14:0.37796447 125:0.37796447 225:0.37796447 263:0.37796447 341:0.37796447 467:0.37796447 493:0.37796447 #
1.0000000589489965729939058292075 59:0.37796447 142:0.37796447 228:0.37796447 243:0.37796447 324:0.37796447 467:0.37796447 538:0.37796447 #
-1.0000000589489965729939058292075 14:0.37796447 145:0.37796447 213:0.37796447 303:0.37796447 381:0.37796447 455:0.37796447 493:0.37796447 #
-1.0000000589489965729939058292075 14:0.37796447 108:0.37796447 213:0.37796447 263:0.37796447 341:0.37796447 455:0.37796447 496:0.37796447 #
1.0000000589489965729939058292075 58:0.37796447 94:0.37796447 219:0.37796447 252:0.37796447 331:0.37796447 460:0.37796447 538:0.37796447 #
1.0000000589489965729939058292075 58:0.37796447 101:0.37796447 182:0.37796447 243:0.37796447 322:0.37796447 423:0.37796447 537:0.37796447 #
-0.96227708376697185244097454415169 54:0.37796447 125:0.37796447 219:0.37796447 250:0.37796447 331:0.37796447 458:0.37796447 533:0.37796447 #
-0.60881759330720308653894790040795 59:0.37796447 89:0.37796447 171:0.37796447 299:0.37796447 379:0.37796447 411:0.37796447 537:0.37796447 #
-1.0000000589489965729939058292075 71:0.37796447 94:0.37796447 219:0.37796447 252:0.37796447 331:0.37796447 460:0.37796447 550:0.37796447 #
-1.0000000589489965729939058292075 58:0.37796447 151:0.37796447 219:0.37796447 251:0.37796447 331:0.37796447 459:0.37796447 539:0.37796447 #
-1.0000000589489965729939058292075 58:0.37796447 115:0.37796447 219:0.37796447 251:0.37796447 331:0.37796447 459:0.37796447 539:0.37796447 #
1.0000000589489965729939058292075 14:0.37796447 106:0.37796447 215:0.37796447 267:0.37796447 347:0.37796447 455:0.37796447 494:0.37796447 #
-1.0000000589489965729939058292075 67:0.37796447 104:0.37796447 228:0.37796447 265:0.37796447 348:0.37796447 465:0.37796447 548:0.37796447 #
1.0000000589489965729939058292075 59:0.37796447 90:0.37796447 213:0.37796447 263:0.37796447 341:0.37796447 455:0.37796447 538:0.37796447 #
1.0000000589489961289046959791449 72:0.37796447 84:0.37796447 219:0.37796447 251:0.37796447 331:0.37796447 459:0.37796447 552:0.37796447 #
-1.0000000589489965729939058292075 66:0.37796447 104:0.37796447 228:0.37796447 265:0.37796447 348:0.37796447 465:0.37796447 548:0.37796447 #
1.0000000589489965729939058292075 58:0.37796447 94:0.37796447 219:0.37796447 251:0.37796447 331:0.37796447 459:0.37796447 538:0.37796447 #
1.0000000589489965729939058292075 58:0.37796447 94:0.37796447 219:0.37796447 252:0.37796447 331:0.37796447 460:0.37796447 538:0.37796447 #
1.0000000589489965729939058292075 65:0.37796447 106:0.37796447 219:0.37796447 251:0.37796447 331:0.37796447 459:0.37796447 546:0.37796447 #
