SVM-light Version V6.01
1 # kernel type
2 # kernel parameter -d 
1 # kernel parameter -g 
1 # kernel parameter -s 
1 # kernel parameter -r 
empty# kernel parameter -u 
319 # highest feature index 
7000 # number of training documents 
1860 # number of support vectors plus 1 
0.12729885 # threshold b, each following line is a SV (starting with alpha*y)
-0.33333333362478673178586063841067 67:0.5 105:0.5 217:0.5 251:0.5 #
-0.33333333362478673178586063841067 59:0.5 142:0.5 214:0.5 304:0.5 #
-0.28362488234442190249140480773349 65:0.5 105:0.5 219:0.5 250:0.5 #
-0.15057715764586637741118124722561 59:0.5 127:0.5 216:0.5 304:0.5 #
-0.097072821759907626515406775524752 59:0.5 127:0.5 219:0.5 252:0.5 #
0.33333333362478673178586063841067 59:0.5 90:0.5 195:0.5 243:0.5 #
0.33333333362478673178586063841067 46:0.5 150:0.5 219:0.5 251:0.5 #
-0.33333333362478673178586063841067 67:0.5 106:0.5 217:0.5 251:0.5 #
-0.020769334112565908390113378345632 60:0.5 93:0.5 205:0.5 263:0.5 #
0.33333333362478673178586063841067 59:0.5 125:0.5 228:0.5 261:0.5 #
-0.33333333362478673178586063841067 59:0.5 90:0.5 195:0.5 243:0.5 #
-0.33333333362478673178586063841067 59:0.5 94:0.5 195:0.5 243:0.5 #
0.33333333362478673178586063841067 65:0.5 105:0.5 219:0.5 250:0.5 #
0.33333333362478673178586063841067 60:0.5 91:0.5 196:0.5 242:0.5 #
0.33333333362478673178586063841067 60:0.5 91:0.5 196:0.5 242:0.5 #
-0.05030938869387800022048296000321 57:0.5 90:0.5 194:0.5 243:0.5 #
-0.33333333362478673178586063841067 66:0.5 107:0.5 219:0.5 251:0.5 #
-0.33333333362478673178586063841067 59:0.5 107:0.5 217:0.5 250:0.5 #
0.33333333362478673178586063841067 59:0.5 90:0.5 195:0.5 242:0.5 #
0.079758977163039479485462379670935 3:0.57735026 105:0.57735026 195:0.57735026 #
-0.33333333362478673178586063841067 59:0.5 90:0.5 195:0.5 243:0.5 #
-0.006359600141701914934044825855608 60:0.5 89:0.5 196:0.5 242:0.5 #
-0.33333333362478673178586063841067 59:0.5 94:0.5 196:0.5 242:0.5 #
-0.33333333362478673178586063841067 59:0.5 90:0.5 195:0.5 242:0.5 #
0.33333333362478673178586063841067 58:0.5 146:0.5 219:0.5 303:0.5 #
0.33333333362478673178586063841067 58:0.5 96:0.5 219:0.5 252:0.5 #
0.33333333362478673178586063841067 59:0.5 90:0.5 195:0.5 242:0.5 #
-0.17902801774183096927828273692285 3:0.5 146:0.5 219:0.5 252:0.5 #
-0.33333333362478673178586063841067 70:0.5 96:0.5 219:0.5 252:0.5 #
-0.33333333362478673178586063841067 3:0.5 146:0.5 219:0.5 251:0.5 #
0.33333333362478673178586063841067 59:0.5 94:0.5 217:0.5 242:0.5 #
0.33333333362478673178586063841067 60:0.5 95:0.5 220:0.5 250:0.5 #
0.33333333362478673178586063841067 58:0.5 146:0.5 219:0.5 303:0.5 #
0.33333333362478673178586063841067 60:0.5 95:0.5 220:0.5 250:0.5 #
-0.33333333362478673178586063841067 59:0.5 90:0.5 195:0.5 242:0.5 #
-0.33333333362478673178586063841067 59:0.57735026 90:0.57735026 220:0.57735026 #
-0.11423654483652655178271828617653 66:0.5 101:0.5 228:0.5 268:0.5 #
-0.11653186498700951467810682515847 59:0.5 94:0.5 220:0.5 249:0.5 #
-0.33333333362478673178586063841067 1:0.5 141:0.5 213:0.5 303:0.5 #
-0.25396298936989403216557548148558 1:0.5 143:0.5 213:0.5 303:0.5 #
-0.0056904908574605932852774614616465 60:0.5 127:0.5 213:0.5 303:0.5 #
0.33333333362478673178586063841067 59:0.5 90:0.5 194:0.5 243:0.5 #
0.33333333362478673178586063841067 59:0.5 90:0.5 195:0.5 244:0.5 #
-0.33333333362478673178586063841067 59:0.5 90:0.5 195:0.5 242:0.5 #
0.33333333362478673178586063841067 59:0.5 90:0.5 195:0.5 244:0.5 #
0.33333333362478673178586063841067 59:0.5 142:0.5 225:0.5 303:0.5 #
-0.33333333362478673178586063841067 58:0.5 95:0.5 219:0.5 251:0.5 #
0.33333333362478673178586063841067 1:0.5 144:0.5 213:0.5 303:0.5 #
0.33333333362478673178586063841067 14:0.5 148:0.5 213:0.5 303:0.5 #
0.33333333362478673178586063841067 1:0.5 144:0.5 213:0.5 241:0.5 #
-0.33333333362478673178586063841067 59:0.5 90:0.5 224:0.5 244:0.5 #
-0.33333333362478673178586063841067 59:0.5 90:0.5 223:0.5 244:0.5 #
-0.33333333362478673178586063841067 59:0.5 90:0.5 222:0.5 244:0.5 #
0.33333333362478673178586063841067 3:0.5 94:0.5 219:0.5 252:0.5 #
0.33333333362478673178586063841067 58:0.5 94:0.5 219:0.5 252:0.5 #
-0.33333333362478673178586063841067 58:0.5 95:0.5 219:0.5 251:0.5 #
-0.33333333362478673178586063841067 71:0.5 94:0.5 219:0.5 252:0.5 #
-0.33333333362478673178586063841067 59:0.5 94:0.5 219:0.5 252:0.5 #
-0.071042790738798905492146218421112 60:0.5 113:0.5 175:0.5 302:0.5 #
0.33333333362478673178586063841067 59:0.5 90:0.5 161:0.5 242:0.5 #
0.33333333362478673178586063841067 59:0.5 90:0.5 207:0.5 242:0.5 #
0.33333333362478673178586063841067 59:0.5 90:0.5 227:0.5 242:0.5 #
0.33333333362478673178586063841067 58:0.5 94:0.5 219:0.5 252:0.5 #
-0.012198027089259575600488361146745 58:0.5 146:0.5 222:0.5 295:0.5 #
-0.33333333362478673178586063841067 59:0.5 90:0.5 221:0.5 242:0.5 #
-0.33333333362478673178586063841067 59:0.5 90:0.5 193:0.5 242:0.5 #
0.13775106436823725264417817015783 59:0.5 90:0.5 161:0.5 244:0.5 #
0.33333333362478673178586063841067 59:0.5 95:0.5 219:0.5 252:0.5 #
0.22937581070149756778953076263861 68:0.5 95:0.5 219:0.5 251:0.5 #
-0.33333333362478673178586063841067 66:0.5 107:0.5 219:0.5 252:0.5 #
0.33333333362478673178586063841067 59:0.5 90:0.5 223:0.5 318:0.5 #
0.33333333362478673178586063841067 59:0.5 90:0.5 223:0.5 302:0.5 #
0.33333333362478673178586063841067 59:0.5 90:0.5 223:0.5 304:0.5 #
0.33333333362478673178586063841067 59:0.5 95:0.5 219:0.5 252:0.5 #
-0.33333333362478673178586063841067 1:0.5 144:0.5 213:0.5 304:0.5 #
-0.33333333362478673178586063841067 1:0.5 144:0.5 213:0.5 302:0.5 #
-0.33333333362478673178586063841067 1:0.5 144:0.5 215:0.5 303:0.5 #
0.26745345253782348837745530545362 71:0.5 107:0.5 219:0.5 265:0.5 #
0.33333333362478673178586063841067 59:0.5 94:0.5 220:0.5 252:0.5 #
-0.33333333362478673178586063841067 66:0.5 107:0.5 219:0.5 252:0.5 #
-0.33333333362478673178586063841067 59:0.5 95:0.5 219:0.5 252:0.5 #
0.33333333362478673178586063841067 1:0.5 84:0.5 213:0.5 261:0.5 #
-0.33333333362478673178586063841067 68:0.5 125:0.5 220:0.5 251:0.5 #
0.088221758095454461123807732292335 59:0.5 110:0.5 225:0.5 304:0.5 #
0.33333333362478673178586063841067 59:0.5 144:0.5 228:0.5 263:0.5 #
0.33333333362478673178586063841067 13:0.5 107:0.5 219:0.5 252:0.5 #
0.33333333362478673178586063841067 65:0.5 107:0.5 219:0.5 252:0.5 #
0.33333333362478673178586063841067 59:0.5 107:0.5 219:0.5 252:0.5 #
-0.33333333362478673178586063841067 59:0.5 95:0.5 219:0.5 252:0.5 #
0.33333333362478673178586063841067 1:0.5 144:0.5 213:0.5 241:0.5 #
-0.19620878986930248566444845437218 58:0.5 107:0.5 219:0.5 252:0.5 #
-0.33333333362478673178586063841067 46:0.5 107:0.5 219:0.5 252:0.5 #
0.33333333362478673178586063841067 67:0.5 105:0.5 220:0.5 251:0.5 #
0.33333333362478673178586063841067 67:0.5 106:0.5 220:0.5 251:0.5 #
0.33333333362478673178586063841067 34:0.5 127:0.5 220:0.5 299:0.5 #
-0.33333333362478673178586063841067 67:0.5 105:0.5 220:0.5 251:0.5 #
-0.33333333362478673178586063841067 67:0.5 106:0.5 220:0.5 251:0.5 #
0.33333333362478673178586063841067 3:0.57735026 107:0.57735026 193:0.57735026 #
0.33333333362478673178586063841067 68:0.5 107:0.5 219:0.5 252:0.5 #
0.33333333362478673178586063841067 59:0.5 96:0.5 219:0.5 252:0.5 #
-0.33333333362478673178586063841067 59:0.5 95:0.5 219:0.5 252:0.5 #
-0.33333333362478673178586063841067 66:0.5 107:0.5 219:0.5 252:0.5 #
-0.33333333362478673178586063841067 59:0.57735026 126:0.57735026 219:0.57735026 #
0.065456440560288708940817059556139 66:0.5 127:0.5 200:0.5 267:0.5 #
-0.33333333362478673178586063841067 59:0.5 107:0.5 216:0.5 241:0.5 #
0.33333333362478673178586063841067 58:0.5 95:0.5 218:0.5 251:0.5 #
0.33333333362478673178586063841067 67:0.5 106:0.5 217:0.5 251:0.5 #
-0.33333333362478673178586063841067 67:0.5 106:0.5 217:0.5 251:0.5 #
0.1602886291747420699493886786513 63:0.5 144:0.5 213:0.5 243:0.5 #
0.33333333362478673178586063841067 59:0.5 90:0.5 195:0.5 250:0.5 #
0.33333333362478673178586063841067 59:0.5 89:0.5 219:0.5 250:0.5 #
0.33333333362478673178586063841067 67:0.5 106:0.5 217:0.5 251:0.5 #
-0.33333333362478673178586063841067 59:0.5 94:0.5 219:0.5 250:0.5 #
0.33333333362478673178586063841067 67:0.5 107:0.5 220:0.5 251:0.5 #
-0.33333333362478673178586063841067 57:0.5 90:0.5 194:0.5 243:0.5 #
-0.33333333362478673178586063841067 67:0.5 107:0.5 217:0.5 251:0.5 #
-0.014995411931121017251600235908882 13:0.5 107:0.5 217:0.5 251:0.5 #
-0.33333333362478673178586063841067 65:0.5 107:0.5 218:0.5 251:0.5 #
0.33333333362478673178586063841067 59:0.5 95:0.5 219:0.5 249:0.5 #
0.33333333362478673178586063841067 59:0.5 126:0.5 170:0.5 244:0.5 #
0.33333333362478673178586063841067 59:0.5 126:0.5 220:0.5 294:0.5 #
-0.33333333362478673178586063841067 59:0.5 94:0.5 219:0.5 250:0.5 #
-0.33333333362478673178586063841067 59:0.5 90:0.5 223:0.5 302:0.5 #
-0.21422955116040082179651449223456 59:0.5 90:0.5 223:0.5 241:0.5 #
0.1278254399223085202574878849191 29:0.5 101:0.5 219:0.5 251:0.5 #
0.33333333362478673178586063841067 46:0.5 107:0.5 217:0.5 251:0.5 #
0.33333333362478673178586063841067 67:0.5 107:0.5 218:0.5 251:0.5 #
-0.15710990947050818000718663824955 35:0.5 94:0.5 217:0.5 252:0.5 #
-0.33333333362478673178586063841067 67:0.5 107:0.5 219:0.5 249:0.5 #
-0.33333333362478673178586063841067 68:0.5 126:0.5 219:0.5 251:0.5 #
-0.33333333362478673178586063841067 67:0.5 126:0.5 219:0.5 251:0.5 #
0.33333333362478673178586063841067 14:0.5 106:0.5 224:0.5 263:0.5 #
0.33333333362478673178586063841067 14:0.5 106:0.5 215:0.5 267:0.5 #
0.33333333362478673178586063841067 59:0.5 94:0.5 220:0.5 250:0.5 #
-0.33333333362478673178586063841067 59:0.5 106:0.5 170:0.5 263:0.5 #
-0.33333333362478673178586063841067 59:0.5 106:0.5 213:0.5 263:0.5 #
0.0066815228505324921609576094283511 34:0.5 107:0.5 219:0.5 251:0.5 #
0.33333333362478673178586063841067 68:0.5 107:0.5 219:0.5 252:0.5 #
-0.33333333362478673178586063841067 14:0.5 142:0.5 215:0.5 267:0.5 #
0.19031843479640980776323999634769 59:0.5 124:0.5 176:0.5 315:0.5 #
-0.33333333362478673178586063841067 14:0.5 142:0.5 213:0.5 267:0.5 #
0.33333333362478673178586063841067 68:0.5 107:0.5 219:0.5 249:0.5 #
0.17271172604433773778431771006581 70:0.5 107:0.5 213:0.5 304:0.5 #
0.33333333362478673178586063841067 67:0.5 107:0.5 219:0.5 250:0.5 #
-0.33333333362478673178586063841067 68:0.5 107:0.5 219:0.5 250:0.5 #
-0.33333333362478673178586063841067 67:0.5 107:0.5 219:0.5 250:0.5 #
0.33333333362478673178586063841067 14:0.5 142:0.5 225:0.5 267:0.5 #
0.33333333362478673178586063841067 59:0.5 142:0.5 220:0.5 302:0.5 #
0.33333333362478673178586063841067 59:0.5 142:0.5 216:0.5 242:0.5 #
-0.16394703599210191935497960002976 59:0.5 89:0.5 172:0.5 299:0.5 #
-0.33333333362478673178586063841067 59:0.5 142:0.5 216:0.5 302:0.5 #
-0.33333333362478673178586063841067 59:0.5 142:0.5 216:0.5 304:0.5 #
-0.33333333362478673178586063841067 59:0.5 142:0.5 213:0.5 304:0.5 #
0.33333333362478673178586063841067 68:0.5 107:0.5 219:0.5 250:0.5 #
0.33333333362478673178586063841067 58:0.5 106:0.5 219:0.5 251:0.5 #
0.33333333362478673178586063841067 67:0.5 107:0.5 217:0.5 250:0.5 #
-0.33333333362478673178586063841067 68:0.5 107:0.5 219:0.5 250:0.5 #
-0.33333333362478673178586063841067 68:0.5 107:0.5 218:0.5 251:0.5 #
-0.077827871528542549861562349633459 59:0.5 95:0.5 219:0.5 250:0.5 #
0.33333333362478673178586063841067 59:0.57735026 142:0.57735026 213:0.57735026 #
0.33333333362478673178586063841067 59:0.5 142:0.5 216:0.5 243:0.5 #
0.33333333362478673178586063841067 59:0.5 90:0.5 216:0.5 304:0.5 #
0.33333333362478673178586063841067 67:0.5 107:0.5 218:0.5 251:0.5 #
-0.33333333362478673178586063841067 59:0.5 90:0.5 216:0.5 304:0.5 #
-0.33333333362478673178586063841067 59:0.5 90:0.5 194:0.5 243:0.5 #
0.33333333362478673178586063841067 68:0.5 107:0.5 217:0.5 251:0.5 #
0.22915968823947494015236259201629 68:0.5 107:0.5 215:0.5 303:0.5 #
-0.33333333362478673178586063841067 68:0.5 107:0.5 218:0.5 251:0.5 #
0.33333333362478673178586063841067 59:0.5 89:0.5 219:0.5 250:0.5 #
-0.33333333362478673178586063841067 67:0.5 107:0.5 218:0.5 251:0.5 #
0.33333333362478673178586063841067 59:0.57735026 90:0.57735026 216:0.57735026 #
0.33333333362478673178586063841067 59:0.5 90:0.5 219:0.5 250:0.5 #
-0.33333333362478673178586063841067 59:0.57735026 89:0.57735026 219:0.57735026 #
0.33333333362478673178586063841067 3:0.5 107:0.5 194:0.5 302:0.5 #
-0.33333333362478673178586063841067 59:0.5 94:0.5 219:0.5 249:0.5 #
0.33333333362478673178586063841067 59:0.5 95:0.5 218:0.5 251:0.5 #
-0.33333333362478673178586063841067 14:0.5 84:0.5 225:0.5 263:0.5 #
-0.33333333362478673178586063841067 58:0.5 94:0.5 182:0.5 299:0.5 #
-0.00019752620580791493271055614400211 59:0.5 106:0.5 171:0.5 263:0.5 #
0.33333333362478673178586063841067 59:0.5 89:0.5 218:0.5 242:0.5 #
-0.33333333362478673178586063841067 59:0.5 89:0.5 195:0.5 242:0.5 #
0.33333333362478673178586063841067 14:0.5 105:0.5 221:0.5 263:0.5 #
0.33333333362478673178586063841067 57:0.5 94:0.5 205:0.5 263:0.5 #
0.33333333362478673178586063841067 57:0.5 94:0.5 219:0.5 252:0.5 #
0.33333333362478673178586063841067 67:0.5 107:0.5 220:0.5 251:0.5 #
-0.33333333362478673178586063841067 59:0.5 95:0.5 219:0.5 251:0.5 #
0.33333333362478673178586063841067 59:0.5 94:0.5 217:0.5 249:0.5 #
0.33333333362478673178586063841067 59:0.5 94:0.5 219:0.5 249:0.5 #
-0.33333333362478673178586063841067 57:0.57735026 125:0.57735026 217:0.57735026 #
-0.15509264141062428787876115166 59:0.5 126:0.5 228:0.5 262:0.5 #
-0.0026192585892033247614574253958608 67:0.5 107:0.5 220:0.5 249:0.5 #
0.33333333362478673178586063841067 59:0.5 141:0.5 195:0.5 251:0.5 #
0.33333333362478673178586063841067 59:0.5 95:0.5 219:0.5 250:0.5 #
-0.33333333362478673178586063841067 59:0.5 95:0.5 219:0.5 251:0.5 #
-0.12195384355373788121124078998037 59:0.5 90:0.5 225:0.5 261:0.5 #
0.33333333362478673178586063841067 59:0.5 141:0.5 219:0.5 251:0.5 #
0.33333333362478673178586063841067 65:0.5 107:0.5 217:0.5 249:0.5 #
0.33333333362478673178586063841067 35:0.5 142:0.5 170:0.5 304:0.5 #
0.33333333362478673178586063841067 59:0.5 95:0.5 219:0.5 250:0.5 #
0.33333333362478673178586063841067 59:0.5 90:0.5 219:0.5 250:0.5 #
-0.12611062538787243259008619133965 65:0.5 107:0.5 217:0.5 249:0.5 #
-0.33333333362478673178586063841067 3:0.5 142:0.5 213:0.5 303:0.5 #
-0.09427966078358346324606031885196 59:0.5 90:0.5 171:0.5 300:0.5 #
0.31792590690541655540357623976888 59:0.57735026 95:0.57735026 219:0.57735026 #
0.33333333362478673178586063841067 59:0.5 95:0.5 220:0.5 250:0.5 #
-0.33333333362478673178586063841067 59:0.5 90:0.5 219:0.5 250:0.5 #
-0.14957074408087919770160567622952 59:0.5 95:0.5 219:0.5 250:0.5 #
-0.33333333362478673178586063841067 59:0.5 94:0.5 171:0.5 263:0.5 #
0.33333333362478673178586063841067 62:0.5 127:0.5 193:0.5 303:0.5 #
0.33333333362478673178586063841067 61:0.5 127:0.5 193:0.5 303:0.5 #
-0.035667073770870319493475619765377 60:0.5 127:0.5 170:0.5 303:0.5 #
-0.065465574188896077933996764386393 59:0.5 114:0.5 170:0.5 303:0.5 #
-0.33333333362478673178586063841067 59:0.5 126:0.5 170:0.5 303:0.5 #
0.33333333362478673178586063841067 59:0.5 94:0.5 218:0.5 250:0.5 #
0.33333333362478673178586063841067 59:0.5 93:0.5 218:0.5 250:0.5 #
-0.33333333362478673178586063841067 59:0.5 94:0.5 219:0.5 250:0.5 #
0.33333333362478673178586063841067 35:0.5 142:0.5 170:0.5 304:0.5 #
-0.029091061382545430752388782025264 65:0.5 107:0.5 218:0.5 251:0.5 #
-0.054004814887104145293417190032415 57:0.5 94:0.5 219:0.5 250:0.5 #
0.0020279026997683320850118793288175 59:0.5 142:0.5 170:0.5 303:0.5 #
0.0270547761688087369524868819326 59:0.5 90:0.5 220:0.5 267:0.5 #
0.33333333362478673178586063841067 59:0.5 94:0.5 219:0.5 252:0.5 #
-0.050295409236524903084930571139921 14:0.5 144:0.5 227:0.5 265:0.5 #
-0.33333333362478673178586063841067 59:0.5 127:0.5 170:0.5 304:0.5 #
0.33333333362478673178586063841067 59:0.5 94:0.5 219:0.5 250:0.5 #
-0.33333333362478673178586063841067 59:0.5 90:0.5 219:0.5 250:0.5 #
-0.33333333362478673178586063841067 59:0.5 94:0.5 219:0.5 249:0.5 #
0.33333333362478673178586063841067 59:0.5 94:0.5 218:0.5 250:0.5 #
0.33333333362478673178586063841067 59:0.5 89:0.5 218:0.5 242:0.5 #
-0.21997334776411997525613628567953 35:0.5 93:0.5 219:0.5 250:0.5 #
-0.30909215176911686295824210901628 59:0.5 93:0.5 207:0.5 262:0.5 #
-0.33333333362478673178586063841067 59:0.5 142:0.5 219:0.5 250:0.5 #
0.17588410858517977697346168497461 66:0.5 126:0.5 200:0.5 267:0.5 #
0.33333333362478673178586063841067 59:0.5 126:0.5 186:0.5 241:0.5 #
-0.33333333362478673178586063841067 59:0.5 89:0.5 195:0.5 242:0.5 #
0.33333333362478673178586063841067 59:0.5 94:0.5 219:0.5 249:0.5 #
0.31863680901854496418934559187619 59:0.57735026 95:0.57735026 219:0.57735026 #
-0.33333333362478673178586063841067 59:0.5 92:0.5 170:0.5 298:0.5 #
0.33333333362478673178586063841067 59:0.5 93:0.5 219:0.5 249:0.5 #
0.33333333362478673178586063841067 59:0.5 93:0.5 219:0.5 250:0.5 #
-0.33333333362478673178586063841067 35:0.5 94:0.5 220:0.5 252:0.5 #
-0.33333333362478673178586063841067 59:0.57735026 126:0.57735026 220:0.57735026 #
-0.33333333362478673178586063841067 59:0.5 94:0.5 218:0.5 252:0.5 #
0.33333333362478673178586063841067 59:0.5 90:0.5 195:0.5 262:0.5 #
0.33333333362478673178586063841067 59:0.5 90:0.5 194:0.5 251:0.5 #
0.33333333362478673178586063841067 59:0.5 89:0.5 219:0.5 251:0.5 #
-0.33333333362478673178586063841067 59:0.5 95:0.5 219:0.5 251:0.5 #
0.33333333362478673178586063841067 59:0.5 94:0.5 219:0.5 250:0.5 #
-0.33333333362478673178586063841067 59:0.5 106:0.5 219:0.5 251:0.5 #
-0.33333333362478673178586063841067 59:0.5 116:0.5 219:0.5 251:0.5 #
0.33333333362478673178586063841067 59:0.5 94:0.5 220:0.5 252:0.5 #
0.33333333362478673178586063841067 59:0.5 94:0.5 218:0.5 252:0.5 #
0.33333333362478673178586063841067 58:0.5 94:0.5 220:0.5 250:0.5 #
-0.10377130195941382251323403806964 45:0.5 84:0.5 187:0.5 286:0.5 #
-0.33333333362478673178586063841067 59:0.5 94:0.5 194:0.5 241:0.5 #
-0.33333333362478673178586063841067 59:0.5 142:0.5 214:0.5 302:0.5 #
-0.088162116332421658349005610944005 57:0.5 94:0.5 194:0.5 243:0.5 #
0.33333333362478673178586063841067 59:0.5 95:0.5 219:0.5 251:0.5 #
-0.33333333362478673178586063841067 59:0.5 90:0.5 219:0.5 252:0.5 #
-0.33333333362478673178586063841067 59:0.5 90:0.5 219:0.5 249:0.5 #
0.33333333362478673178586063841067 59:0.5 94:0.5 218:0.5 251:0.5 #
0.33333333362478673178586063841067 59:0.5 106:0.5 213:0.5 304:0.5 #
0.33333333362478673178586063841067 59:0.5 106:0.5 213:0.5 243:0.5 #
-0.33333333362478673178586063841067 59:0.5 126:0.5 216:0.5 302:0.5 #
-0.33333333362478673178586063841067 59:0.5 94:0.5 213:0.5 261:0.5 #
0.16897978817276179674955471909925 52:0.5 135:0.5 224:0.5 254:0.5 #
-0.33333333362478673178586063841067 59:0.5 94:0.5 213:0.5 262:0.5 #
-0.28988817323595617025944193301257 60:0.5 90:0.5 170:0.5 299:0.5 #
-0.13215047385318634542983318169718 46:0.5 146:0.5 188:0.5 308:0.5 #
-0.33333333362478673178586063841067 59:0.5 106:0.5 219:0.5 251:0.5 #
-0.33333333362478673178586063841067 59:0.5 90:0.5 219:0.5 252:0.5 #
-0.33333333362478673178586063841067 59:0.5 82:0.5 219:0.5 251:0.5 #
-0.33333333362478673178586063841067 72:0.5 93:0.5 219:0.5 251:0.5 #
-0.33333333362478673178586063841067 67:0.5 108:0.5 219:0.5 251:0.5 #
0.33333333362478673178586063841067 59:0.5 95:0.5 220:0.5 249:0.5 #
0.33333333362478673178586063841067 59:0.5 94:0.5 220:0.5 250:0.5 #
0.33333333362478673178586063841067 58:0.5 96:0.5 220:0.5 252:0.5 #
0.33333333362478673178586063841067 59:0.5 95:0.5 219:0.5 251:0.5 #
-0.33333333362478673178586063841067 59:0.5 113:0.5 173:0.5 303:0.5 #
-0.33333333362478673178586063841067 59:0.5 94:0.5 220:0.5 250:0.5 #
0.33333333362478673178586063841067 72:0.5 106:0.5 219:0.5 251:0.5 #
0.29922102761028052109182340245752 3:0.5 106:0.5 219:0.5 251:0.5 #
0.33333333362478673178586063841067 63:0.5 82:0.5 219:0.5 251:0.5 #
0.33333333362478673178586063841067 59:0.5 94:0.5 219:0.5 250:0.5 #
-0.33333333362478673178586063841067 67:0.5 107:0.5 220:0.5 251:0.5 #
-0.33333333362478673178586063841067 63:0.5 82:0.5 219:0.5 251:0.5 #
0.33333333362478673178586063841067 59:0.5 94:0.5 217:0.5 250:0.5 #
0.33333333362478673178586063841067 67:0.5 107:0.5 220:0.5 251:0.5 #
-0.33333333362478673178586063841067 59:0.5 94:0.5 217:0.5 250:0.5 #
-0.21683423321632033786698912081192 59:0.5 90:0.5 217:0.5 250:0.5 #
0.33333333362478673178586063841067 67:0.5 108:0.5 219:0.5 251:0.5 #
0.33333333362478673178586063841067 67:0.5 93:0.5 219:0.5 251:0.5 #
-0.33333333362478673178586063841067 67:0.5 107:0.5 220:0.5 251:0.5 #
0.33333333362478673178586063841067 59:0.5 94:0.5 217:0.5 250:0.5 #
-0.33333333362478673178586063841067 67:0.5 108:0.5 219:0.5 251:0.5 #
-0.33333333362478673178586063841067 67:0.5 106:0.5 219:0.5 251:0.5 #
-0.33333333362478673178586063841067 59:0.5 94:0.5 217:0.5 250:0.5 #
-0.06591590363819109510412630470455 59:0.5 89:0.5 223:0.5 302:0.5 #
-0.33333333362478673178586063841067 59:0.5 94:0.5 217:0.5 251:0.5 #
0.33333333362478673178586063841067 59:0.5 82:0.5 213:0.5 262:0.5 #
0.33333333362478673178586063841067 59:0.5 126:0.5 170:0.5 263:0.5 #
0.33333333362478673178586063841067 59:0.5 90:0.5 213:0.5 261:0.5 #
-0.33333333362478673178586063841067 59:0.5 106:0.5 170:0.5 263:0.5 #
0.33333333362478673178586063841067 59:0.5 94:0.5 217:0.5 250:0.5 #
-0.33333333362478673178586063841067 59:0.5 90:0.5 213:0.5 304:0.5 #
-0.33333333362478673178586063841067 59:0.5 90:0.5 213:0.5 262:0.5 #
-0.33333333362478673178586063841067 59:0.5 106:0.5 213:0.5 243:0.5 #
0.33333333362478673178586063841067 58:0.5 93:0.5 217:0.5 251:0.5 #
0.33333333362478673178586063841067 59:0.5 94:0.5 217:0.5 251:0.5 #
-0.33333333362478673178586063841067 59:0.5 94:0.5 217:0.5 251:0.5 #
0.17035019714374785571031623021554 68:0.5 144:0.5 183:0.5 287:0.5 #
0.0087395661747788223189248313360622 59:0.5 144:0.5 228:0.5 263:0.5 #
0.33333333362478673178586063841067 59:0.5 106:0.5 213:0.5 264:0.5 #
0.33333333362478673178586063841067 60:0.5 90:0.5 215:0.5 254:0.5 #
0.33333333362478673178586063841067 57:0.5 90:0.5 221:0.5 243:0.5 #
0.33333333362478673178586063841067 59:0.5 94:0.5 217:0.5 251:0.5 #
-0.33333333362478673178586063841067 59:0.5 106:0.5 213:0.5 243:0.5 #
-0.32900631084791159830515994144662 59:0.5 106:0.5 213:0.5 264:0.5 #
-0.3233972513525427694425218305696 59:0.5 106:0.5 213:0.5 261:0.5 #
0.33333333362478673178586063841067 67:0.5 107:0.5 217:0.5 251:0.5 #
0.0046700089937348060464827881332894 63:0.5 134:0.5 195:0.5 246:0.5 #
-0.034535668665895323525827365074292 48:0.5 145:0.5 186:0.5 306:0.5 #
0.33333333362478673178586063841067 59:0.5 106:0.5 213:0.5 261:0.5 #
0.33333333362478673178586063841067 59:0.5 106:0.5 213:0.5 296:0.5 #
0.33333333362478673178586063841067 59:0.5 106:0.5 213:0.5 294:0.5 #
-0.33333333362478673178586063841067 59:0.5 94:0.5 217:0.5 251:0.5 #
-0.33333333362478673178586063841067 59:0.5 94:0.5 170:0.5 261:0.5 #
-0.33333333362478673178586063841067 59:0.5 144:0.5 216:0.5 303:0.5 #
-0.33333333362478673178586063841067 59:0.5 94:0.5 208:0.5 261:0.5 #
0.33333333362478673178586063841067 4:0.5 108:0.5 196:0.5 302:0.5 #
0.33333333362478673178586063841067 69:0.5 84:0.5 219:0.5 252:0.5 #
0.33333333362478673178586063841067 69:0.5 106:0.5 219:0.5 251:0.5 #
0.33333333362478673178586063841067 59:0.5 94:0.5 217:0.5 250:0.5 #
-0.33333333362478673178586063841067 69:0.5 95:0.5 219:0.5 251:0.5 #
-0.33333333362478673178586063841067 14:0.5 106:0.5 219:0.5 251:0.5 #
-0.33333333362478673178586063841067 67:0.5 106:0.5 219:0.5 251:0.5 #
0.33333333362478673178586063841067 59:0.57735026 94:0.57735026 217:0.57735026 #
0.33333333362478673178586063841067 59:0.5 94:0.5 194:0.5 243:0.5 #
-0.33333333362478673178586063841067 59:0.5 90:0.5 194:0.5 243:0.5 #
0.33333333362478673178586063841067 67:0.5 108:0.5 219:0.5 251:0.5 #
-0.33333333362478673178586063841067 59:0.5 94:0.5 217:0.5 252:0.5 #
-0.010001509269019534520417380463186 59:0.5 150:0.5 220:0.5 252:0.5 #
0.33333333362478673178586063841067 67:0.5 106:0.5 219:0.5 251:0.5 #
0.33333333362478673178586063841067 14:0.5 106:0.5 219:0.5 251:0.5 #
0.33333333362478673178586063841067 60:0.5 95:0.5 219:0.5 251:0.5 #
0.33333333362478673178586063841067 59:0.5 94:0.5 182:0.5 252:0.5 #
0.33333333362478673178586063841067 59:0.5 94:0.5 220:0.5 243:0.5 #
-0.33333333362478673178586063841067 15:0.5 106:0.5 219:0.5 251:0.5 #
-0.33333333362478673178586063841067 13:0.5 106:0.5 219:0.5 251:0.5 #
-0.33333333362478673178586063841067 47:0.5 106:0.5 219:0.5 251:0.5 #
0.33333333362478673178586063841067 59:0.5 115:0.5 214:0.5 243:0.5 #
-0.032731917115806079265905026431938 59:0.5 126:0.5 228:0.5 261:0.5 #
0.33333333362478673178586063841067 59:0.5 107:0.5 216:0.5 303:0.5 #
-0.33333333362478673178586063841067 59:0.5 108:0.5 213:0.5 243:0.5 #
-0.33333333362478673178586063841067 59:0.5 107:0.5 214:0.5 303:0.5 #
-0.33333333362478673178586063841067 59:0.5 93:0.5 193:0.5 243:0.5 #
0.33333333362478673178586063841067 13:0.5 106:0.5 219:0.5 251:0.5 #
0.33333333362478673178586063841067 70:0.5 106:0.5 219:0.5 251:0.5 #
0.20044533279143514348241694733588 68:0.5 108:0.5 219:0.5 251:0.5 #
-0.33333333362478673178586063841067 55:0.5 106:0.5 219:0.5 251:0.5 #
-0.33333333362478673178586063841067 53:0.5 106:0.5 219:0.5 251:0.5 #
-0.33333333362478673178586063841067 67:0.5 127:0.5 219:0.5 251:0.5 #
0.33333333362478673178586063841067 59:0.5 107:0.5 213:0.5 243:0.5 #
-0.33333333362478673178586063841067 59:0.5 84:0.5 219:0.5 250:0.5 #
-0.33333333362478673178586063841067 59:0.5 125:0.5 219:0.5 250:0.5 #
0.33333333362478673178586063841067 59:0.5 127:0.5 215:0.5 303:0.5 #
0.33333333362478673178586063841067 59:0.5 151:0.5 194:0.5 251:0.5 #
0.33333333362478673178586063841067 64:0.5 128:0.5 194:0.5 303:0.5 #
-0.33333333362478673178586063841067 4:0.5 144:0.5 213:0.5 304:0.5 #
-0.33333333362478673178586063841067 59:0.5 107:0.5 213:0.5 242:0.5 #
0.33333333362478673178586063841067 59:0.5 91:0.5 219:0.5 250:0.5 #
0.33333333362478673178586063841067 59:0.5 92:0.5 219:0.5 250:0.5 #
-0.33333333362478673178586063841067 59:0.5 125:0.5 219:0.5 250:0.5 #
-0.15081869129334588008894968425011 72:0.5 94:0.5 219:0.5 250:0.5 #
-0.18299106049466237755574127277214 59:0.5 89:0.5 171:0.5 298:0.5 #
0.3328136078637756178899564929452 30:0.5 125:0.5 213:0.5 304:0.5 #
0.33333333362478673178586063841067 57:0.5 146:0.5 213:0.5 264:0.5 #
0.33333333362478673178586063841067 59:0.5 91:0.5 219:0.5 250:0.5 #
0.33333333362478673178586063841067 59:0.5 93:0.5 219:0.5 250:0.5 #
-0.33333333362478673178586063841067 57:0.57735026 125:0.57735026 213:0.57735026 #
0.33333333362478673178586063841067 59:0.5 81:0.5 175:0.5 298:0.5 #
-0.19622861972266758545657694412512 45:0.5 84:0.5 185:0.5 286:0.5 #
0.33333333362478673178586063841067 59:0.5 92:0.5 219:0.5 250:0.5 #
0.33333333362478673178586063841067 59:0.5 96:0.5 219:0.5 250:0.5 #
-0.33333333362478673178586063841067 59:0.5 93:0.5 219:0.5 250:0.5 #
-0.33333333362478673178586063841067 59:0.5 96:0.5 219:0.5 250:0.5 #
-0.33333333362478673178586063841067 59:0.5 146:0.5 219:0.5 250:0.5 #
0.33333333362478673178586063841067 57:0.5 90:0.5 221:0.5 303:0.5 #
0.33333333362478673178586063841067 57:0.5 142:0.5 175:0.5 262:0.5 #
0.33333333362478673178586063841067 57:0.5 90:0.5 170:0.5 275:0.5 #
-0.33333333362478673178586063841067 57:0.5 90:0.5 170:0.5 299:0.5 #
-0.33333333362478673178586063841067 57:0.5 107:0.5 170:0.5 263:0.5 #
0.33333333362478673178586063841067 59:0.5 93:0.5 218:0.5 250:0.5 #
0.33333333362478673178586063841067 59:0.5 107:0.5 213:0.5 263:0.5 #
-0.025024709546132294785136807035997 59:0.5 126:0.5 228:0.5 261:0.5 #
-0.30601520514274876960669757863798 59:0.5 152:0.5 220:0.5 251:0.5 #
-0.33333333362478673178586063841067 59:0.5 115:0.5 218:0.5 243:0.5 #
0.33333333362478673178586063841067 69:0.5 125:0.5 170:0.5 263:0.5 #
0.33333333362478673178586063841067 33:0.5 144:0.5 170:0.5 304:0.5 #
0.33333333362478673178586063841067 59:0.5 89:0.5 218:0.5 242:0.5 #
-0.13147637164633399486923792665038 69:0.5 126:0.5 170:0.5 263:0.5 #
-0.087925734225851009950858383490413 69:0.5 128:0.5 170:0.5 263:0.5 #
-0.33333333362478673178586063841067 69:0.5 125:0.5 225:0.5 263:0.5 #
0.33333333362478673178586063841067 59:0.5 141:0.5 214:0.5 262:0.5 #
0.33333333362478673178586063841067 59:0.5 146:0.5 213:0.5 242:0.5 #
-0.33333333362478673178586063841067 59:0.5 107:0.5 213:0.5 242:0.5 #
-0.33333333362478673178586063841067 59:0.5 146:0.5 213:0.5 264:0.5 #
-0.33333333362478673178586063841067 59:0.5 141:0.5 219:0.5 250:0.5 #
-0.33333333362478673178586063841067 59:0.5 146:0.5 224:0.5 294:0.5 #
0.33333333362478673178586063841067 69:0.5 84:0.5 170:0.5 263:0.5 #
0.33333333362478673178586063841067 69:0.5 125:0.5 228:0.5 263:0.5 #
0.33333333362478673178586063841067 14:0.5 106:0.5 222:0.5 263:0.5 #
0.33333333362478673178586063841067 59:0.5 107:0.5 213:0.5 243:0.5 #
-0.33333333362478673178586063841067 14:0.5 82:0.5 228:0.5 263:0.5 #
-0.33333333362478673178586063841067 14:0.5 127:0.5 228:0.5 263:0.5 #
-0.33333333362478673178586063841067 72:0.5 125:0.5 228:0.5 263:0.5 #
0.33333333362478673178586063841067 59:0.5 146:0.5 224:0.5 302:0.5 #
0.33333333362478673178586063841067 59:0.5 107:0.5 215:0.5 302:0.5 #
0.28042598949262154128803103958489 45:0.5 152:0.5 219:0.5 251:0.5 #
-0.33333333362478673178586063841067 59:0.5 107:0.5 213:0.5 262:0.5 #
-0.33333333362478673178586063841067 59:0.5 91:0.5 170:0.5 299:0.5 #
-0.33333333362478673178586063841067 59:0.5 107:0.5 216:0.5 243:0.5 #
0.33333333362478673178586063841067 14:0.5 125:0.5 228:0.5 263:0.5 #
0.33333333362478673178586063841067 14:0.5 84:0.5 228:0.5 263:0.5 #
0.33333333362478673178586063841067 14:0.5 105:0.5 228:0.5 263:0.5 #
-0.33333333362478673178586063841067 14:0.5 125:0.5 226:0.5 263:0.5 #
-0.33333333362478673178586063841067 58:0.5 125:0.5 228:0.5 263:0.5 #
-0.1486462252543394035875223835319 14:0.5 128:0.5 228:0.5 263:0.5 #
0.33333333362478673178586063841067 59:0.57735026 107:0.57735026 216:0.57735026 #
0.33333333362478673178586063841067 59:0.5 82:0.5 227:0.5 243:0.5 #
-0.33333333362478673178586063841067 59:0.5 107:0.5 216:0.5 243:0.5 #
-0.26570889685139809088809670356568 59:0.5 91:0.5 196:0.5 243:0.5 #
-0.33333333362478673178586063841067 59:0.5 107:0.5 216:0.5 303:0.5 #
0.16138498590087996253927826728614 14:0.5 125:0.5 213:0.5 263:0.5 #
0.055752563682465255956444138973893 4:0.5 107:0.5 188:0.5 268:0.5 #
0.33333333362478673178586063841067 65:0.5 125:0.5 205:0.5 263:0.5 #
-0.33333333362478673178586063841067 63:0.5 105:0.5 213:0.5 263:0.5 #
-0.33333333362478673178586063841067 14:0.5 84:0.5 227:0.5 263:0.5 #
-0.33333333362478673178586063841067 69:0.5 125:0.5 171:0.5 263:0.5 #
0.33333333362478673178586063841067 59:0.5 107:0.5 214:0.5 303:0.5 #
-0.33333333362478673178586063841067 14:0.5 84:0.5 221:0.5 275:0.5 #
-0.33333333362478673178586063841067 46:0.5 84:0.5 186:0.5 288:0.5 #
-0.043732238488299976508777433537034 59:0.5 114:0.5 176:0.5 304:0.5 #
0.33333333362478673178586063841067 58:0.5 101:0.5 182:0.5 243:0.5 #
0.33333333362478673178586063841067 58:0.5 136:0.5 223:0.5 264:0.5 #
0.33333333362478673178586063841067 54:0.5 91:0.5 191:0.5 243:0.5 #
-0.33333333362478673178586063841067 65:0.5 101:0.5 228:0.5 267:0.5 #
-0.33333333362478673178586063841067 70:0.5 125:0.5 170:0.5 264:0.5 #
-0.33333333362478673178586063841067 59:0.5 107:0.5 213:0.5 264:0.5 #
0.33333333362478673178586063841067 14:0.5 146:0.5 219:0.5 251:0.5 #
0.33333333362478673178586063841067 14:0.5 107:0.5 216:0.5 299:0.5 #
0.33333333362478673178586063841067 14:0.5 84:0.5 219:0.5 251:0.5 #
0.33333333362478673178586063841067 57:0.5 146:0.5 213:0.5 264:0.5 #
-0.33333333362478673178586063841067 14:0.5 105:0.5 219:0.5 251:0.5 #
-0.33333333362478673178586063841067 58:0.5 151:0.5 219:0.5 251:0.5 #
-0.33333333362478673178586063841067 14:0.5 108:0.5 219:0.5 251:0.5 #
0.33333333362478673178586063841067 59:0.5 125:0.5 228:0.5 264:0.5 #
0.33333333362478673178586063841067 59:0.5 82:0.5 213:0.5 264:0.5 #
-0.33333333362478673178586063841067 59:0.5 146:0.5 213:0.5 261:0.5 #
-0.33333333362478673178586063841067 59:0.5 90:0.5 213:0.5 264:0.5 #
-0.16054734338025650197678828590142 45:0.5 148:0.5 187:0.5 307:0.5 #
0.17133979697657394924981133499386 67:0.5 105:0.5 219:0.5 251:0.5 #
0.33333333362478673178586063841067 59:0.5 96:0.5 219:0.5 250:0.5 #
-0.33333333362478673178586063841067 59:0.5 145:0.5 223:0.5 294:0.5 #
-0.056668671023857579427396302662601 58:0.5 146:0.5 223:0.5 294:0.5 #
0.33333333362478673178586063841067 59:0.5 144:0.5 225:0.5 263:0.5 #
0.33333333362478673178586063841067 14:0.5 108:0.5 214:0.5 267:0.5 #
-0.014743481387545191371724051521142 60:0.5 94:0.5 194:0.5 243:0.5 #
-0.33333333362478673178586063841067 57:0.5 96:0.5 205:0.5 263:0.5 #
-0.33333333362478673178586063841067 59:0.5 94:0.5 205:0.5 263:0.5 #
0.010198488144896404247741195092658 59:0.5 146:0.5 188:0.5 308:0.5 #
0.23077082154531097790695071125811 59:0.5 146:0.5 185:0.5 294:0.5 #
0.33333333362478673178586063841067 59:0.5 146:0.5 187:0.5 294:0.5 #
-0.33333333362478673178586063841067 59:0.5 146:0.5 224:0.5 294:0.5 #
-0.33333333362478673178586063841067 59:0.5 146:0.5 194:0.5 251:0.5 #
-0.33333333362478673178586063841067 60:0.5 146:0.5 222:0.5 294:0.5 #
0.33333333362478673178586063841067 45:0.5 81:0.5 205:0.5 263:0.5 #
0.33333333362478673178586063841067 46:0.5 133:0.5 205:0.5 275:0.5 #
0.33333333362478673178586063841067 58:0.5 94:0.5 219:0.5 251:0.5 #
0.2580383214558475968303241643298 59:0.5 141:0.5 219:0.5 243:0.5 #
-0.048787676901500189041716026849826 60:0.5 94:0.5 219:0.5 250:0.5 #
-0.023795327579723843380854475526576 13:0.5 142:0.5 227:0.5 286:0.5 #
0.33333333362478673178586063841067 59:0.5 146:0.5 224:0.5 295:0.5 #
-0.33333333362478673178586063841067 61:0.5 142:0.5 214:0.5 243:0.5 #
-0.33333333362478673178586063841067 3:0.5 105:0.5 214:0.5 243:0.5 #
-0.33333333362478673178586063841067 59:0.5 113:0.5 175:0.5 303:0.5 #
0.33333333362478673178586063841067 60:0.5 118:0.5 225:0.5 287:0.5 #
0.33333333362478673178586063841067 68:0.5 127:0.5 227:0.5 311:0.5 #
0.33333333362478673178586063841067 12:0.5 143:0.5 176:0.5 286:0.5 #
0.33333333362478673178586063841067 59:0.5 141:0.5 214:0.5 262:0.5 #
-0.33333333362478673178586063841067 68:0.5 101:0.5 225:0.5 267:0.5 #
-0.28044878067736350724103999709769 54:0.5 106:0.5 219:0.5 252:0.5 #
-0.33333333362478673178586063841067 60:0.5 91:0.5 219:0.5 290:0.5 #
0.33333333362478673178586063841067 59:0.5 142:0.5 213:0.5 243:0.5 #
0.33333333362478673178586063841067 63:0.5 142:0.5 213:0.5 243:0.5 #
-0.33333333362478673178586063841067 59:0.5 142:0.5 213:0.5 301:0.5 #
-0.33333333362478673178586063841067 59:0.5 142:0.5 213:0.5 302:0.5 #
-0.33333333362478673178586063841067 59:0.5 142:0.5 213:0.5 303:0.5 #
0.33333333362478673178586063841067 60:0.5 113:0.5 219:0.5 251:0.5 #
0.33333333362478673178586063841067 1:0.5 101:0.5 219:0.5 251:0.5 #
-0.023861241731604389965104573434473 58:0.5 115:0.5 219:0.5 242:0.5 #
-0.15217633896031088069911163529468 15:0.5 105:0.5 224:0.5 274:0.5 #
-0.33333333362478673178586063841067 30:0.5 128:0.5 219:0.5 251:0.5 #
-0.33333333362478673178586063841067 30:0.5 127:0.5 219:0.5 251:0.5 #
-0.33333333362478673178586063841067 14:0.5 113:0.5 219:0.5 251:0.5 #
0.33333333362478673178586063841067 59:0.5 104:0.5 213:0.5 303:0.5 #
0.33333333362478673178586063841067 59:0.5 142:0.5 213:0.5 242:0.5 #
0.22391124384704078065233545657975 67:0.5 105:0.5 219:0.5 251:0.5 #
-0.33333333362478673178586063841067 59:0.5 141:0.5 213:0.5 303:0.5 #
-0.33333333362478673178586063841067 59:0.57735026 82:0.57735026 170:0.57735026 #
-0.33333333362478673178586063841067 59:0.5 82:0.5 170:0.5 262:0.5 #
0.33333333362478673178586063841067 14:0.5 115:0.5 219:0.5 251:0.5 #
0.33333333362478673178586063841067 14:0.5 125:0.5 219:0.5 251:0.5 #
0.33333333362478673178586063841067 53:0.5 125:0.5 219:0.5 251:0.5 #
-0.33333333362478673178586063841067 58:0.5 115:0.5 219:0.5 251:0.5 #
0.33333333362478673178586063841067 59:0.5 82:0.5 170:0.5 303:0.5 #
-0.33333333362478673178586063841067 14:0.5 81:0.5 219:0.5 251:0.5 #
0.33333333362478673178586063841067 59:0.5 126:0.5 170:0.5 241:0.5 #
0.33333333362478673178586063841067 59:0.5 138:0.5 170:0.5 302:0.5 #
-0.33333333362478673178586063841067 14:0.5 83:0.5 219:0.5 251:0.5 #
-0.33333333362478673178586063841067 2:0.5 147:0.5 219:0.5 251:0.5 #
0.33333333362478673178586063841067 59:0.5 90:0.5 193:0.5 302:0.5 #
0.33333333362478673178586063841067 59:0.5 126:0.5 171:0.5 302:0.5 #
-0.33333333362478673178586063841067 59:0.5 90:0.5 170:0.5 297:0.5 #
-0.33333333362478673178586063841067 59:0.5 90:0.5 170:0.5 298:0.5 #
-0.33333333362478673178586063841067 59:0.5 90:0.5 170:0.5 300:0.5 #
0.33333333362478673178586063841067 2:0.5 106:0.5 219:0.5 251:0.5 #
0.33333333362478673178586063841067 2:0.5 146:0.5 219:0.5 251:0.5 #
0.33333333362478673178586063841067 47:0.5 152:0.5 219:0.5 251:0.5 #
-0.33333333362478673178586063841067 47:0.5 146:0.5 219:0.5 251:0.5 #
-0.33333333362478673178586063841067 2:0.5 148:0.5 219:0.5 251:0.5 #
-0.33333333362478673178586063841067 11:0.5 146:0.5 219:0.5 251:0.5 #
0.33333333362478673178586063841067 59:0.5 90:0.5 170:0.5 297:0.5 #
0.33333333362478673178586063841067 59:0.57735026 90:0.57735026 170:0.57735026 #
0.33333333362478673178586063841067 59:0.5 90:0.5 170:0.5 263:0.5 #
-0.33333333362478673178586063841067 59:0.5 125:0.5 169:0.5 263:0.5 #
-0.33333333362478673178586063841067 59:0.5 125:0.5 206:0.5 263:0.5 #
0.21134707168885791261914164351765 23:0.5 148:0.5 219:0.5 251:0.5 #
0.10411199584135918949634458385844 24:0.5 148:0.5 219:0.5 251:0.5 #
0.21113537860615097518923732877738 21:0.5 148:0.5 219:0.5 251:0.5 #
-0.33333333362478673178586063841067 67:0.5 107:0.5 218:0.5 251:0.5 #
-0.33333333362478673178586063841067 14:0.5 148:0.5 219:0.5 251:0.5 #
-0.33333333362478673178586063841067 60:0.5 90:0.5 195:0.5 241:0.5 #
-0.33333333362478673178586063841067 34:0.5 95:0.5 219:0.5 251:0.5 #
0.33333333362478673178586063841067 59:0.5 125:0.5 206:0.5 263:0.5 #
0.33333333362478673178586063841067 59:0.5 125:0.5 223:0.5 263:0.5 #
0.33333333362478673178586063841067 59:0.5 125:0.5 216:0.5 303:0.5 #
0.33333333362478673178586063841067 67:0.5 107:0.5 217:0.5 251:0.5 #
-0.33333333362478673178586063841067 59:0.5 125:0.5 225:0.5 263:0.5 #
-0.33333333362478673178586063841067 59:0.5 125:0.5 214:0.5 302:0.5 #
0.33333333362478673178586063841067 14:0.5 107:0.5 219:0.5 251:0.5 #
-0.00051387323216232157121335921701188 60:0.5 93:0.5 208:0.5 263:0.5 #
-0.33333333362478673178586063841067 53:0.5 107:0.5 217:0.5 251:0.5 #
-0.33333333362478673178586063841067 14:0.5 107:0.5 217:0.5 251:0.5 #
-0.33333333362478673178586063841067 45:0.5 108:0.5 219:0.5 251:0.5 #
0.33333333362478673178586063841067 59:0.5 125:0.5 214:0.5 302:0.5 #
0.33333333362478673178586063841067 59:0.5 90:0.5 225:0.5 298:0.5 #
0.33333333362478673178586063841067 59:0.5 94:0.5 195:0.5 262:0.5 #
0.33333333362478673178586063841067 53:0.5 104:0.5 213:0.5 305:0.5 #
-0.11036967172558304062235379205958 59:0.5 150:0.5 220:0.5 250:0.5 #
-0.33333333362478673178586063841067 59:0.5 125:0.5 214:0.5 302:0.5 #
-0.33333333362478673178586063841067 59:0.5 94:0.5 182:0.5 298:0.5 #
-0.33333333362478673178586063841067 59:0.5 90:0.5 223:0.5 242:0.5 #
-0.33333333362478673178586063841067 59:0.5 90:0.5 223:0.5 304:0.5 #
0.33333333362478673178586063841067 45:0.5 145:0.5 219:0.5 251:0.5 #
0.33333333362478673178586063841067 47:0.5 150:0.5 219:0.5 251:0.5 #
-0.066281049563525581969081201805238 57:0.5 92:0.5 228:0.5 279:0.5 #
-0.33333333362478673178586063841067 2:0.5 145:0.5 219:0.5 251:0.5 #
-0.33333333362478673178586063841067 71:0.5 94:0.5 219:0.5 251:0.5 #
-0.33333333362478673178586063841067 14:0.5 145:0.5 219:0.5 251:0.5 #
0.33333333362478673178586063841067 59:0.5 90:0.5 217:0.5 290:0.5 #
0.33333333362478673178586063841067 59:0.57735026 95:0.57735026 217:0.57735026 #
0.33333333362478673178586063841067 59:0.5 91:0.5 215:0.5 304:0.5 #
-0.33333333362478673178586063841067 59:0.5 90:0.5 170:0.5 297:0.5 #
0.21227986902123952006604667985812 71:0.5 107:0.5 219:0.5 265:0.5 #
-0.33333333362478673178586063841067 59:0.5 90:0.5 215:0.5 304:0.5 #
0.11324419144587655194911235412292 59:0.5 128:0.5 219:0.5 307:0.5 #
-0.33333333362478673178586063841067 59:0.5 144:0.5 215:0.5 303:0.5 #
0.28995606859192635251787351080566 71:0.5 84:0.5 219:0.5 251:0.5 #
0.33333333362478673178586063841067 35:0.5 108:0.5 219:0.5 251:0.5 #
-0.0446167920830039671509226195667 35:0.5 95:0.5 219:0.5 249:0.5 #
-0.33333333362478673178586063841067 13:0.5 108:0.5 219:0.5 251:0.5 #
0.050287298214132206131132818427432 65:0.5 126:0.5 200:0.5 267:0.5 #
0.33333333362478673178586063841067 59:0.5 89:0.5 215:0.5 303:0.5 #
0.33333333362478673178586063841067 59:0.5 92:0.5 215:0.5 303:0.5 #
0.33333333362478673178586063841067 59:0.5 90:0.5 215:0.5 303:0.5 #
-0.24042925260622061145454608777072 4:0.5 144:0.5 216:0.5 301:0.5 #
-0.069378637306108631443990475418104 62:0.5 142:0.5 215:0.5 242:0.5 #
0.33333333362478673178586063841067 2:0.5 147:0.5 175:0.5 299:0.5 #
0.33333333362478673178586063841067 2:0.5 147:0.5 224:0.5 299:0.5 #
0.33333333362478673178586063841067 14:0.5 113:0.5 224:0.5 319:0.5 #
-0.33333333362478673178586063841067 59:0.5 94:0.5 217:0.5 252:0.5 #
-0.020609228070604626581463492129842 59:0.5 106:0.5 171:0.5 263:0.5 #
-0.33333333362478673178586063841067 45:0.5 84:0.5 188:0.5 285:0.5 #
0.33333333362478673178586063841067 58:0.5 106:0.5 214:0.5 303:0.5 #
0.33333333362478673178586063841067 3:0.5 82:0.5 215:0.5 306:0.5 #
-0.33333333362478673178586063841067 16:0.5 82:0.5 224:0.5 275:0.5 #
0.23402800514271313025993492829002 59:0.5 144:0.5 173:0.5 303:0.5 #
-0.10416341038167090116139945621399 65:0.5 104:0.5 227:0.5 266:0.5 #
0.33333333362478673178586063841067 59:0.5 94:0.5 228:0.5 261:0.5 #
0.33333333362478673178586063841067 59:0.5 126:0.5 169:0.5 302:0.5 #
0.044516879747854495863457202631253 59:0.5 106:0.5 232:0.5 267:0.5 #
-0.33333333362478673178586063841067 59:0.5 94:0.5 228:0.5 264:0.5 #
0.33333333362478673178586063841067 54:0.5 92:0.5 162:0.5 252:0.5 #
0.33333333362478673178586063841067 14:0.5 81:0.5 222:0.5 275:0.5 #
0.33333333362478673178586063841067 59:0.5 125:0.5 213:0.5 264:0.5 #
0.33333333362478673178586063841067 59:0.5 146:0.5 228:0.5 265:0.5 #
-0.33333333362478673178586063841067 14:0.5 107:0.5 219:0.5 252:0.5 #
-0.33333333362478673178586063841067 54:0.5 107:0.5 219:0.5 252:0.5 #
-0.33333333362478673178586063841067 14:0.5 106:0.5 221:0.5 275:0.5 #
0.33333333362478673178586063841067 59:0.5 94:0.5 228:0.5 264:0.5 #
0.33333333362478673178586063841067 59:0.5 142:0.5 228:0.5 264:0.5 #
0.33333333362478673178586063841067 59:0.5 107:0.5 228:0.5 264:0.5 #
0.22177553887300988089137376846338 46:0.5 150:0.5 219:0.5 251:0.5 #
-0.33333333362478673178586063841067 59:0.5 90:0.5 228:0.5 264:0.5 #
-0.33333333362478673178586063841067 59:0.5 94:0.5 228:0.5 264:0.5 #
-0.22826114087221111015324481741118 59:0.5 143:0.5 228:0.5 264:0.5 #
0.33333333362478673178586063841067 14:0.5 106:0.5 221:0.5 263:0.5 #
0.33333333362478673178586063841067 13:0.5 134:0.5 219:0.5 262:0.5 #
0.33333333362478673178586063841067 63:0.5 118:0.5 219:0.5 252:0.5 #
-0.33333333362478673178586063841067 63:0.5 106:0.5 213:0.5 263:0.5 #
-0.0900582551800552244536390844587 3:0.5 147:0.5 222:0.5 299:0.5 #
-0.078645852294797632953127219934686 60:0.5 146:0.5 222:0.5 294:0.5 #
0.33333333362478673178586063841067 59:0.5 134:0.5 223:0.5 264:0.5 #
-0.33333333362478673178586063841067 59:0.5 92:0.5 219:0.5 291:0.5 #
-0.33333333362478673178586063841067 59:0.5 150:0.5 219:0.5 252:0.5 #
-0.33333333362478673178586063841067 59:0.5 146:0.5 227:0.5 295:0.5 #
0.33333333362478673178586063841067 57:0.5 90:0.5 171:0.5 298:0.5 #
0.33333333362478673178586063841067 60:0.5 90:0.5 213:0.5 267:0.5 #
-0.21136777102845952236442883531709 59:0.5 146:0.5 220:0.5 250:0.5 #
-0.33333333362478673178586063841067 57:0.5 90:0.5 170:0.5 299:0.5 #
0.33333333362478673178586063841067 59:0.5 94:0.5 219:0.5 250:0.5 #
0.33333333362478673178586063841067 59:0.5 95:0.5 219:0.5 251:0.5 #
-0.22536050120990877565496646184329 57:0.5 90:0.5 171:0.5 298:0.5 #
-0.0034762088661793619052964299243058 59:0.5 81:0.5 169:0.5 263:0.5 #
-0.033491437333330910386397505362766 59:0.5 89:0.5 195:0.5 242:0.5 #
0.33333333362478673178586063841067 59:0.5 115:0.5 219:0.5 252:0.5 #
0.33333333362478673178586063841067 59:0.5 92:0.5 219:0.5 291:0.5 #
0.33333333362478673178586063841067 59:0.5 94:0.5 219:0.5 252:0.5 #
-0.33333333362478673178586063841067 58:0.5 115:0.5 219:0.5 251:0.5 #
-0.33333333362478673178586063841067 59:0.5 142:0.5 219:0.5 252:0.5 #
-0.33333333362478673178586063841067 59:0.5 152:0.5 219:0.5 250:0.5 #
-0.33333333362478673178586063841067 59:0.5 115:0.5 176:0.5 303:0.5 #
0.33333333362478673178586063841067 57:0.5 90:0.5 170:0.5 273:0.5 #
0.33333333362478673178586063841067 57:0.5 90:0.5 170:0.5 276:0.5 #
0.33333333362478673178586063841067 57:0.5 90:0.5 228:0.5 279:0.5 #
0.33333333362478673178586063841067 59:0.5 107:0.5 216:0.5 303:0.5 #
-0.17045943966321283613574166793114 59:0.5 106:0.5 169:0.5 263:0.5 #
-0.33333333362478673178586063841067 57:0.5 90:0.5 170:0.5 298:0.5 #
-0.33333333362478673178586063841067 60:0.5 90:0.5 170:0.5 299:0.5 #
0.33333333362478673178586063841067 59:0.5 115:0.5 227:0.5 251:0.5 #
0.33333333362478673178586063841067 59:0.5 115:0.5 214:0.5 303:0.5 #
-0.33333333362478673178586063841067 59:0.5 115:0.5 228:0.5 251:0.5 #
-0.33333333362478673178586063841067 59:0.5 115:0.5 173:0.5 303:0.5 #
-0.33333333362478673178586063841067 59:0.5 115:0.5 176:0.5 303:0.5 #
0.33333333362478673178586063841067 54:0.5 90:0.5 225:0.5 299:0.5 #
0.33333333362478673178586063841067 57:0.5 90:0.5 224:0.5 275:0.5 #
0.33333333362478673178586063841067 27:0.5 90:0.5 207:0.5 298:0.5 #
0.33333333362478673178586063841067 59:0.5 115:0.5 227:0.5 251:0.5 #
0.33333333362478673178586063841067 59:0.5 115:0.5 219:0.5 251:0.5 #
-0.17308664951603311421557407356886 57:0.5 90:0.5 224:0.5 243:0.5 #
-0.33333333362478673178586063841067 14:0.5 107:0.5 221:0.5 276:0.5 #
0.33333333362478673178586063841067 59:0.5 115:0.5 226:0.5 263:0.5 #
0.33333333362478673178586063841067 59:0.5 115:0.5 228:0.5 251:0.5 #
-0.33333333362478673178586063841067 59:0.5 127:0.5 216:0.5 303:0.5 #
-0.33333333362478673178586063841067 59:0.5 105:0.5 217:0.5 251:0.5 #
0.045122412711648372807271556439446 59:0.5 125:0.5 206:0.5 302:0.5 #
0.33333333362478673178586063841067 58:0.5 90:0.5 219:0.5 243:0.5 #
0.33333333362478673178586063841067 14:0.5 114:0.5 184:0.5 303:0.5 #
-0.33333333362478673178586063841067 14:0.5 125:0.5 227:0.5 263:0.5 #
-0.33333333362478673178586063841067 67:0.5 104:0.5 228:0.5 265:0.5 #
-0.33333333362478673178586063841067 14:0.5 125:0.5 225:0.5 263:0.5 #
0.33333333362478673178586063841067 59:0.5 146:0.5 221:0.5 304:0.5 #
0.33333333362478673178586063841067 59:0.5 146:0.5 221:0.5 302:0.5 #
0.33333333362478673178586063841067 59:0.5 82:0.5 170:0.5 297:0.5 #
-0.33333333362478673178586063841067 59:0.5 90:0.5 221:0.5 302:0.5 #
-0.33333333362478673178586063841067 59:0.5 90:0.5 216:0.5 302:0.5 #
-0.33333333362478673178586063841067 59:0.5 90:0.5 221:0.5 304:0.5 #
0.33333333362478673178586063841067 14:0.5 126:0.5 222:0.5 299:0.5 #
0.33333333362478673178586063841067 14:0.5 108:0.5 224:0.5 263:0.5 #
0.33333333362478673178586063841067 14:0.5 106:0.5 223:0.5 263:0.5 #
-0.33333333362478673178586063841067 14:0.5 108:0.5 213:0.5 263:0.5 #
-0.33333333362478673178586063841067 14:0.5 108:0.5 222:0.5 275:0.5 #
-0.31599918999235143690640370550682 59:0.5 89:0.5 228:0.5 277:0.5 #
0.33333333362478673178586063841067 59:0.5 90:0.5 171:0.5 298:0.5 #
0.33333333362478673178586063841067 59:0.5 90:0.5 217:0.5 302:0.5 #
0.33333333362478673178586063841067 59:0.5 90:0.5 220:0.5 302:0.5 #
0.09438923914615654497950458790001 3:0.5 107:0.5 194:0.5 304:0.5 #
-0.33333333362478673178586063841067 59:0.5 90:0.5 171:0.5 298:0.5 #
-0.33333333362478673178586063841067 59:0.5 90:0.5 224:0.5 302:0.5 #
-0.33333333362478673178586063841067 59:0.5 90:0.5 217:0.5 251:0.5 #
0.33333333362478673178586063841067 14:0.5 108:0.5 208:0.5 295:0.5 #
0.33333333362478673178586063841067 14:0.5 108:0.5 216:0.5 267:0.5 #
0.33333333362478673178586063841067 66:0.5 147:0.5 206:0.5 299:0.5 #
-0.33333333362478673178586063841067 14:0.5 146:0.5 216:0.5 303:0.5 #
0.33333333362478673178586063841067 59:0.57735026 90:0.57735026 213:0.57735026 #
0.33333333362478673178586063841067 59:0.5 115:0.5 228:0.5 251:0.5 #
0.33333333362478673178586063841067 59:0.5 90:0.5 218:0.5 293:0.5 #
-0.33333333362478673178586063841067 59:0.5 82:0.5 170:0.5 263:0.5 #
-0.33333333362478673178586063841067 59:0.5 93:0.5 213:0.5 263:0.5 #
0.33333333362478673178586063841067 59:0.5 145:0.5 195:0.5 251:0.5 #
0.33333333362478673178586063841067 28:0.5 95:0.5 228:0.5 302:0.5 #
0.33333333362478673178586063841067 45:0.5 145:0.5 188:0.5 307:0.5 #
0.33333333362478673178586063841067 59:0.5 144:0.5 225:0.5 263:0.5 #
-0.33333333362478673178586063841067 59:0.5 96:0.5 195:0.5 243:0.5 #
-0.33333333362478673178586063841067 14:0.5 142:0.5 228:0.5 267:0.5 #
-0.00080929438025650651984677086403508 1:0.5 148:0.5 222:0.5 298:0.5 #
0.33333333362478673178586063841067 59:0.5 84:0.5 170:0.5 263:0.5 #
-0.33333333362478673178586063841067 59:0.5 82:0.5 170:0.5 263:0.5 #
0.33333333362478673178586063841067 58:0.5 90:0.5 219:0.5 243:0.5 #
-0.013915724299319703546884419154139 59:0.5 126:0.5 206:0.5 263:0.5 #
-0.33333333362478673178586063841067 59:0.5 94:0.5 206:0.5 263:0.5 #
-0.33333333362478673178586063841067 59:0.5 90:0.5 225:0.5 280:0.5 #
0.33333333362478673178586063841067 57:0.5 96:0.5 219:0.5 252:0.5 #
0.33333333362478673178586063841067 59:0.5 146:0.5 173:0.5 243:0.5 #
0.33333333362478673178586063841067 59:0.5 90:0.5 171:0.5 274:0.5 #
-0.33333333362478673178586063841067 58:0.5 90:0.5 219:0.5 290:0.5 #
-0.33333333362478673178586063841067 54:0.5 125:0.5 219:0.5 252:0.5 #
-0.11170990115429213496156535256887 12:0.5 145:0.5 219:0.5 252:0.5 #
0.33333333362478673178586063841067 59:0.5 90:0.5 216:0.5 263:0.5 #
0.33333333362478673178586063841067 59:0.5 90:0.5 224:0.5 263:0.5 #
0.33333333362478673178586063841067 59:0.5 94:0.5 172:0.5 263:0.5 #
-0.33333333362478673178586063841067 59:0.5 107:0.5 172:0.5 263:0.5 #
0.027874561676327135745223628759959 36:0.5 90:0.5 205:0.5 307:0.5 #
0.33333333362478673178586063841067 59:0.5 125:0.5 219:0.5 252:0.5 #
0.33333333362478673178586063841067 58:0.5 96:0.5 219:0.5 252:0.5 #
-0.33333333362478673178586063841067 59:0.5 146:0.5 219:0.5 252:0.5 #
-0.33333333362478673178586063841067 59:0.5 94:0.5 219:0.5 249:0.5 #
0.33333333362478673178586063841067 15:0.5 107:0.5 213:0.5 263:0.5 #
0.33333333362478673178586063841067 16:0.5 107:0.5 213:0.5 263:0.5 #
-0.33333333362478673178586063841067 3:0.5 144:0.5 213:0.5 304:0.5 #
-0.33333333362478673178586063841067 13:0.5 107:0.5 213:0.5 264:0.5 #
-0.33333333362478673178586063841067 58:0.5 107:0.5 213:0.5 242:0.5 #
0.33333333362478673178586063841067 59:0.5 94:0.5 217:0.5 252:0.5 #
0.33333333362478673178586063841067 59:0.5 94:0.5 219:0.5 249:0.5 #
-0.33333333362478673178586063841067 59:0.5 94:0.5 207:0.5 263:0.5 #
-0.33333333362478673178586063841067 59:0.5 94:0.5 220:0.5 252:0.5 #
0.33333333362478673178586063841067 57:0.5 146:0.5 213:0.5 264:0.5 #
0.33333333362478673178586063841067 61:0.5 144:0.5 213:0.5 261:0.5 #
0.22161665439171848723809432613052 59:0.5 144:0.5 213:0.5 304:0.5 #
-0.33333333362478673178586063841067 59:0.5 90:0.5 213:0.5 302:0.5 #
-0.33333333362478673178586063841067 59:0.5 90:0.5 213:0.5 261:0.5 #
-0.33333333362478673178586063841067 59:0.5 144:0.5 219:0.5 250:0.5 #
0.33333333362478673178586063841067 4:0.5 135:0.5 220:0.5 262:0.5 #
0.33333333362478673178586063841067 51:0.5 142:0.5 227:0.5 294:0.5 #
0.33333333362478673178586063841067 59:0.5 126:0.5 172:0.5 303:0.5 #
-0.33333333362478673178586063841067 14:0.5 148:0.5 216:0.5 303:0.5 #
-0.1182202793732551465710756133376 48:0.5 81:0.5 188:0.5 286:0.5 #
-0.33333333362478673178586063841067 4:0.5 146:0.5 224:0.5 299:0.5 #
-0.33333333362478673178586063841067 63:0.5 142:0.5 216:0.5 243:0.5 #
0.33333333362478673178586063841067 59:0.5 90:0.5 207:0.5 302:0.5 #
0.33333333362478673178586063841067 59:0.5 93:0.5 219:0.5 252:0.5 #
0.33333333362478673178586063841067 59:0.5 90:0.5 170:0.5 299:0.5 #
-0.33333333362478673178586063841067 59:0.5 94:0.5 220:0.5 252:0.5 #
0.33333333362478673178586063841067 63:0.5 142:0.5 213:0.5 243:0.5 #
-0.33333333362478673178586063841067 59:0.5 84:0.5 170:0.5 262:0.5 #
-0.33333333362478673178586063841067 59:0.5 96:0.5 207:0.5 262:0.5 #
-0.33333333362478673178586063841067 59:0.5 90:0.5 172:0.5 299:0.5 #
0.33333333362478673178586063841067 14:0.5 142:0.5 228:0.5 287:0.5 #
0.33333333362478673178586063841067 65:0.5 104:0.5 228:0.5 267:0.5 #
0.33333333362478673178586063841067 65:0.5 144:0.5 213:0.5 261:0.5 #
0.33333333362478673178586063841067 59:0.5 84:0.5 170:0.5 263:0.5 #
-0.33333333362478673178586063841067 14:0.5 144:0.5 228:0.5 287:0.5 #
-0.33333333362478673178586063841067 65:0.5 102:0.5 228:0.5 267:0.5 #
-0.33333333362478673178586063841067 65:0.5 104:0.5 225:0.5 267:0.5 #
0.22040291823569876927813027123193 59:0.5 84:0.5 176:0.5 298:0.5 #
0.33333333362478673178586063841067 59:0.5 146:0.5 225:0.5 262:0.5 #
-0.019408671759337085133134692682688 58:0.5 107:0.5 215:0.5 304:0.5 #
0.33333333362478673178586063841067 54:0.5 92:0.5 162:0.5 252:0.5 #
-0.33333333362478673178586063841067 59:0.5 84:0.5 171:0.5 263:0.5 #
-0.33333333362478673178586063841067 59:0.5 126:0.5 213:0.5 263:0.5 #
-0.33333333362478673178586063841067 59:0.5 126:0.5 213:0.5 302:0.5 #
0.33333333362478673178586063841067 14:0.5 107:0.5 214:0.5 267:0.5 #
0.33333333362478673178586063841067 14:0.5 105:0.5 216:0.5 267:0.5 #
0.33333333362478673178586063841067 65:0.5 127:0.5 197:0.5 267:0.5 #
-0.33333333362478673178586063841067 14:0.5 142:0.5 214:0.5 267:0.5 #
-0.13957947927700731227673713874537 3:0.5 142:0.5 216:0.5 302:0.5 #
-0.33333333362478673178586063841067 14:0.5 105:0.5 223:0.5 274:0.5 #
0.33333333362478673178586063841067 59:0.5 126:0.5 171:0.5 304:0.5 #
0.33333333362478673178586063841067 59:0.5 126:0.5 186:0.5 301:0.5 #
-0.33333333362478673178586063841067 59:0.5 146:0.5 219:0.5 252:0.5 #
-0.06624884307770399771708724756536 47:0.5 146:0.5 186:0.5 305:0.5 #
-0.33333333362478673178586063841067 47:0.5 146:0.5 186:0.5 306:0.5 #
-0.33333333362478673178586063841067 48:0.5 146:0.5 188:0.5 305:0.5 #
0.33333333362478673178586063841067 59:0.5 142:0.5 215:0.5 262:0.5 #
0.33333333362478673178586063841067 59:0.5 142:0.5 223:0.5 266:0.5 #
0.31088355969519598787087488744874 59:0.5 84:0.5 174:0.5 298:0.5 #
-0.24738482044213544464028586844506 59:0.5 107:0.5 214:0.5 243:0.5 #
0.33333333362478673178586063841067 9:0.5 146:0.5 219:0.5 251:0.5 #
0.27814028237399085474734761191939 22:0.5 146:0.5 219:0.5 251:0.5 #
0.33333333362478673178586063841067 59:0.5 126:0.5 171:0.5 304:0.5 #
0.33333333362478673178586063841067 59:0.5 126:0.5 171:0.5 302:0.5 #
-0.33333333362478673178586063841067 15:0.5 146:0.5 219:0.5 251:0.5 #
-0.33333333362478673178586063841067 15:0.5 106:0.5 219:0.5 251:0.5 #
-0.15616310752509937609389112367353 45:0.5 145:0.5 186:0.5 307:0.5 #
0.33333333362478673178586063841067 59:0.5 94:0.5 183:0.5 252:0.5 #
0.33333333362478673178586063841067 59:0.5 94:0.5 181:0.5 252:0.5 #
0.33333333362478673178586063841067 59:0.5 126:0.5 213:0.5 306:0.5 #
-0.33333333362478673178586063841067 59:0.5 142:0.5 217:0.5 252:0.5 #
-0.33333333362478673178586063841067 59:0.5 142:0.5 215:0.5 304:0.5 #
0.33333333362478673178586063841067 45:0.5 106:0.5 219:0.5 251:0.5 #
0.33333333362478673178586063841067 46:0.5 106:0.5 219:0.5 251:0.5 #
0.27313227684046298415765363643004 4:0.5 106:0.5 219:0.5 251:0.5 #
0.33333333362478673178586063841067 59:0.5 142:0.5 215:0.5 262:0.5 #
-0.33333333362478673178586063841067 59:0.5 126:0.5 219:0.5 251:0.5 #
-0.33333333362478673178586063841067 31:0.5 126:0.5 219:0.5 251:0.5 #
0.33333333362478673178586063841067 59:0.5 142:0.5 225:0.5 263:0.5 #
0.33333333362478673178586063841067 59:0.5 142:0.5 221:0.5 262:0.5 #
-0.33333333362478673178586063841067 59:0.5 142:0.5 227:0.5 263:0.5 #
-0.33333333362478673178586063841067 59:0.5 142:0.5 215:0.5 302:0.5 #
-0.33333333362478673178586063841067 59:0.5 142:0.5 226:0.5 263:0.5 #
0.33333333362478673178586063841067 56:0.5 81:0.5 219:0.5 251:0.5 #
0.17810768912207064484931606784812 59:0.5 126:0.5 219:0.5 307:0.5 #
-0.33333333362478673178586063841067 56:0.5 125:0.5 219:0.5 252:0.5 #
-0.32702554510103332141568444058066 46:0.5 146:0.5 187:0.5 306:0.5 #
-0.33333333362478673178586063841067 56:0.5 105:0.5 219:0.5 252:0.5 #
0.33333333362478673178586063841067 59:0.5 142:0.5 227:0.5 302:0.5 #
0.33333333362478673178586063841067 59:0.5 142:0.5 172:0.5 302:0.5 #
0.33333333362478673178586063841067 59:0.5 143:0.5 228:0.5 263:0.5 #
0.33333333362478673178586063841067 58:0.5 96:0.5 219:0.5 252:0.5 #
-0.33333333362478673178586063841067 59:0.5 92:0.5 228:0.5 263:0.5 #
-0.079805113342674802168197345508815 59:0.5 92:0.5 228:0.5 277:0.5 #
-0.33333333362478673178586063841067 59:0.5 94:0.5 228:0.5 262:0.5 #
0.33333333362478673178586063841067 14:0.5 105:0.5 206:0.5 287:0.5 #
0.33333333362478673178586063841067 26:0.5 89:0.5 187:0.5 271:0.5 #
0.33333333362478673178586063841067 70:0.5 155:0.5 170:0.5 299:0.5 #
-0.33333333362478673178586063841067 45:0.5 81:0.5 188:0.5 287:0.5 #
-0.33333333362478673178586063841067 58:0.5 96:0.5 184:0.5 298:0.5 #
-0.33333333362478673178586063841067 58:0.5 143:0.5 219:0.5 251:0.5 #
0.33333333362478673178586063841067 59:0.5 94:0.5 228:0.5 263:0.5 #
0.33333333362478673178586063841067 59:0.5 83:0.5 228:0.5 263:0.5 #
0.33333333362478673178586063841067 3:0.5 82:0.5 215:0.5 306:0.5 #
-0.33333333362478673178586063841067 59:0.5 83:0.5 170:0.5 263:0.5 #
-0.33333333362478673178586063841067 59:0.5 108:0.5 228:0.5 263:0.5 #
0.33333333362478673178586063841067 45:0.5 84:0.5 188:0.5 287:0.5 #
0.33333333362478673178586063841067 30:0.5 112:0.5 223:0.5 316:0.5 #
0.33333333362478673178586063841067 58:0.5 136:0.5 207:0.5 312:0.5 #
0.33333333362478673178586063841067 59:0.5 94:0.5 228:0.5 263:0.5 #
-0.33333333362478673178586063841067 1:0.5 144:0.5 213:0.5 301:0.5 #
-0.24469173355976964190361400142137 57:0.5 115:0.5 175:0.5 302:0.5 #
-0.31495215283691108121288948495931 45:0.5 84:0.5 185:0.5 287:0.5 #
0.33333333362478673178586063841067 59:0.5 125:0.5 170:0.5 263:0.5 #
-0.33333333362478673178586063841067 59:0.5 90:0.5 228:0.5 278:0.5 #
-0.33333333362478673178586063841067 59:0.5 94:0.5 183:0.5 299:0.5 #
-0.33333333362478673178586063841067 59:0.5 93:0.5 181:0.5 299:0.5 #
0.33333333362478673178586063841067 76:0.5 131:0.5 224:0.5 298:0.5 #
0.33333333362478673178586063841067 3:0.5 108:0.5 195:0.5 304:0.5 #
0.33333333362478673178586063841067 60:0.5 151:0.5 196:0.5 246:0.5 #
-0.20314635514223872148065197507094 3:0.5 106:0.5 215:0.5 243:0.5 #
-0.33333333362478673178586063841067 3:0.5 142:0.5 213:0.5 304:0.5 #
-0.0057856859945925502922148275786185 60:0.5 89:0.5 224:0.5 304:0.5 #
0.33333333362478673178586063841067 59:0.5 90:0.5 170:0.5 299:0.5 #
-0.33333333362478673178586063841067 59:0.5 83:0.5 170:0.5 263:0.5 #
-0.33333333362478673178586063841067 60:0.5 107:0.5 170:0.5 263:0.5 #
-0.33333333362478673178586063841067 59:0.5 94:0.5 170:0.5 263:0.5 #
0.33333333362478673178586063841067 59:0.5 90:0.5 228:0.5 261:0.5 #
0.33333333362478673178586063841067 59:0.5 90:0.5 217:0.5 262:0.5 #
0.33333333362478673178586063841067 59:0.5 125:0.5 170:0.5 263:0.5 #
-0.33333333362478673178586063841067 59:0.5 90:0.5 228:0.5 261:0.5 #
-0.33333333362478673178586063841067 59:0.5 90:0.5 228:0.5 262:0.5 #
-0.33333333362478673178586063841067 59:0.5 90:0.5 195:0.5 241:0.5 #
0.33333333362478673178586063841067 59:0.5 107:0.5 170:0.5 263:0.5 #
0.33333333362478673178586063841067 59:0.5 115:0.5 170:0.5 263:0.5 #
-0.33333333362478673178586063841067 60:0.5 107:0.5 170:0.5 263:0.5 #
0.33333333362478673178586063841067 59:0.5 90:0.5 228:0.5 261:0.5 #
-0.33333333362478673178586063841067 59:0.5 95:0.5 170:0.5 263:0.5 #
-0.33333333362478673178586063841067 59:0.5 125:0.5 170:0.5 262:0.5 #
-0.33333333362478673178586063841067 59:0.5 81:0.5 170:0.5 263:0.5 #
0.33333333362478673178586063841067 59:0.5 94:0.5 182:0.5 299:0.5 #
-0.33333333362478673178586063841067 59:0.5 115:0.5 174:0.5 302:0.5 #
0.33333333362478673178586063841067 59:0.5 146:0.5 186:0.5 241:0.5 #
-0.33333333362478673178586063841067 59:0.5 125:0.5 217:0.5 251:0.5 #
-0.26142165269746575617659800627735 59:0.5 107:0.5 169:0.5 261:0.5 #
0.33333333362478673178586063841067 69:0.5 125:0.5 228:0.5 264:0.5 #
0.33333333362478673178586063841067 59:0.5 104:0.5 227:0.5 262:0.5 #
-0.33333333362478673178586063841067 59:0.5 146:0.5 196:0.5 251:0.5 #
-0.33333333362478673178586063841067 59:0.5 146:0.5 193:0.5 251:0.5 #
0.33333333362478673178586063841067 59:0.5 115:0.5 174:0.5 303:0.5 #
0.33333333362478673178586063841067 59:0.5 126:0.5 169:0.5 302:0.5 #
-0.28597458845374007507800229177519 66:0.5 104:0.5 227:0.5 266:0.5 #
-0.33333333362478673178586063841067 69:0.5 125:0.5 228:0.5 261:0.5 #
-0.22892176648822468165711541132623 66:0.5 104:0.5 228:0.5 265:0.5 #
0.33333333362478673178586063841067 59:0.5 96:0.5 217:0.5 251:0.5 #
0.33333333362478673178586063841067 59:0.5 127:0.5 219:0.5 251:0.5 #
-0.33333333362478673178586063841067 59:0.5 126:0.5 219:0.5 251:0.5 #
-0.032364451662013273003370983360583 59:0.5 90:0.5 221:0.5 241:0.5 #
-0.33333333362478673178586063841067 59:0.5 114:0.5 219:0.5 251:0.5 #
0.33333333362478673178586063841067 47:0.5 110:0.5 231:0.5 266:0.5 #
0.15929457691389822815430932223535 69:0.5 125:0.5 232:0.5 304:0.5 #
0.33333333362478673178586063841067 53:0.5 104:0.5 213:0.5 285:0.5 #
0.33333333362478673178586063841067 59:0.5 96:0.5 217:0.5 251:0.5 #
-0.33333333362478673178586063841067 2:0.5 144:0.5 213:0.5 304:0.5 #
-0.17803186462558467928474215113965 47:0.5 84:0.5 187:0.5 286:0.5 #
-0.058317936518691139424763747456382 47:0.5 84:0.5 188:0.5 285:0.5 #
0.33333333362478673178586063841067 59:0.5 145:0.5 219:0.5 251:0.5 #
0.33333333362478673178586063841067 59:0.5 83:0.5 219:0.5 251:0.5 #
-0.33333333362478673178586063841067 59:0.5 114:0.5 219:0.5 251:0.5 #
0.33333333362478673178586063841067 1:0.5 144:0.5 213:0.5 241:0.5 #
-0.017533057692983546743681344537436 58:0.5 147:0.5 219:0.5 251:0.5 #
-0.33333333362478673178586063841067 59:0.5 150:0.5 217:0.5 251:0.5 #
-0.28348409534533874909456585555745 14:0.5 107:0.5 220:0.5 251:0.5 #
0.33333333362478673178586063841067 2:0.5 107:0.5 195:0.5 301:0.5 #
0.33333333362478673178586063841067 35:0.5 146:0.5 164:0.5 301:0.5 #
0.33333333362478673178586063841067 56:0.5 81:0.5 219:0.5 251:0.5 #
-0.064591394697583986994615656840324 57:0.5 94:0.5 219:0.5 250:0.5 #
-0.27526028584263606546755909221247 16:0.5 146:0.5 213:0.5 301:0.5 #
-0.33333333362478673178586063841067 35:0.5 94:0.5 219:0.5 249:0.5 #
0.26245127623642466874187562098086 59:0.5 142:0.5 217:0.5 304:0.5 #
0.33333333362478673178586063841067 59:0.5 82:0.5 184:0.5 251:0.5 #
-0.33333333362478673178586063841067 59:0.5 145:0.5 223:0.5 294:0.5 #
-0.33333333362478673178586063841067 59:0.5 142:0.5 214:0.5 303:0.5 #
-0.33333333362478673178586063841067 59:0.5 115:0.5 174:0.5 304:0.5 #
0.33333333362478673178586063841067 57:0.5 94:0.5 239:0.5 254:0.5 #
0.33333333362478673178586063841067 67:0.5 150:0.5 215:0.5 294:0.5 #
0.33333333362478673178586063841067 68:0.5 125:0.5 219:0.5 249:0.5 #
0.33333333362478673178586063841067 59:0.5 115:0.5 174:0.5 303:0.5 #
-0.33333333362478673178586063841067 53:0.5 108:0.5 219:0.5 251:0.5 #
-0.039227382028061620611314452844454 70:0.5 125:0.5 169:0.5 264:0.5 #
-0.33333333362478673178586063841067 64:0.5 105:0.5 215:0.5 263:0.5 #
0.33333333362478673178586063841067 59:0.5 148:0.5 213:0.5 304:0.5 #
-0.005901519644850819479309222970187 47:0.5 82:0.5 188:0.5 286:0.5 #
0.33333333362478673178586063841067 59:0.5 146:0.5 213:0.5 303:0.5 #
-0.33333333362478673178586063841067 59:0.5 146:0.5 213:0.5 262:0.5 #
-0.33333333362478673178586063841067 59:0.5 127:0.5 213:0.5 303:0.5 #
0.33333333362478673178586063841067 14:0.5 105:0.5 214:0.5 267:0.5 #
0.33333333362478673178586063841067 14:0.5 105:0.5 222:0.5 263:0.5 #
0.33333333362478673178586063841067 10:0.5 105:0.5 214:0.5 267:0.5 #
0.33333333362478673178586063841067 59:0.5 145:0.5 219:0.5 251:0.5 #
-0.33333333362478673178586063841067 68:0.5 103:0.5 226:0.5 267:0.5 #
-0.33333333362478673178586063841067 68:0.5 101:0.5 227:0.5 267:0.5 #
0.33333333362478673178586063841067 59:0.5 142:0.5 213:0.5 262:0.5 #
-0.33333333362478673178586063841067 59:0.5 142:0.5 215:0.5 304:0.5 #
-0.33333333362478673178586063841067 59:0.5 95:0.5 182:0.5 299:0.5 #
-0.33333333362478673178586063841067 59:0.5 115:0.5 173:0.5 302:0.5 #
0.33333333362478673178586063841067 59:0.5 125:0.5 226:0.5 242:0.5 #
0.33333333362478673178586063841067 59:0.5 125:0.5 226:0.5 290:0.5 #
0.33333333362478673178586063841067 4:0.5 83:0.5 216:0.5 306:0.5 #
0.33333333362478673178586063841067 59:0.5 146:0.5 173:0.5 243:0.5 #
-0.33333333362478673178586063841067 59:0.5 125:0.5 226:0.5 263:0.5 #
-0.2608798536303183479567735503224 59:0.5 125:0.5 226:0.5 262:0.5 #
0.33333333362478673178586063841067 68:0.5 132:0.5 215:0.5 299:0.5 #
0.33333333362478673178586063841067 68:0.5 116:0.5 183:0.5 299:0.5 #
0.33333333362478673178586063841067 59:0.5 146:0.5 228:0.5 261:0.5 #
-0.12464116983029684126993430481889 57:0.5 89:0.5 228:0.5 279:0.5 #
-0.33333333362478673178586063841067 59:0.5 107:0.5 216:0.5 244:0.5 #
-0.33333333362478673178586063841067 59:0.5 107:0.5 216:0.5 242:0.5 #
0.33333333362478673178586063841067 59:0.5 84:0.5 227:0.5 262:0.5 #
0.33333333362478673178586063841067 59:0.5 125:0.5 215:0.5 260:0.5 #
0.33333333362478673178586063841067 59:0.5 107:0.5 170:0.5 263:0.5 #
0.33333333362478673178586063841067 59:0.5 142:0.5 225:0.5 263:0.5 #
-0.33333333362478673178586063841067 59:0.57735026 125:0.57735026 215:0.57735026 #
-0.33333333362478673178586063841067 59:0.5 125:0.5 227:0.5 262:0.5 #
-0.33333333362478673178586063841067 59:0.5 146:0.5 219:0.5 249:0.5 #
0.33333333362478673178586063841067 59:0.5 142:0.5 216:0.5 244:0.5 #
0.33333333362478673178586063841067 2:0.5 106:0.5 216:0.5 263:0.5 #
0.31336490228262370294487482169643 16:0.5 107:0.5 204:0.5 268:0.5 #
0.33333333362478673178586063841067 59:0.5 94:0.5 219:0.5 249:0.5 #
-0.33333333362478673178586063841067 59:0.5 107:0.5 216:0.5 263:0.5 #
-0.33333333362478673178586063841067 57:0.5 107:0.5 170:0.5 263:0.5 #
0.33333333362478673178586063841067 59:0.5 125:0.5 228:0.5 262:0.5 #
0.33333333362478673178586063841067 59:0.5 125:0.5 214:0.5 304:0.5 #
0.33333333362478673178586063841067 59:0.5 125:0.5 222:0.5 302:0.5 #
-0.33333333362478673178586063841067 59:0.5 142:0.5 214:0.5 303:0.5 #
-0.33333333362478673178586063841067 59:0.5 94:0.5 228:0.5 262:0.5 #
-0.33333333362478673178586063841067 59:0.5 142:0.5 219:0.5 249:0.5 #
-0.33333333362478673178586063841067 59:0.5 94:0.5 184:0.5 300:0.5 #
0.33333333362478673178586063841067 14:0.5 107:0.5 186:0.5 263:0.5 #
0.33333333362478673178586063841067 35:0.5 107:0.5 220:0.5 251:0.5 #
0.33333333362478673178586063841067 59:0.5 107:0.5 216:0.5 303:0.5 #
-0.33333333362478673178586063841067 35:0.5 96:0.5 220:0.5 251:0.5 #
-0.33333333362478673178586063841067 45:0.5 148:0.5 186:0.5 307:0.5 #
-0.33333333362478673178586063841067 68:0.5 106:0.5 220:0.5 251:0.5 #
0.33333333362478673178586063841067 59:0.5 146:0.5 176:0.5 263:0.5 #
0.33333333362478673178586063841067 59:0.5 90:0.5 215:0.5 303:0.5 #
-0.33333333362478673178586063841067 59:0.5 127:0.5 213:0.5 303:0.5 #
-0.33333333362478673178586063841067 59:0.5 113:0.5 174:0.5 303:0.5 #
-0.33333333362478673178586063841067 59:0.5 116:0.5 176:0.5 303:0.5 #
0.33333333362478673178586063841067 60:0.5 95:0.5 219:0.5 251:0.5 #
0.33333333362478673178586063841067 59:0.5 94:0.5 220:0.5 251:0.5 #
-0.33333333362478673178586063841067 14:0.5 147:0.5 219:0.5 251:0.5 #
0.33333333362478673178586063841067 59:0.5 115:0.5 174:0.5 303:0.5 #
0.33333333362478673178586063841067 59:0.5 104:0.5 213:0.5 303:0.5 #
-0.33333333362478673178586063841067 58:0.5 83:0.5 219:0.5 251:0.5 #
-0.33333333362478673178586063841067 59:0.5 94:0.5 220:0.5 251:0.5 #
0.33333333362478673178586063841067 45:0.5 147:0.5 188:0.5 307:0.5 #
0.33333333362478673178586063841067 59:0.5 144:0.5 169:0.5 303:0.5 #
0.33333333362478673178586063841067 59:0.5 94:0.5 220:0.5 251:0.5 #
-0.33314749591780246085193084581988 59:0.5 90:0.5 215:0.5 263:0.5 #
-0.33333333362478673178586063841067 59:0.5 105:0.5 216:0.5 263:0.5 #
0.33333333362478673178586063841067 58:0.5 96:0.5 219:0.5 251:0.5 #
0.33333333362478673178586063841067 68:0.5 108:0.5 219:0.5 251:0.5 #
-0.33333333362478673178586063841067 59:0.5 94:0.5 220:0.5 251:0.5 #
0.33333333362478673178586063841067 59:0.5 125:0.5 170:0.5 263:0.5 #
-0.33333333362478673178586063841067 36:0.5 94:0.5 219:0.5 250:0.5 #
-0.33333333362478673178586063841067 33:0.5 96:0.5 219:0.5 250:0.5 #
-0.33333333362478673178586063841067 68:0.5 104:0.5 225:0.5 268:0.5 #
0.33333333362478673178586063841067 59:0.5 148:0.5 173:0.5 263:0.5 #
0.33333333362478673178586063841067 59:0.5 90:0.5 208:0.5 263:0.5 #
-0.33333333362478673178586063841067 59:0.5 126:0.5 208:0.5 263:0.5 #
-0.33333333362478673178586063841067 59:0.5 147:0.5 213:0.5 263:0.5 #
-0.33333333362478673178586063841067 59:0.5 82:0.5 172:0.5 263:0.5 #
0.33333333362478673178586063841067 14:0.5 105:0.5 215:0.5 267:0.5 #
0.33333333362478673178586063841067 24:0.5 139:0.5 220:0.5 242:0.5 #
0.33333333362478673178586063841067 3:0.57735026 105:0.57735026 193:0.57735026 #
-0.30814039827823902495396168887964 14:0.5 146:0.5 215:0.5 303:0.5 #
0.33333333362478673178586063841067 59:0.5 94:0.5 182:0.5 299:0.5 #
-0.16780814923660389292869865585089 46:0.5 148:0.5 188:0.5 305:0.5 #
-0.11040306301430616309211529824097 46:0.5 148:0.5 188:0.5 308:0.5 #
-0.33333333362478673178586063841067 3:0.57735026 125:0.57735026 215:0.57735026 #
0.33333333362478673178586063841067 59:0.5 96:0.5 213:0.5 263:0.5 #
0.33333333362478673178586063841067 59:0.5 94:0.5 219:0.5 250:0.5 #
-0.33333333362478673178586063841067 59:0.5 94:0.5 193:0.5 243:0.5 #
-0.33333333362478673178586063841067 59:0.5 90:0.5 171:0.5 299:0.5 #
-0.33333333362478673178586063841067 59:0.5 94:0.5 225:0.5 263:0.5 #
0.33333333362478673178586063841067 68:0.5 144:0.5 215:0.5 279:0.5 #
0.33333333362478673178586063841067 64:0.5 126:0.5 225:0.5 307:0.5 #
0.33333333362478673178586063841067 3:0.5 118:0.5 223:0.5 280:0.5 #
-0.33333333362478673178586063841067 68:0.5 105:0.5 219:0.5 250:0.5 #
-0.31168174133379883405936539020331 68:0.5 106:0.5 219:0.5 250:0.5 #
0.33333333362478673178586063841067 59:0.5 94:0.5 184:0.5 252:0.5 #
0.33333333362478673178586063841067 59:0.57735026 94:0.57735026 218:0.57735026 #
-0.33333333362478673178586063841067 59:0.5 115:0.5 173:0.5 302:0.5 #
-0.33333333362478673178586063841067 59:0.5 94:0.5 218:0.5 252:0.5 #
-0.33333333362478673178586063841067 59:0.5 144:0.5 214:0.5 303:0.5 #
-0.33333333362478673178586063841067 59:0.5 94:0.5 194:0.5 242:0.5 #
0.33333333362478673178586063841067 34:0.5 103:0.5 219:0.5 299:0.5 #
0.21353733832330099029483960748621 68:0.5 128:0.5 219:0.5 263:0.5 #
-0.33333333362478673178586063841067 2:0.5 142:0.5 213:0.5 304:0.5 #
-0.030880844445257099595281147230708 48:0.5 148:0.5 188:0.5 305:0.5 #
-0.049887494133032325716037291840621 2:0.5 146:0.5 222:0.5 299:0.5 #
0.33333333362478673178586063841067 59:0.5 105:0.5 215:0.5 303:0.5 #
0.33333333362478673178586063841067 59:0.5 148:0.5 208:0.5 251:0.5 #
0.33333333362478673178586063841067 59:0.5 142:0.5 213:0.5 262:0.5 #
-0.28474965056637147053919534300803 59:0.5 96:0.5 208:0.5 261:0.5 #
-0.33333333362478673178586063841067 59:0.5 105:0.5 169:0.5 263:0.5 #
-0.33333333362478673178586063841067 59:0.5 96:0.5 169:0.5 263:0.5 #
0.33333333362478673178586063841067 66:0.5 149:0.5 171:0.5 275:0.5 #
0.33333333362478673178586063841067 62:0.5 143:0.5 172:0.5 299:0.5 #
0.33333333362478673178586063841067 59:0.5 127:0.5 236:0.5 304:0.5 #
0.33333333362478673178586063841067 59:0.5 146:0.5 176:0.5 263:0.5 #
-0.33333333362478673178586063841067 62:0.5 143:0.5 213:0.5 242:0.5 #
-0.33333333362478673178586063841067 62:0.5 144:0.5 215:0.5 242:0.5 #
-0.33333333362478673178586063841067 34:0.5 91:0.5 219:0.5 251:0.5 #
0.33333333362478673178586063841067 59:0.5 107:0.5 169:0.5 243:0.5 #
0.33333333362478673178586063841067 59:0.5 146:0.5 174:0.5 263:0.5 #
-0.33333333362478673178586063841067 59:0.5 146:0.5 226:0.5 295:0.5 #
-0.33333333362478673178586063841067 59:0.5 115:0.5 176:0.5 304:0.5 #
-0.33333333362478673178586063841067 59:0.5 146:0.5 195:0.5 252:0.5 #
0.33333333362478673178586063841067 35:0.5 91:0.5 219:0.5 251:0.5 #
0.33333333362478673178586063841067 62:0.5 96:0.5 227:0.5 275:0.5 #
0.33333333362478673178586063841067 47:0.5 152:0.5 219:0.5 251:0.5 #
-0.33333333362478673178586063841067 35:0.5 96:0.5 217:0.5 251:0.5 #
0.33333333362478673178586063841067 59:0.5 126:0.5 170:0.5 242:0.5 #
-0.33333333362478673178586063841067 14:0.5 107:0.5 221:0.5 275:0.5 #
-0.33333333362478673178586063841067 53:0.5 107:0.5 220:0.5 251:0.5 #
0.33333333362478673178586063841067 59:0.5 115:0.5 172:0.5 304:0.5 #
-0.33333333362478673178586063841067 59:0.5 107:0.5 227:0.5 263:0.5 #
-0.33333333362478673178586063841067 16:0.5 107:0.5 223:0.5 273:0.5 #
-0.33333333362478673178586063841067 59:0.5 107:0.5 170:0.5 264:0.5 #
0.33333333362478673178586063841067 59:0.5 146:0.5 216:0.5 295:0.5 #
-0.33333333362478673178586063841067 59:0.5 113:0.5 174:0.5 303:0.5 #
0.33333333362478673178586063841067 59:0.5 107:0.5 228:0.5 251:0.5 #
0.33333333362478673178586063841067 16:0.5 107:0.5 213:0.5 263:0.5 #
-0.33333333362478673178586063841067 59:0.5 126:0.5 172:0.5 303:0.5 #
-0.33333333362478673178586063841067 59:0.5 115:0.5 174:0.5 301:0.5 #
0.33333333362478673178586063841067 59:0.5 106:0.5 219:0.5 251:0.5 #
0.33333333362478673178586063841067 72:0.5 107:0.5 188:0.5 268:0.5 #
0.33333333362478673178586063841067 2:0.5 101:0.5 224:0.5 263:0.5 #
0.33333333362478673178586063841067 48:0.5 107:0.5 188:0.5 268:0.5 #
0.33333333362478673178586063841067 59:0.5 105:0.5 215:0.5 303:0.5 #
-0.12559873330641033173371567954746 48:0.5 145:0.5 188:0.5 307:0.5 #
-0.33333333362478673178586063841067 47:0.5 146:0.5 188:0.5 307:0.5 #
-0.21355923711065077919002419548633 48:0.5 145:0.5 188:0.5 306:0.5 #
0.33333333362478673178586063841067 59:0.5 126:0.5 188:0.5 301:0.5 #
0.33333333362478673178586063841067 59:0.57735026 93:0.57735026 220:0.57735026 #
0.33333333362478673178586063841067 59:0.5 126:0.5 220:0.5 293:0.5 #
-0.22400843169274986532713000997319 59:0.5 90:0.5 215:0.5 263:0.5 #
-0.33333333362478673178586063841067 59:0.5 84:0.5 220:0.5 251:0.5 #
-0.063017806129543371684853525493963 59:0.5 105:0.5 220:0.5 251:0.5 #
0.33333333362478673178586063841067 14:0.5 106:0.5 221:0.5 303:0.5 #
0.33333333362478673178586063841067 30:0.5 91:0.5 172:0.5 295:0.5 #
0.33333333362478673178586063841067 61:0.5 127:0.5 194:0.5 303:0.5 #
0.33333333362478673178586063841067 59:0.5 82:0.5 184:0.5 251:0.5 #
-0.21953944971144462305900901810674 68:0.5 101:0.5 225:0.5 268:0.5 #
-0.33333333362478673178586063841067 66:0.5 103:0.5 228:0.5 268:0.5 #
-0.16910897328959909047263465708966 15:0.5 106:0.5 224:0.5 275:0.5 #
0.33333333362478673178586063841067 59:0.5 81:0.5 195:0.5 251:0.5 #
0.33333333362478673178586063841067 59:0.5 90:0.5 220:0.5 297:0.5 #
0.33333333362478673178586063841067 59:0.5 90:0.5 220:0.5 298:0.5 #
-0.33333333362478673178586063841067 59:0.5 90:0.5 172:0.5 298:0.5 #
-0.33333333362478673178586063841067 59:0.5 90:0.5 172:0.5 297:0.5 #
0.25760762151564015054461265208374 59:0.5 146:0.5 188:0.5 305:0.5 #
0.33333333362478673178586063841067 14:0.5 106:0.5 222:0.5 275:0.5 #
0.33333333362478673178586063841067 67:0.5 84:0.5 228:0.5 263:0.5 #
0.33333333362478673178586063841067 16:0.5 107:0.5 228:0.5 296:0.5 #
0.33333333362478673178586063841067 59:0.5 115:0.5 172:0.5 304:0.5 #
-0.12967197607040256701615987822152 14:0.5 128:0.5 222:0.5 299:0.5 #
0.18212557925127415003885289479513 60:0.5 94:0.5 219:0.5 251:0.5 #
-0.33333333362478673178586063841067 14:0.5 143:0.5 228:0.5 267:0.5 #
0.33333333362478673178586063841067 59:0.5 90:0.5 185:0.5 302:0.5 #
0.33333333362478673178586063841067 59:0.5 90:0.5 217:0.5 242:0.5 #
-0.33333333362478673178586063841067 59:0.5 93:0.5 195:0.5 242:0.5 #
-0.33333333362478673178586063841067 59:0.5 90:0.5 224:0.5 304:0.5 #
0.33333333362478673178586063841067 14:0.5 144:0.5 213:0.5 267:0.5 #
0.33333333362478673178586063841067 59:0.5 143:0.5 228:0.5 263:0.5 #
-0.33333333362478673178586063841067 67:0.5 107:0.5 218:0.5 251:0.5 #
0.33333333362478673178586063841067 59:0.5 90:0.5 170:0.5 299:0.5 #
-0.33333333362478673178586063841067 59:0.5 106:0.5 213:0.5 241:0.5 #
-0.076978903446747723449128386619122 59:0.5 92:0.5 171:0.5 298:0.5 #
-0.33333333362478673178586063841067 59:0.5 106:0.5 215:0.5 303:0.5 #
0.33333333362478673178586063841067 59:0.5 150:0.5 224:0.5 251:0.5 #
0.33333333362478673178586063841067 59:0.5 94:0.5 227:0.5 314:0.5 #
-0.33333333362478673178586063841067 59:0.5 89:0.5 170:0.5 299:0.5 #
-0.33333333362478673178586063841067 59:0.5 150:0.5 220:0.5 251:0.5 #
-0.33333333362478673178586063841067 59:0.5 90:0.5 220:0.5 251:0.5 #
0.33333333362478673178586063841067 14:0.5 106:0.5 168:0.5 243:0.5 #
0.33333333362478673178586063841067 36:0.5 103:0.5 208:0.5 298:0.5 #
0.33333333362478673178586063841067 67:0.5 106:0.5 211:0.5 306:0.5 #
0.33333333362478673178586063841067 59:0.5 150:0.5 224:0.5 251:0.5 #
-0.33333333362478673178586063841067 65:0.5 103:0.5 227:0.5 267:0.5 #
-0.31129111344427456975481049994414 67:0.5 102:0.5 227:0.5 267:0.5 #
-0.33333333362478673178586063841067 14:0.5 144:0.5 215:0.5 267:0.5 #
0.33333333362478673178586063841067 59:0.5 148:0.5 205:0.5 251:0.5 #
0.33333333362478673178586063841067 59:0.5 94:0.5 219:0.5 250:0.5 #
-0.33333333362478673178586063841067 59:0.5 95:0.5 183:0.5 298:0.5 #
-0.33333333362478673178586063841067 59:0.5 148:0.5 196:0.5 251:0.5 #
-0.33333333362478673178586063841067 3:0.5 146:0.5 224:0.5 298:0.5 #
0.33333333362478673178586063841067 59:0.5 134:0.5 223:0.5 264:0.5 #
-0.33333333362478673178586063841067 59:0.5 94:0.5 205:0.5 262:0.5 #
-0.33333333362478673178586063841067 59:0.5 150:0.5 219:0.5 249:0.5 #
-0.33333333362478673178586063841067 59:0.5 94:0.5 205:0.5 261:0.5 #
0.33333333362478673178586063841067 59:0.5 146:0.5 188:0.5 241:0.5 #
0.33333333362478673178586063841067 59:0.5 107:0.5 214:0.5 303:0.5 #
-0.33333333362478673178586063841067 16:0.5 146:0.5 213:0.5 303:0.5 #
-0.24092396027042614625734984201699 59:0.5 106:0.5 214:0.5 303:0.5 #
-0.33333333362478673178586063841067 59:0.5 107:0.5 214:0.5 243:0.5 #
0.33333333362478673178586063841067 59:0.5 96:0.5 219:0.5 249:0.5 #
0.33333333362478673178586063841067 59:0.57735026 94:0.57735026 220:0.57735026 #
-0.33333333362478673178586063841067 59:0.5 82:0.5 219:0.5 249:0.5 #
-0.33333333362478673178586063841067 59:0.5 94:0.5 208:0.5 264:0.5 #
-0.30061917779096059000210061640246 58:0.5 127:0.5 219:0.5 251:0.5 #
0.22340472691834936669330602398986 62:0.5 126:0.5 196:0.5 303:0.5 #
0.33333333362478673178586063841067 26:0.5 92:0.5 187:0.5 271:0.5 #
0.30714254820557473912856494280277 68:0.5 128:0.5 198:0.5 267:0.5 #
0.33333333362478673178586063841067 59:0.57735026 94:0.57735026 218:0.57735026 #
-0.33333333362478673178586063841067 45:0.5 148:0.5 185:0.5 306:0.5 #
-0.0023901243714824823433096057101466 63:0.5 144:0.5 214:0.5 243:0.5 #
-0.33333333362478673178586063841067 1:0.5 144:0.5 216:0.5 303:0.5 #
0.33333333362478673178586063841067 59:0.5 146:0.5 228:0.5 261:0.5 #
0.33333333362478673178586063841067 59:0.5 142:0.5 205:0.5 262:0.5 #
0.33333333362478673178586063841067 59:0.5 125:0.5 170:0.5 264:0.5 #
-0.33333333362478673178586063841067 59:0.5 125:0.5 218:0.5 251:0.5 #
-0.33333333362478673178586063841067 59:0.5 128:0.5 228:0.5 263:0.5 #
0.33333333362478673178586063841067 35:0.5 90:0.5 216:0.5 303:0.5 #
0.33333333362478673178586063841067 4:0.5 83:0.5 216:0.5 306:0.5 #
0.33333333362478673178586063841067 59:0.5 148:0.5 173:0.5 263:0.5 #
0.33333333362478673178586063841067 59:0.5 148:0.5 205:0.5 251:0.5 #
-0.11020545584640888125971258659774 59:0.5 95:0.5 228:0.5 264:0.5 #
-0.33333333362478673178586063841067 60:0.5 94:0.5 182:0.5 299:0.5 #
-0.33333333362478673178586063841067 2:0.5 146:0.5 221:0.5 299:0.5 #
0.33333333362478673178586063841067 59:0.5 148:0.5 174:0.5 263:0.5 #
0.33333333362478673178586063841067 59:0.5 148:0.5 213:0.5 263:0.5 #
-0.33333333362478673178586063841067 59:0.5 148:0.5 216:0.5 263:0.5 #
-0.034574021262660264985910885116027 59:0.5 148:0.5 220:0.5 251:0.5 #
0.33333333362478673178586063841067 4:0.5 105:0.5 196:0.5 301:0.5 #
0.33333333362478673178586063841067 45:0.5 125:0.5 213:0.5 287:0.5 #
-0.33333333362478673178586063841067 72:0.5 125:0.5 170:0.5 263:0.5 #
-0.2653753422002514406052853246365 72:0.5 125:0.5 170:0.5 264:0.5 #
-0.33333333362478673178586063841067 45:0.5 83:0.5 188:0.5 287:0.5 #
0.33239241774369399085031773211085 59:0.5 144:0.5 181:0.5 299:0.5 #
0.33333333362478673178586063841067 59:0.5 84:0.5 216:0.5 303:0.5 #
-0.33333333362478673178586063841067 59:0.5 126:0.5 169:0.5 303:0.5 #
-0.33333333362478673178586063841067 59:0.5 128:0.5 213:0.5 303:0.5 #
-0.33333333362478673178586063841067 59:0.5 116:0.5 175:0.5 303:0.5 #
0.33333333362478673178586063841067 45:0.5 81:0.5 161:0.5 263:0.5 #
0.2615678790223179839280476244312 12:0.5 123:0.5 208:0.5 310:0.5 #
0.20379019592172220587400488511776 65:0.5 138:0.5 175:0.5 298:0.5 #
-0.33333333362478673178586063841067 68:0.5 105:0.5 219:0.5 250:0.5 #
0.33333333362478673178586063841067 59:0.5 107:0.5 214:0.5 303:0.5 #
-0.33333333362478673178586063841067 45:0.5 84:0.5 187:0.5 287:0.5 #
-0.33333333362478673178586063841067 14:0.5 84:0.5 223:0.5 275:0.5 #
-0.33333333362478673178586063841067 54:0.5 105:0.5 219:0.5 252:0.5 #
0.33333333362478673178586063841067 59:0.5 102:0.5 228:0.5 303:0.5 #
0.33333333362478673178586063841067 59:0.5 144:0.5 169:0.5 303:0.5 #
0.33333333362478673178586063841067 59:0.5 115:0.5 170:0.5 303:0.5 #
0.33333333362478673178586063841067 59:0.5 94:0.5 219:0.5 250:0.5 #
-0.33333333362478673178586063841067 59:0.5 90:0.5 228:0.5 280:0.5 #
-0.33333333362478673178586063841067 59:0.5 127:0.5 216:0.5 303:0.5 #
0.33333333362478673178586063841067 50:0.5 129:0.5 207:0.5 287:0.5 #
0.33333333362478673178586063841067 72:0.5 84:0.5 219:0.5 251:0.5 #
-0.33333333362478673178586063841067 59:0.5 94:0.5 196:0.5 244:0.5 #
-0.33333333362478673178586063841067 59:0.5 81:0.5 219:0.5 250:0.5 #
-0.33333333362478673178586063841067 69:0.5 94:0.5 219:0.5 250:0.5 #
0.33333333362478673178586063841067 59:0.5 90:0.5 216:0.5 303:0.5 #
-0.33333333362478673178586063841067 59:0.5 144:0.5 220:0.5 251:0.5 #
-0.33333333362478673178586063841067 59:0.5 90:0.5 218:0.5 289:0.5 #
-0.33333333362478673178586063841067 59:0.5 143:0.5 216:0.5 303:0.5 #
0.33333333362478673178586063841067 66:0.5 120:0.5 191:0.5 244:0.5 #
0.33333333362478673178586063841067 59:0.5 126:0.5 228:0.5 302:0.5 #
0.33333333362478673178586063841067 59:0.5 106:0.5 232:0.5 265:0.5 #
-0.33333333362478673178586063841067 59:0.5 126:0.5 228:0.5 262:0.5 #
-0.33333333362478673178586063841067 59:0.5 126:0.5 213:0.5 302:0.5 #
-0.33333333362478673178586063841067 59:0.5 126:0.5 228:0.5 263:0.5 #
0.33333333362478673178586063841067 59:0.5 90:0.5 220:0.5 268:0.5 #
0.33333333362478673178586063841067 59:0.5 90:0.5 220:0.5 291:0.5 #
-0.33333333362478673178586063841067 59:0.5 90:0.5 224:0.5 242:0.5 #
0.33333333362478673178586063841067 59:0.5 143:0.5 228:0.5 263:0.5 #
-0.33333333362478673178586063841067 59:0.5 91:0.5 220:0.5 291:0.5 #
-0.33333333362478673178586063841067 59:0.5 90:0.5 169:0.5 298:0.5 #
-0.33333333362478673178586063841067 59:0.5 90:0.5 222:0.5 274:0.5 #
0.33333333362478673178586063841067 59:0.5 103:0.5 228:0.5 263:0.5 #
0.33333333362478673178586063841067 59:0.5 126:0.5 170:0.5 266:0.5 #
0.33333333362478673178586063841067 59:0.5 90:0.5 217:0.5 242:0.5 #
0.33333333362478673178586063841067 59:0.5 107:0.5 169:0.5 243:0.5 #
-0.33333333362478673178586063841067 59:0.5 126:0.5 228:0.5 263:0.5 #
0.33333333362478673178586063841067 59:0.5 83:0.5 175:0.5 298:0.5 #
-0.33333333362478673178586063841067 59:0.5 92:0.5 170:0.5 299:0.5 #
-0.25498520938834912108461594471009 67:0.5 103:0.5 228:0.5 265:0.5 #
-0.33333333362478673178586063841067 59:0.57735026 92:0.57735026 170:0.57735026 #
0.33333333362478673178586063841067 59:0.5 90:0.5 213:0.5 263:0.5 #
-0.33333333362478673178586063841067 59:0.5 90:0.5 213:0.5 301:0.5 #
0.33333333362478673178586063841067 64:0.5 128:0.5 196:0.5 303:0.5 #
-0.1142067553194031498398075541445 59:0.5 81:0.5 171:0.5 263:0.5 #
-0.33333333362478673178586063841067 59:0.5 90:0.5 171:0.5 297:0.5 #
-0.33333333362478673178586063841067 68:0.5 101:0.5 228:0.5 266:0.5 #
-0.33333333362478673178586063841067 59:0.5 81:0.5 172:0.5 263:0.5 #
-0.29563386698063820468007634190144 59:0.5 96:0.5 171:0.5 263:0.5 #
0.33333333362478673178586063841067 59:0.57735026 125:0.57735026 216:0.57735026 #
0.33333333362478673178586063841067 59:0.5 125:0.5 213:0.5 301:0.5 #
-0.33333333362478673178586063841067 59:0.5 125:0.5 215:0.5 302:0.5 #
-0.33333333362478673178586063841067 58:0.5 125:0.5 213:0.5 302:0.5 #
0.33333333362478673178586063841067 59:0.5 90:0.5 228:0.5 263:0.5 #
0.30740802788733512240781919899746 68:0.5 124:0.5 187:0.5 315:0.5 #
0.33333333362478673178586063841067 36:0.5 90:0.5 225:0.5 307:0.5 #
-0.33333333362478673178586063841067 59:0.5 90:0.5 228:0.5 277:0.5 #
-0.33333333362478673178586063841067 59:0.5 90:0.5 196:0.5 244:0.5 #
-0.31426263523065817162560620090517 59:0.5 147:0.5 221:0.5 295:0.5 #
0.33333333362478673178586063841067 59:0.5 126:0.5 188:0.5 302:0.5 #
0.33333333362478673178586063841067 59:0.5 150:0.5 225:0.5 302:0.5 #
0.33333333362478673178586063841067 59:0.5 110:0.5 225:0.5 302:0.5 #
0.33333333362478673178586063841067 59:0.5 90:0.5 213:0.5 263:0.5 #
-0.33333333362478673178586063841067 59:0.5 126:0.5 216:0.5 302:0.5 #
-0.26332425324955910372892731174943 16:0.5 142:0.5 225:0.5 287:0.5 #
0.33333333362478673178586063841067 59:0.5 147:0.5 219:0.5 251:0.5 #
0.33333333362478673178586063841067 59:0.5 90:0.5 183:0.5 274:0.5 #
-0.33333333362478673178586063841067 59:0.5 150:0.5 219:0.5 250:0.5 #
-0.33333333362478673178586063841067 59:0.5 90:0.5 222:0.5 302:0.5 #
-0.33333333362478673178586063841067 59:0.5 149:0.5 219:0.5 250:0.5 #
0.33333333362478673178586063841067 68:0.5 147:0.5 239:0.5 287:0.5 #
0.33333333362478673178586063841067 14:0.5 107:0.5 206:0.5 259:0.5 #
0.33333333362478673178586063841067 27:0.5 119:0.5 223:0.5 267:0.5 #
0.33333333362478673178586063841067 59:0.5 94:0.5 219:0.5 250:0.5 #
-0.33333333362478673178586063841067 67:0.5 102:0.5 225:0.5 267:0.5 #
-0.26542148401925308442983464374265 60:0.5 107:0.5 225:0.5 263:0.5 #
-0.33333333362478673178586063841067 14:0.5 147:0.5 213:0.5 304:0.5 #
0.33333333362478673178586063841067 59:0.5 102:0.5 171:0.5 318:0.5 #
0.33333333362478673178586063841067 59:0.5 82:0.5 228:0.5 243:0.5 #
-0.33333333362478673178586063841067 59:0.5 94:0.5 207:0.5 262:0.5 #
-0.33333333362478673178586063841067 59:0.5 94:0.5 196:0.5 243:0.5 #
-0.33333333362478673178586063841067 59:0.5 94:0.5 206:0.5 262:0.5 #
0.33333333362478673178586063841067 14:0.5 107:0.5 222:0.5 263:0.5 #
0.33333333362478673178586063841067 67:0.5 107:0.5 167:0.5 251:0.5 #
0.33333333362478673178586063841067 3:0.57735026 125:0.57735026 213:0.57735026 #
0.33333333362478673178586063841067 59:0.5 94:0.5 219:0.5 250:0.5 #
-0.018709337104754940328543710847953 59:0.5 115:0.5 173:0.5 301:0.5 #
-0.33333333362478673178586063841067 70:0.5 125:0.5 228:0.5 261:0.5 #
-0.32134127093935210828234971813799 71:0.5 125:0.5 228:0.5 261:0.5 #
0.33333333362478673178586063841067 59:0.5 146:0.5 216:0.5 295:0.5 #
-0.33333333362478673178586063841067 59:0.5 114:0.5 219:0.5 243:0.5 #
-0.24678566974833629488195185786026 30:0.5 125:0.5 219:0.5 249:0.5 #
-0.33333333362478673178586063841067 68:0.5 125:0.5 219:0.5 250:0.5 #
0.33333333362478673178586063841067 59:0.5 146:0.5 221:0.5 263:0.5 #
0.33333333362478673178586063841067 59:0.5 90:0.5 195:0.5 304:0.5 #
0.33333333362478673178586063841067 1:0.5 101:0.5 219:0.5 251:0.5 #
-0.33333333362478673178586063841067 59:0.5 143:0.5 213:0.5 304:0.5 #
-0.33333333362478673178586063841067 59:0.5 147:0.5 223:0.5 293:0.5 #
0.33333333362478673178586063841067 65:0.5 125:0.5 170:0.5 244:0.5 #
0.30164428828526568260315343650291 29:0.5 101:0.5 219:0.5 251:0.5 #
-0.33333333362478673178586063841067 59:0.5 146:0.5 217:0.5 251:0.5 #
0.33333333362478673178586063841067 59:0.5 142:0.5 213:0.5 262:0.5 #
-0.33333333362478673178586063841067 59:0.5 125:0.5 220:0.5 251:0.5 #
0.33333333362478673178586063841067 59:0.57735026 140:0.57735026 213:0.57735026 #
0.33333333362478673178586063841067 59:0.5 142:0.5 225:0.5 304:0.5 #
0.33333333362478673178586063841067 59:0.5 142:0.5 213:0.5 308:0.5 #
-0.33333333362478673178586063841067 59:0.5 89:0.5 213:0.5 303:0.5 #
-0.33333333362478673178586063841067 59:0.5 108:0.5 213:0.5 263:0.5 #
-0.33333333362478673178586063841067 3:0.5 142:0.5 213:0.5 301:0.5 #
0.33333333362478673178586063841067 59:0.57735026 94:0.57735026 220:0.57735026 #
0.33333333362478673178586063841067 59:0.5 113:0.5 219:0.5 243:0.5 #
0.33333333362478673178586063841067 45:0.5 125:0.5 213:0.5 287:0.5 #
-0.33333333362478673178586063841067 59:0.5 94:0.5 220:0.5 250:0.5 #
-0.33333333362478673178586063841067 59:0.5 94:0.5 220:0.5 252:0.5 #
-0.33333333362478673178586063841067 59:0.5 82:0.5 219:0.5 252:0.5 #
0.17623913582606909322691990382737 53:0.5 84:0.5 213:0.5 305:0.5 #
0.33333333362478673178586063841067 35:0.5 125:0.5 213:0.5 302:0.5 #
-0.33333333362478673178586063841067 63:0.5 105:0.5 213:0.5 261:0.5 #
-0.33333333362478673178586063841067 3:0.5 142:0.5 213:0.5 302:0.5 #
-0.33333333362478673178586063841067 45:0.5 82:0.5 188:0.5 287:0.5 #
0.33333333362478673178586063841067 59:0.5 82:0.5 224:0.5 303:0.5 #
0.33333333362478673178586063841067 59:0.5 96:0.5 219:0.5 252:0.5 #
0.33333333362478673178586063841067 59:0.5 143:0.5 228:0.5 303:0.5 #
-0.33333333362478673178586063841067 59:0.5 90:0.5 224:0.5 241:0.5 #
-0.33333333362478673178586063841067 59:0.5 113:0.5 173:0.5 303:0.5 #
0.33333333362478673178586063841067 3:0.57735026 105:0.57735026 196:0.57735026 #
0.33333333362478673178586063841067 54:0.5 105:0.5 213:0.5 263:0.5 #
0.33333333362478673178586063841067 3:0.57735026 108:0.57735026 195:0.57735026 #
0.33333333362478673178586063841067 59:0.5 90:0.5 220:0.5 291:0.5 #
0.33333333362478673178586063841067 59:0.5 90:0.5 217:0.5 242:0.5 #
-0.33333333362478673178586063841067 60:0.5 125:0.5 228:0.5 263:0.5 #
-0.33333333362478673178586063841067 59:0.5 127:0.5 228:0.5 263:0.5 #
-0.33333333362478673178586063841067 14:0.5 105:0.5 219:0.5 252:0.5 #
0.33333333362478673178586063841067 59:0.5 90:0.5 220:0.5 302:0.5 #
0.33333333362478673178586063841067 59:0.5 90:0.5 216:0.5 303:0.5 #
0.33333333362478673178586063841067 59:0.5 103:0.5 228:0.5 263:0.5 #
-0.33333333362478673178586063841067 59:0.5 90:0.5 221:0.5 243:0.5 #
-0.33333333362478673178586063841067 59:0.5 90:0.5 223:0.5 243:0.5 #
-0.33333333362478673178586063841067 59:0.5 90:0.5 221:0.5 274:0.5 #
0.33333333362478673178586063841067 59:0.5 125:0.5 228:0.5 261:0.5 #
-0.33333333362478673178586063841067 59:0.5 128:0.5 228:0.5 263:0.5 #
-0.23436746320030651946630939619354 65:0.5 103:0.5 228:0.5 265:0.5 #
-0.33333333362478673178586063841067 59:0.5 125:0.5 171:0.5 262:0.5 #
0.32980679034007731598165946707013 63:0.5 144:0.5 213:0.5 243:0.5 #
-0.33333333362478673178586063841067 59:0.5 107:0.5 170:0.5 261:0.5 #
-0.33333333362478673178586063841067 59:0.5 107:0.5 216:0.5 242:0.5 #
-0.33333333362478673178586063841067 59:0.5 91:0.5 195:0.5 244:0.5 #
0.33333333362478673178586063841067 65:0.5 127:0.5 198:0.5 267:0.5 #
0.33333333362478673178586063841067 59:0.5 89:0.5 219:0.5 251:0.5 #
0.0011515844678670510755486011689186 59:0.5 115:0.5 219:0.5 251:0.5 #
-0.13639205920595587340216070515453 65:0.5 101:0.5 227:0.5 267:0.5 #
-0.33333333362478673178586063841067 65:0.5 102:0.5 227:0.5 267:0.5 #
-0.14765927339414855468113785263995 13:0.5 144:0.5 214:0.5 267:0.5 #
0.33333333362478673178586063841067 59:0.5 146:0.5 221:0.5 263:0.5 #
0.33333333362478673178586063841067 59:0.5 107:0.5 215:0.5 303:0.5 #
-0.33333333362478673178586063841067 59:0.5 146:0.5 214:0.5 263:0.5 #
-0.33333333362478673178586063841067 59:0.5 142:0.5 215:0.5 303:0.5 #
0.33333333362478673178586063841067 28:0.5 119:0.5 223:0.5 267:0.5 #
0.33333333362478673178586063841067 70:0.5 155:0.5 182:0.5 275:0.5 #
-0.33333333362478673178586063841067 30:0.5 126:0.5 219:0.5 251:0.5 #
-0.30460679891249858863844224288187 57:0.5 115:0.5 174:0.5 303:0.5 #
0.33333333362478673178586063841067 59:0.5 142:0.5 227:0.5 303:0.5 #
0.33333333362478673178586063841067 59:0.5 142:0.5 213:0.5 244:0.5 #
0.33333333362478673178586063841067 59:0.5 142:0.5 172:0.5 303:0.5 #
-0.33333333362478673178586063841067 59:0.5 143:0.5 213:0.5 303:0.5 #
-0.33333333362478673178586063841067 59:0.5 96:0.5 205:0.5 264:0.5 #
-0.33333333362478673178586063841067 59:0.5 90:0.5 169:0.5 299:0.5 #
0.29906358880621258800047712611558 23:0.5 146:0.5 219:0.5 251:0.5 #
0.33333333362478673178586063841067 30:0.5 125:0.5 219:0.5 251:0.5 #
0.33333333362478673178586063841067 13:0.5 107:0.5 219:0.5 251:0.5 #
0.33333333362478673178586063841067 59:0.5 90:0.5 170:0.5 299:0.5 #
-0.33333333362478673178586063841067 58:0.5 127:0.5 219:0.5 251:0.5 #
-0.33333333362478673178586063841067 29:0.5 125:0.5 219:0.5 249:0.5 #
0.33333333362478673178586063841067 59:0.5 144:0.5 173:0.5 303:0.5 #
0.089718987479319875499861325351958 14:0.5 105:0.5 224:0.5 311:0.5 #
0.17285614491784107027427808134235 60:0.5 135:0.5 219:0.5 251:0.5 #
-0.33333333362478673178586063841067 59:0.5 142:0.5 215:0.5 303:0.5 #
0.33333333362478673178586063841067 59:0.5 84:0.5 170:0.5 263:0.5 #
-0.33333333362478673178586063841067 13:0.5 107:0.5 222:0.5 275:0.5 #
-0.33333333362478673178586063841067 59:0.5 95:0.5 195:0.5 243:0.5 #
-0.33333333362478673178586063841067 1:0.5 142:0.5 216:0.5 303:0.5 #
0.33333333362478673178586063841067 59:0.5 81:0.5 175:0.5 298:0.5 #
0.33333333362478673178586063841067 59:0.5 82:0.5 175:0.5 298:0.5 #
-0.33333333362478673178586063841067 59:0.5 116:0.5 175:0.5 303:0.5 #
-0.33333333362478673178586063841067 59:0.5 89:0.5 170:0.5 298:0.5 #
-0.33333333362478673178586063841067 59:0.5 94:0.5 227:0.5 263:0.5 #
0.33333333362478673178586063841067 55:0.5 121:0.5 162:0.5 299:0.5 #
0.32577668405439180743243809956766 61:0.5 126:0.5 196:0.5 303:0.5 #
0.33333333362478673178586063841067 59:0.5 107:0.5 215:0.5 303:0.5 #
0.33333333362478673178586063841067 59:0.5 115:0.5 172:0.5 304:0.5 #
-0.17469756582539308631396579585271 48:0.5 146:0.5 187:0.5 306:0.5 #
-0.33333333362478673178586063841067 3:0.5 146:0.5 224:0.5 299:0.5 #
-0.33333333362478673178586063841067 60:0.5 96:0.5 182:0.5 298:0.5 #
0.33333333362478673178586063841067 59:0.5 94:0.5 195:0.5 302:0.5 #
0.33333333362478673178586063841067 59:0.5 102:0.5 227:0.5 306:0.5 #
-0.33333333362478673178586063841067 59:0.5 94:0.5 227:0.5 263:0.5 #
-0.33333333362478673178586063841067 59:0.5 106:0.5 172:0.5 263:0.5 #
-0.20598253326980831001691285564448 59:0.5 83:0.5 172:0.5 263:0.5 #
0.33333333362478673178586063841067 51:0.5 142:0.5 195:0.5 286:0.5 #
0.33333333362478673178586063841067 59:0.5 148:0.5 174:0.5 263:0.5 #
-0.33333333362478673178586063841067 66:0.5 102:0.5 228:0.5 268:0.5 #
-0.14088877342691125127416285067738 35:0.5 90:0.5 220:0.5 252:0.5 #
-0.33333333362478673178586063841067 59:0.5 148:0.5 219:0.5 250:0.5 #
0.33333333362478673178586063841067 59:0.5 146:0.5 174:0.5 263:0.5 #
-0.0013968990750979997077924066317678 59:0.5 115:0.5 219:0.5 249:0.5 #
0.33333333362478673178586063841067 59:0.5 94:0.5 219:0.5 252:0.5 #
-0.33333333362478673178586063841067 59:0.5 126:0.5 213:0.5 303:0.5 #
-0.33333333362478673178586063841067 59:0.5 95:0.5 213:0.5 263:0.5 #
-0.33333333362478673178586063841067 59:0.5 93:0.5 225:0.5 263:0.5 #
-0.33333333362478673178586063841067 59:0.5 127:0.5 213:0.5 263:0.5 #
-0.33333333362478673178586063841067 59:0.5 151:0.5 219:0.5 252:0.5 #
-0.33333333362478673178586063841067 59:0.5 84:0.5 171:0.5 262:0.5 #
-0.33333333362478673178586063841067 59:0.5 84:0.5 218:0.5 251:0.5 #
0.27172449401661574741595472914923 68:0.5 159:0.5 179:0.5 291:0.5 #
0.33333333362478673178586063841067 66:0.5 127:0.5 197:0.5 267:0.5 #
-0.19238332418742884466489329042815 58:0.5 115:0.5 175:0.5 304:0.5 #
-0.33333333362478673178586063841067 4:0.5 141:0.5 213:0.5 304:0.5 #
0.33333333362478673178586063841067 59:0.5 94:0.5 219:0.5 252:0.5 #
0.2034021526762643528041252238836 33:0.5 144:0.5 170:0.5 304:0.5 #
-0.33333333362478673178586063841067 59:0.5 95:0.5 183:0.5 299:0.5 #
-0.33333333362478673178586063841067 70:0.5 94:0.5 219:0.5 250:0.5 #
-0.33333333362478673178586063841067 59:0.5 94:0.5 207:0.5 264:0.5 #
0.33333333362478673178586063841067 59:0.5 146:0.5 224:0.5 304:0.5 #
0.24661565316877942510842558476725 59:0.5 106:0.5 228:0.5 304:0.5 #
0.31746896714347527801436399386148 59:0.5 90:0.5 188:0.5 304:0.5 #
-0.33333333362478673178586063841067 59:0.5 90:0.5 222:0.5 304:0.5 #
0.33333333362478673178586063841067 60:0.5 94:0.5 219:0.5 251:0.5 #
-0.33333333362478673178586063841067 55:0.5 126:0.5 219:0.5 251:0.5 #
-0.2697025151468268600041255922406 66:0.5 107:0.5 219:0.5 249:0.5 #
0.12937256456863988063332726596855 59:0.5 125:0.5 222:0.5 294:0.5 #
-0.33333333362478673178586063841067 59:0.5 125:0.5 215:0.5 302:0.5 #
-0.32417335283970255543906091588724 59:0.5 116:0.5 174:0.5 302:0.5 #
-0.046559077413314060855942244643302 59:0.5 143:0.5 216:0.5 304:0.5 #
0.33333333362478673178586063841067 67:0.5 102:0.5 219:0.5 251:0.5 #
0.33333333362478673178586063841067 57:0.5 107:0.5 219:0.5 251:0.5 #
0.33333333362478673178586063841067 59:0.5 94:0.5 182:0.5 299:0.5 #
-0.33333333362478673178586063841067 15:0.5 82:0.5 219:0.5 251:0.5 #
-0.33310005267086217894956234886195 34:0.5 94:0.5 219:0.5 250:0.5 #
-0.33333333362478673178586063841067 67:0.5 105:0.5 217:0.5 251:0.5 #
0.33333333362478673178586063841067 59:0.5 126:0.5 186:0.5 302:0.5 #
0.33333333362478673178586063841067 59:0.5 90:0.5 207:0.5 298:0.5 #
-0.33333333362478673178586063841067 59:0.5 126:0.5 228:0.5 263:0.5 #
-0.33333333362478673178586063841067 59:0.5 107:0.5 226:0.5 263:0.5 #
0.08266447285848579906719635346235 39:0.5 105:0.5 219:0.5 251:0.5 #
0.33333333362478673178586063841067 66:0.5 105:0.5 219:0.5 251:0.5 #
-0.33333333362478673178586063841067 59:0.5 114:0.5 219:0.5 251:0.5 #
-0.33333333362478673178586063841067 59:0.5 94:0.5 218:0.5 251:0.5 #
0.33333333362478673178586063841067 59:0.5 143:0.5 228:0.5 303:0.5 #
0.22205589133232481180435513579141 38:0.5 156:0.5 191:0.5 244:0.5 #
-0.29930048550686833008782627985056 60:0.5 115:0.5 174:0.5 303:0.5 #
-0.19998982410013213528721109923936 60:0.5 90:0.5 195:0.5 242:0.5 #
-0.33333333362478673178586063841067 59:0.5 106:0.5 219:0.5 252:0.5 #
-0.33333333362478673178586063841067 59:0.5 83:0.5 219:0.5 252:0.5 #
-0.33333333362478673178586063841067 58:0.5 90:0.5 217:0.5 290:0.5 #
-0.27416124124388602245616652908211 58:0.5 94:0.5 182:0.5 298:0.5 #
-0.1410464970688236618912014819216 35:0.5 94:0.5 220:0.5 251:0.5 #
0.33333333362478673178586063841067 59:0.5 84:0.5 173:0.5 298:0.5 #
0.2212460286101130269020842433747 59:0.5 150:0.5 163:0.5 255:0.5 #
-0.26492854288195255563209684623871 59:0.5 115:0.5 173:0.5 301:0.5 #
-0.33333333362478673178586063841067 59:0.5 107:0.5 220:0.5 250:0.5 #
0.33333333362478673178586063841067 33:0.5 94:0.5 183:0.5 306:0.5 #
-0.33333333362478673178586063841067 45:0.5 146:0.5 186:0.5 307:0.5 #
-0.30199435566119309237720358396473 57:0.5 90:0.5 195:0.5 242:0.5 #
0.19105960505605634747183785293601 59:0.5 158:0.5 217:0.5 304:0.5 #
0.19005261247393062662425222697493 59:0.5 158:0.5 220:0.5 304:0.5 #
0.33333333362478673178586063841067 59:0.5 94:0.5 219:0.5 252:0.5 #
-0.33333333362478673178586063841067 59:0.5 94:0.5 208:0.5 262:0.5 #
-0.33333333362478673178586063841067 59:0.5 95:0.5 181:0.5 297:0.5 #
0.33333333362478673178586063841067 62:0.5 107:0.5 216:0.5 299:0.5 #
-0.33333333362478673178586063841067 10:0.5 148:0.5 219:0.5 252:0.5 #
-0.20352458847040860723254240838287 58:0.5 91:0.5 219:0.5 292:0.5 #
-0.27894021473319335902019133754948 72:0.5 125:0.5 172:0.5 263:0.5 #
0.33333333362478673178586063841067 35:0.5 146:0.5 164:0.5 301:0.5 #
-0.33333333362478673178586063841067 59:0.5 143:0.5 213:0.5 302:0.5 #
-0.33333333362478673178586063841067 59:0.5 91:0.5 213:0.5 304:0.5 #
0.081752595942903363845921660413296 70:0.5 125:0.5 219:0.5 287:0.5 #
0.33333333362478673178586063841067 59:0.5 90:0.5 219:0.5 297:0.5 #
-0.33333333362478673178586063841067 47:0.5 146:0.5 188:0.5 306:0.5 #
